tree
version=v4
num_class=1
num_tree_per_iteration=1
label_index=0
max_feature_idx=3080
objective=binary sigmoid:1
feature_names=Column_0 Column_1 Column_2 Column_3 Column_4 Column_5 Column_6 Column_7 Column_8 Column_9 Column_10 Column_11 Column_12 Column_13 Column_14 Column_15 Column_16 Column_17 Column_18 Column_19 Column_20 Column_21 Column_22 Column_23 Column_24 Column_25 Column_26 Column_27 Column_28 Column_29 Column_30 Column_31 Column_32 Column_33 Column_34 Column_35 Column_36 Column_37 Column_38 Column_39 Column_40 Column_41 Column_42 Column_43 Column_44 Column_45 Column_46 Column_47 Column_48 Column_49 Column_50 Column_51 Column_52 Column_53 Column_54 Column_55 Column_56 Column_57 Column_58 Column_59 Column_60 Column_61 Column_62 Column_63 Column_64 Column_65 Column_66 Column_67 Column_68 Column_69 Column_70 Column_71 Column_72 Column_73 Column_74 Column_75 Column_76 Column_77 Column_78 Column_79 Column_80 Column_81 Column_82 Column_83 Column_84 Column_85 Column_86 Column_87 Column_88 Column_89 Column_90 Column_91 Column_92 Column_93 Column_94 Column_95 Column_96 Column_97 Column_98 Column_99 Column_100 Column_101 Column_102 Column_103 Column_104 Column_105 Column_106 Column_107 Column_108 Column_109 Column_110 Column_111 Column_112 Column_113 Column_114 Column_115 Column_116 Column_117 Column_118 Column_119 Column_120 Column_121 Column_122 Column_123 Column_124 Column_125 Column_126 Column_127 Column_128 Column_129 Column_130 Column_131 Column_132 Column_133 Column_134 Column_135 Column_136 Column_137 Column_138 Column_139 Column_140 Column_141 Column_142 Column_143 Column_144 Column_145 Column_146 Column_147 Column_148 Column_149 Column_150 Column_151 Column_152 Column_153 Column_154 Column_155 Column_156 Column_157 Column_158 Column_159 Column_160 Column_161 Column_162 Column_163 Column_164 Column_165 Column_166 Column_167 Column_168 Column_169 Column_170 Column_171 Column_172 Column_173 Column_174 Column_175 Column_176 Column_177 Column_178 Column_179 Column_180 Column_181 Column_182 Column_183 Column_184 Column_185 Column_186 Column_187 Column_188 Column_189 Column_190 Column_191 Column_192 Column_193 Column_194 Column_195 Column_196 Column_197 Column_198 Column_199 Column_200 Column_201 Column_202 Column_203 Column_204 Column_205 Column_206 Column_207 Column_208 Column_209 Column_210 Column_211 Column_212 Column_213 Column_214 Column_215 Column_216 Column_217 Column_218 Column_219 Column_220 Column_221 Column_222 Column_223 Column_224 Column_225 Column_226 Column_227 Column_228 Column_229 Column_230 Column_231 Column_232 Column_233 Column_234 Column_235 Column_236 Column_237 Column_238 Column_239 Column_240 Column_241 Column_242 Column_243 Column_244 Column_245 Column_246 Column_247 Column_248 Column_249 Column_250 Column_251 Column_252 Column_253 Column_254 Column_255 Column_256 Column_257 Column_258 Column_259 Column_260 Column_261 Column_262 Column_263 Column_264 Column_265 Column_266 Column_267 Column_268 Column_269 Column_270 Column_271 Column_272 Column_273 Column_274 Column_275 Column_276 Column_277 Column_278 Column_279 Column_280 Column_281 Column_282 Column_283 Column_284 Column_285 Column_286 Column_287 Column_288 Column_289 Column_290 Column_291 Column_292 Column_293 Column_294 Column_295 Column_296 Column_297 Column_298 Column_299 Column_300 Column_301 Column_302 Column_303 Column_304 Column_305 Column_306 Column_307 Column_308 Column_309 Column_310 Column_311 Column_312 Column_313 Column_314 Column_315 Column_316 Column_317 Column_318 Column_319 Column_320 Column_321 Column_322 Column_323 Column_324 Column_325 Column_326 Column_327 Column_328 Column_329 Column_330 Column_331 Column_332 Column_333 Column_334 Column_335 Column_336 Column_337 Column_338 Column_339 Column_340 Column_341 Column_342 Column_343 Column_344 Column_345 Column_346 Column_347 Column_348 Column_349 Column_350 Column_351 Column_352 Column_353 Column_354 Column_355 Column_356 Column_357 Column_358 Column_359 Column_360 Column_361 Column_362 Column_363 Column_364 Column_365 Column_366 Column_367 Column_368 Column_369 Column_370 Column_371 Column_372 Column_373 Column_374 Column_375 Column_376 Column_377 Column_378 Column_379 Column_380 Column_381 Column_382 Column_383 Column_384 Column_385 Column_386 Column_387 Column_388 Column_389 Column_390 Column_391 Column_392 Column_393 Column_394 Column_395 Column_396 Column_397 Column_398 Column_399 Column_400 Column_401 Column_402 Column_403 Column_404 Column_405 Column_406 Column_407 Column_408 Column_409 Column_410 Column_411 Column_412 Column_413 Column_414 Column_415 Column_416 Column_417 Column_418 Column_419 Column_420 Column_421 Column_422 Column_423 Column_424 Column_425 Column_426 Column_427 Column_428 Column_429 Column_430 Column_431 Column_432 Column_433 Column_434 Column_435 Column_436 Column_437 Column_438 Column_439 Column_440 Column_441 Column_442 Column_443 Column_444 Column_445 Column_446 Column_447 Column_448 Column_449 Column_450 Column_451 Column_452 Column_453 Column_454 Column_455 Column_456 Column_457 Column_458 Column_459 Column_460 Column_461 Column_462 Column_463 Column_464 Column_465 Column_466 Column_467 Column_468 Column_469 Column_470 Column_471 Column_472 Column_473 Column_474 Column_475 Column_476 Column_477 Column_478 Column_479 Column_480 Column_481 Column_482 Column_483 Column_484 Column_485 Column_486 Column_487 Column_488 Column_489 Column_490 Column_491 Column_492 Column_493 Column_494 Column_495 Column_496 Column_497 Column_498 Column_499 Column_500 Column_501 Column_502 Column_503 Column_504 Column_505 Column_506 Column_507 Column_508 Column_509 Column_510 Column_511 Column_512 Column_513 Column_514 Column_515 Column_516 Column_517 Column_518 Column_519 Column_520 Column_521 Column_522 Column_523 Column_524 Column_525 Column_526 Column_527 Column_528 Column_529 Column_530 Column_531 Column_532 Column_533 Column_534 Column_535 Column_536 Column_537 Column_538 Column_539 Column_540 Column_541 Column_542 Column_543 Column_544 Column_545 Column_546 Column_547 Column_548 Column_549 Column_550 Column_551 Column_552 Column_553 Column_554 Column_555 Column_556 Column_557 Column_558 Column_559 Column_560 Column_561 Column_562 Column_563 Column_564 Column_565 Column_566 Column_567 Column_568 Column_569 Column_570 Column_571 Column_572 Column_573 Column_574 Column_575 Column_576 Column_577 Column_578 Column_579 Column_580 Column_581 Column_582 Column_583 Column_584 Column_585 Column_586 Column_587 Column_588 Column_589 Column_590 Column_591 Column_592 Column_593 Column_594 Column_595 Column_596 Column_597 Column_598 Column_599 Column_600 Column_601 Column_602 Column_603 Column_604 Column_605 Column_606 Column_607 Column_608 Column_609 Column_610 Column_611 Column_612 Column_613 Column_614 Column_615 Column_616 Column_617 Column_618 Column_619 Column_620 Column_621 Column_622 Column_623 Column_624 Column_625 Column_626 Column_627 Column_628 Column_629 Column_630 Column_631 Column_632 Column_633 Column_634 Column_635 Column_636 Column_637 Column_638 Column_639 Column_640 Column_641 Column_642 Column_643 Column_644 Column_645 Column_646 Column_647 Column_648 Column_649 Column_650 Column_651 Column_652 Column_653 Column_654 Column_655 Column_656 Column_657 Column_658 Column_659 Column_660 Column_661 Column_662 Column_663 Column_664 Column_665 Column_666 Column_667 Column_668 Column_669 Column_670 Column_671 Column_672 Column_673 Column_674 Column_675 Column_676 Column_677 Column_678 Column_679 Column_680 Column_681 Column_682 Column_683 Column_684 Column_685 Column_686 Column_687 Column_688 Column_689 Column_690 Column_691 Column_692 Column_693 Column_694 Column_695 Column_696 Column_697 Column_698 Column_699 Column_700 Column_701 Column_702 Column_703 Column_704 Column_705 Column_706 Column_707 Column_708 Column_709 Column_710 Column_711 Column_712 Column_713 Column_714 Column_715 Column_716 Column_717 Column_718 Column_719 Column_720 Column_721 Column_722 Column_723 Column_724 Column_725 Column_726 Column_727 Column_728 Column_729 Column_730 Column_731 Column_732 Column_733 Column_734 Column_735 Column_736 Column_737 Column_738 Column_739 Column_740 Column_741 Column_742 Column_743 Column_744 Column_745 Column_746 Column_747 Column_748 Column_749 Column_750 Column_751 Column_752 Column_753 Column_754 Column_755 Column_756 Column_757 Column_758 Column_759 Column_760 Column_761 Column_762 Column_763 Column_764 Column_765 Column_766 Column_767 Column_768 Column_769 Column_770 Column_771 Column_772 Column_773 Column_774 Column_775 Column_776 Column_777 Column_778 Column_779 Column_780 Column_781 Column_782 Column_783 Column_784 Column_785 Column_786 Column_787 Column_788 Column_789 Column_790 Column_791 Column_792 Column_793 Column_794 Column_795 Column_796 Column_797 Column_798 Column_799 Column_800 Column_801 Column_802 Column_803 Column_804 Column_805 Column_806 Column_807 Column_808 Column_809 Column_810 Column_811 Column_812 Column_813 Column_814 Column_815 Column_816 Column_817 Column_818 Column_819 Column_820 Column_821 Column_822 Column_823 Column_824 Column_825 Column_826 Column_827 Column_828 Column_829 Column_830 Column_831 Column_832 Column_833 Column_834 Column_835 Column_836 Column_837 Column_838 Column_839 Column_840 Column_841 Column_842 Column_843 Column_844 Column_845 Column_846 Column_847 Column_848 Column_849 Column_850 Column_851 Column_852 Column_853 Column_854 Column_855 Column_856 Column_857 Column_858 Column_859 Column_860 Column_861 Column_862 Column_863 Column_864 Column_865 Column_866 Column_867 Column_868 Column_869 Column_870 Column_871 Column_872 Column_873 Column_874 Column_875 Column_876 Column_877 Column_878 Column_879 Column_880 Column_881 Column_882 Column_883 Column_884 Column_885 Column_886 Column_887 Column_888 Column_889 Column_890 Column_891 Column_892 Column_893 Column_894 Column_895 Column_896 Column_897 Column_898 Column_899 Column_900 Column_901 Column_902 Column_903 Column_904 Column_905 Column_906 Column_907 Column_908 Column_909 Column_910 Column_911 Column_912 Column_913 Column_914 Column_915 Column_916 Column_917 Column_918 Column_919 Column_920 Column_921 Column_922 Column_923 Column_924 Column_925 Column_926 Column_927 Column_928 Column_929 Column_930 Column_931 Column_932 Column_933 Column_934 Column_935 Column_936 Column_937 Column_938 Column_939 Column_940 Column_941 Column_942 Column_943 Column_944 Column_945 Column_946 Column_947 Column_948 Column_949 Column_950 Column_951 Column_952 Column_953 Column_954 Column_955 Column_956 Column_957 Column_958 Column_959 Column_960 Column_961 Column_962 Column_963 Column_964 Column_965 Column_966 Column_967 Column_968 Column_969 Column_970 Column_971 Column_972 Column_973 Column_974 Column_975 Column_976 Column_977 Column_978 Column_979 Column_980 Column_981 Column_982 Column_983 Column_984 Column_985 Column_986 Column_987 Column_988 Column_989 Column_990 Column_991 Column_992 Column_993 Column_994 Column_995 Column_996 Column_997 Column_998 Column_999 Column_1000 Column_1001 Column_1002 Column_1003 Column_1004 Column_1005 Column_1006 Column_1007 Column_1008 Column_1009 Column_1010 Column_1011 Column_1012 Column_1013 Column_1014 Column_1015 Column_1016 Column_1017 Column_1018 Column_1019 Column_1020 Column_1021 Column_1022 Column_1023 Column_1024 Column_1025 Column_1026 Column_1027 Column_1028 Column_1029 Column_1030 Column_1031 Column_1032 Column_1033 Column_1034 Column_1035 Column_1036 Column_1037 Column_1038 Column_1039 Column_1040 Column_1041 Column_1042 Column_1043 Column_1044 Column_1045 Column_1046 Column_1047 Column_1048 Column_1049 Column_1050 Column_1051 Column_1052 Column_1053 Column_1054 Column_1055 Column_1056 Column_1057 Column_1058 Column_1059 Column_1060 Column_1061 Column_1062 Column_1063 Column_1064 Column_1065 Column_1066 Column_1067 Column_1068 Column_1069 Column_1070 Column_1071 Column_1072 Column_1073 Column_1074 Column_1075 Column_1076 Column_1077 Column_1078 Column_1079 Column_1080 Column_1081 Column_1082 Column_1083 Column_1084 Column_1085 Column_1086 Column_1087 Column_1088 Column_1089 Column_1090 Column_1091 Column_1092 Column_1093 Column_1094 Column_1095 Column_1096 Column_1097 Column_1098 Column_1099 Column_1100 Column_1101 Column_1102 Column_1103 Column_1104 Column_1105 Column_1106 Column_1107 Column_1108 Column_1109 Column_1110 Column_1111 Column_1112 Column_1113 Column_1114 Column_1115 Column_1116 Column_1117 Column_1118 Column_1119 Column_1120 Column_1121 Column_1122 Column_1123 Column_1124 Column_1125 Column_1126 Column_1127 Column_1128 Column_1129 Column_1130 Column_1131 Column_1132 Column_1133 Column_1134 Column_1135 Column_1136 Column_1137 Column_1138 Column_1139 Column_1140 Column_1141 Column_1142 Column_1143 Column_1144 Column_1145 Column_1146 Column_1147 Column_1148 Column_1149 Column_1150 Column_1151 Column_1152 Column_1153 Column_1154 Column_1155 Column_1156 Column_1157 Column_1158 Column_1159 Column_1160 Column_1161 Column_1162 Column_1163 Column_1164 Column_1165 Column_1166 Column_1167 Column_1168 Column_1169 Column_1170 Column_1171 Column_1172 Column_1173 Column_1174 Column_1175 Column_1176 Column_1177 Column_1178 Column_1179 Column_1180 Column_1181 Column_1182 Column_1183 Column_1184 Column_1185 Column_1186 Column_1187 Column_1188 Column_1189 Column_1190 Column_1191 Column_1192 Column_1193 Column_1194 Column_1195 Column_1196 Column_1197 Column_1198 Column_1199 Column_1200 Column_1201 Column_1202 Column_1203 Column_1204 Column_1205 Column_1206 Column_1207 Column_1208 Column_1209 Column_1210 Column_1211 Column_1212 Column_1213 Column_1214 Column_1215 Column_1216 Column_1217 Column_1218 Column_1219 Column_1220 Column_1221 Column_1222 Column_1223 Column_1224 Column_1225 Column_1226 Column_1227 Column_1228 Column_1229 Column_1230 Column_1231 Column_1232 Column_1233 Column_1234 Column_1235 Column_1236 Column_1237 Column_1238 Column_1239 Column_1240 Column_1241 Column_1242 Column_1243 Column_1244 Column_1245 Column_1246 Column_1247 Column_1248 Column_1249 Column_1250 Column_1251 Column_1252 Column_1253 Column_1254 Column_1255 Column_1256 Column_1257 Column_1258 Column_1259 Column_1260 Column_1261 Column_1262 Column_1263 Column_1264 Column_1265 Column_1266 Column_1267 Column_1268 Column_1269 Column_1270 Column_1271 Column_1272 Column_1273 Column_1274 Column_1275 Column_1276 Column_1277 Column_1278 Column_1279 Column_1280 Column_1281 Column_1282 Column_1283 Column_1284 Column_1285 Column_1286 Column_1287 Column_1288 Column_1289 Column_1290 Column_1291 Column_1292 Column_1293 Column_1294 Column_1295 Column_1296 Column_1297 Column_1298 Column_1299 Column_1300 Column_1301 Column_1302 Column_1303 Column_1304 Column_1305 Column_1306 Column_1307 Column_1308 Column_1309 Column_1310 Column_1311 Column_1312 Column_1313 Column_1314 Column_1315 Column_1316 Column_1317 Column_1318 Column_1319 Column_1320 Column_1321 Column_1322 Column_1323 Column_1324 Column_1325 Column_1326 Column_1327 Column_1328 Column_1329 Column_1330 Column_1331 Column_1332 Column_1333 Column_1334 Column_1335 Column_1336 Column_1337 Column_1338 Column_1339 Column_1340 Column_1341 Column_1342 Column_1343 Column_1344 Column_1345 Column_1346 Column_1347 Column_1348 Column_1349 Column_1350 Column_1351 Column_1352 Column_1353 Column_1354 Column_1355 Column_1356 Column_1357 Column_1358 Column_1359 Column_1360 Column_1361 Column_1362 Column_1363 Column_1364 Column_1365 Column_1366 Column_1367 Column_1368 Column_1369 Column_1370 Column_1371 Column_1372 Column_1373 Column_1374 Column_1375 Column_1376 Column_1377 Column_1378 Column_1379 Column_1380 Column_1381 Column_1382 Column_1383 Column_1384 Column_1385 Column_1386 Column_1387 Column_1388 Column_1389 Column_1390 Column_1391 Column_1392 Column_1393 Column_1394 Column_1395 Column_1396 Column_1397 Column_1398 Column_1399 Column_1400 Column_1401 Column_1402 Column_1403 Column_1404 Column_1405 Column_1406 Column_1407 Column_1408 Column_1409 Column_1410 Column_1411 Column_1412 Column_1413 Column_1414 Column_1415 Column_1416 Column_1417 Column_1418 Column_1419 Column_1420 Column_1421 Column_1422 Column_1423 Column_1424 Column_1425 Column_1426 Column_1427 Column_1428 Column_1429 Column_1430 Column_1431 Column_1432 Column_1433 Column_1434 Column_1435 Column_1436 Column_1437 Column_1438 Column_1439 Column_1440 Column_1441 Column_1442 Column_1443 Column_1444 Column_1445 Column_1446 Column_1447 Column_1448 Column_1449 Column_1450 Column_1451 Column_1452 Column_1453 Column_1454 Column_1455 Column_1456 Column_1457 Column_1458 Column_1459 Column_1460 Column_1461 Column_1462 Column_1463 Column_1464 Column_1465 Column_1466 Column_1467 Column_1468 Column_1469 Column_1470 Column_1471 Column_1472 Column_1473 Column_1474 Column_1475 Column_1476 Column_1477 Column_1478 Column_1479 Column_1480 Column_1481 Column_1482 Column_1483 Column_1484 Column_1485 Column_1486 Column_1487 Column_1488 Column_1489 Column_1490 Column_1491 Column_1492 Column_1493 Column_1494 Column_1495 Column_1496 Column_1497 Column_1498 Column_1499 Column_1500 Column_1501 Column_1502 Column_1503 Column_1504 Column_1505 Column_1506 Column_1507 Column_1508 Column_1509 Column_1510 Column_1511 Column_1512 Column_1513 Column_1514 Column_1515 Column_1516 Column_1517 Column_1518 Column_1519 Column_1520 Column_1521 Column_1522 Column_1523 Column_1524 Column_1525 Column_1526 Column_1527 Column_1528 Column_1529 Column_1530 Column_1531 Column_1532 Column_1533 Column_1534 Column_1535 Column_1536 Column_1537 Column_1538 Column_1539 Column_1540 Column_1541 Column_1542 Column_1543 Column_1544 Column_1545 Column_1546 Column_1547 Column_1548 Column_1549 Column_1550 Column_1551 Column_1552 Column_1553 Column_1554 Column_1555 Column_1556 Column_1557 Column_1558 Column_1559 Column_1560 Column_1561 Column_1562 Column_1563 Column_1564 Column_1565 Column_1566 Column_1567 Column_1568 Column_1569 Column_1570 Column_1571 Column_1572 Column_1573 Column_1574 Column_1575 Column_1576 Column_1577 Column_1578 Column_1579 Column_1580 Column_1581 Column_1582 Column_1583 Column_1584 Column_1585 Column_1586 Column_1587 Column_1588 Column_1589 Column_1590 Column_1591 Column_1592 Column_1593 Column_1594 Column_1595 Column_1596 Column_1597 Column_1598 Column_1599 Column_1600 Column_1601 Column_1602 Column_1603 Column_1604 Column_1605 Column_1606 Column_1607 Column_1608 Column_1609 Column_1610 Column_1611 Column_1612 Column_1613 Column_1614 Column_1615 Column_1616 Column_1617 Column_1618 Column_1619 Column_1620 Column_1621 Column_1622 Column_1623 Column_1624 Column_1625 Column_1626 Column_1627 Column_1628 Column_1629 Column_1630 Column_1631 Column_1632 Column_1633 Column_1634 Column_1635 Column_1636 Column_1637 Column_1638 Column_1639 Column_1640 Column_1641 Column_1642 Column_1643 Column_1644 Column_1645 Column_1646 Column_1647 Column_1648 Column_1649 Column_1650 Column_1651 Column_1652 Column_1653 Column_1654 Column_1655 Column_1656 Column_1657 Column_1658 Column_1659 Column_1660 Column_1661 Column_1662 Column_1663 Column_1664 Column_1665 Column_1666 Column_1667 Column_1668 Column_1669 Column_1670 Column_1671 Column_1672 Column_1673 Column_1674 Column_1675 Column_1676 Column_1677 Column_1678 Column_1679 Column_1680 Column_1681 Column_1682 Column_1683 Column_1684 Column_1685 Column_1686 Column_1687 Column_1688 Column_1689 Column_1690 Column_1691 Column_1692 Column_1693 Column_1694 Column_1695 Column_1696 Column_1697 Column_1698 Column_1699 Column_1700 Column_1701 Column_1702 Column_1703 Column_1704 Column_1705 Column_1706 Column_1707 Column_1708 Column_1709 Column_1710 Column_1711 Column_1712 Column_1713 Column_1714 Column_1715 Column_1716 Column_1717 Column_1718 Column_1719 Column_1720 Column_1721 Column_1722 Column_1723 Column_1724 Column_1725 Column_1726 Column_1727 Column_1728 Column_1729 Column_1730 Column_1731 Column_1732 Column_1733 Column_1734 Column_1735 Column_1736 Column_1737 Column_1738 Column_1739 Column_1740 Column_1741 Column_1742 Column_1743 Column_1744 Column_1745 Column_1746 Column_1747 Column_1748 Column_1749 Column_1750 Column_1751 Column_1752 Column_1753 Column_1754 Column_1755 Column_1756 Column_1757 Column_1758 Column_1759 Column_1760 Column_1761 Column_1762 Column_1763 Column_1764 Column_1765 Column_1766 Column_1767 Column_1768 Column_1769 Column_1770 Column_1771 Column_1772 Column_1773 Column_1774 Column_1775 Column_1776 Column_1777 Column_1778 Column_1779 Column_1780 Column_1781 Column_1782 Column_1783 Column_1784 Column_1785 Column_1786 Column_1787 Column_1788 Column_1789 Column_1790 Column_1791 Column_1792 Column_1793 Column_1794 Column_1795 Column_1796 Column_1797 Column_1798 Column_1799 Column_1800 Column_1801 Column_1802 Column_1803 Column_1804 Column_1805 Column_1806 Column_1807 Column_1808 Column_1809 Column_1810 Column_1811 Column_1812 Column_1813 Column_1814 Column_1815 Column_1816 Column_1817 Column_1818 Column_1819 Column_1820 Column_1821 Column_1822 Column_1823 Column_1824 Column_1825 Column_1826 Column_1827 Column_1828 Column_1829 Column_1830 Column_1831 Column_1832 Column_1833 Column_1834 Column_1835 Column_1836 Column_1837 Column_1838 Column_1839 Column_1840 Column_1841 Column_1842 Column_1843 Column_1844 Column_1845 Column_1846 Column_1847 Column_1848 Column_1849 Column_1850 Column_1851 Column_1852 Column_1853 Column_1854 Column_1855 Column_1856 Column_1857 Column_1858 Column_1859 Column_1860 Column_1861 Column_1862 Column_1863 Column_1864 Column_1865 Column_1866 Column_1867 Column_1868 Column_1869 Column_1870 Column_1871 Column_1872 Column_1873 Column_1874 Column_1875 Column_1876 Column_1877 Column_1878 Column_1879 Column_1880 Column_1881 Column_1882 Column_1883 Column_1884 Column_1885 Column_1886 Column_1887 Column_1888 Column_1889 Column_1890 Column_1891 Column_1892 Column_1893 Column_1894 Column_1895 Column_1896 Column_1897 Column_1898 Column_1899 Column_1900 Column_1901 Column_1902 Column_1903 Column_1904 Column_1905 Column_1906 Column_1907 Column_1908 Column_1909 Column_1910 Column_1911 Column_1912 Column_1913 Column_1914 Column_1915 Column_1916 Column_1917 Column_1918 Column_1919 Column_1920 Column_1921 Column_1922 Column_1923 Column_1924 Column_1925 Column_1926 Column_1927 Column_1928 Column_1929 Column_1930 Column_1931 Column_1932 Column_1933 Column_1934 Column_1935 Column_1936 Column_1937 Column_1938 Column_1939 Column_1940 Column_1941 Column_1942 Column_1943 Column_1944 Column_1945 Column_1946 Column_1947 Column_1948 Column_1949 Column_1950 Column_1951 Column_1952 Column_1953 Column_1954 Column_1955 Column_1956 Column_1957 Column_1958 Column_1959 Column_1960 Column_1961 Column_1962 Column_1963 Column_1964 Column_1965 Column_1966 Column_1967 Column_1968 Column_1969 Column_1970 Column_1971 Column_1972 Column_1973 Column_1974 Column_1975 Column_1976 Column_1977 Column_1978 Column_1979 Column_1980 Column_1981 Column_1982 Column_1983 Column_1984 Column_1985 Column_1986 Column_1987 Column_1988 Column_1989 Column_1990 Column_1991 Column_1992 Column_1993 Column_1994 Column_1995 Column_1996 Column_1997 Column_1998 Column_1999 Column_2000 Column_2001 Column_2002 Column_2003 Column_2004 Column_2005 Column_2006 Column_2007 Column_2008 Column_2009 Column_2010 Column_2011 Column_2012 Column_2013 Column_2014 Column_2015 Column_2016 Column_2017 Column_2018 Column_2019 Column_2020 Column_2021 Column_2022 Column_2023 Column_2024 Column_2025 Column_2026 Column_2027 Column_2028 Column_2029 Column_2030 Column_2031 Column_2032 Column_2033 Column_2034 Column_2035 Column_2036 Column_2037 Column_2038 Column_2039 Column_2040 Column_2041 Column_2042 Column_2043 Column_2044 Column_2045 Column_2046 Column_2047 Column_2048 Column_2049 Column_2050 Column_2051 Column_2052 Column_2053 Column_2054 Column_2055 Column_2056 Column_2057 Column_2058 Column_2059 Column_2060 Column_2061 Column_2062 Column_2063 Column_2064 Column_2065 Column_2066 Column_2067 Column_2068 Column_2069 Column_2070 Column_2071 Column_2072 Column_2073 Column_2074 Column_2075 Column_2076 Column_2077 Column_2078 Column_2079 Column_2080 Column_2081 Column_2082 Column_2083 Column_2084 Column_2085 Column_2086 Column_2087 Column_2088 Column_2089 Column_2090 Column_2091 Column_2092 Column_2093 Column_2094 Column_2095 Column_2096 Column_2097 Column_2098 Column_2099 Column_2100 Column_2101 Column_2102 Column_2103 Column_2104 Column_2105 Column_2106 Column_2107 Column_2108 Column_2109 Column_2110 Column_2111 Column_2112 Column_2113 Column_2114 Column_2115 Column_2116 Column_2117 Column_2118 Column_2119 Column_2120 Column_2121 Column_2122 Column_2123 Column_2124 Column_2125 Column_2126 Column_2127 Column_2128 Column_2129 Column_2130 Column_2131 Column_2132 Column_2133 Column_2134 Column_2135 Column_2136 Column_2137 Column_2138 Column_2139 Column_2140 Column_2141 Column_2142 Column_2143 Column_2144 Column_2145 Column_2146 Column_2147 Column_2148 Column_2149 Column_2150 Column_2151 Column_2152 Column_2153 Column_2154 Column_2155 Column_2156 Column_2157 Column_2158 Column_2159 Column_2160 Column_2161 Column_2162 Column_2163 Column_2164 Column_2165 Column_2166 Column_2167 Column_2168 Column_2169 Column_2170 Column_2171 Column_2172 Column_2173 Column_2174 Column_2175 Column_2176 Column_2177 Column_2178 Column_2179 Column_2180 Column_2181 Column_2182 Column_2183 Column_2184 Column_2185 Column_2186 Column_2187 Column_2188 Column_2189 Column_2190 Column_2191 Column_2192 Column_2193 Column_2194 Column_2195 Column_2196 Column_2197 Column_2198 Column_2199 Column_2200 Column_2201 Column_2202 Column_2203 Column_2204 Column_2205 Column_2206 Column_2207 Column_2208 Column_2209 Column_2210 Column_2211 Column_2212 Column_2213 Column_2214 Column_2215 Column_2216 Column_2217 Column_2218 Column_2219 Column_2220 Column_2221 Column_2222 Column_2223 Column_2224 Column_2225 Column_2226 Column_2227 Column_2228 Column_2229 Column_2230 Column_2231 Column_2232 Column_2233 Column_2234 Column_2235 Column_2236 Column_2237 Column_2238 Column_2239 Column_2240 Column_2241 Column_2242 Column_2243 Column_2244 Column_2245 Column_2246 Column_2247 Column_2248 Column_2249 Column_2250 Column_2251 Column_2252 Column_2253 Column_2254 Column_2255 Column_2256 Column_2257 Column_2258 Column_2259 Column_2260 Column_2261 Column_2262 Column_2263 Column_2264 Column_2265 Column_2266 Column_2267 Column_2268 Column_2269 Column_2270 Column_2271 Column_2272 Column_2273 Column_2274 Column_2275 Column_2276 Column_2277 Column_2278 Column_2279 Column_2280 Column_2281 Column_2282 Column_2283 Column_2284 Column_2285 Column_2286 Column_2287 Column_2288 Column_2289 Column_2290 Column_2291 Column_2292 Column_2293 Column_2294 Column_2295 Column_2296 Column_2297 Column_2298 Column_2299 Column_2300 Column_2301 Column_2302 Column_2303 Column_2304 Column_2305 Column_2306 Column_2307 Column_2308 Column_2309 Column_2310 Column_2311 Column_2312 Column_2313 Column_2314 Column_2315 Column_2316 Column_2317 Column_2318 Column_2319 Column_2320 Column_2321 Column_2322 Column_2323 Column_2324 Column_2325 Column_2326 Column_2327 Column_2328 Column_2329 Column_2330 Column_2331 Column_2332 Column_2333 Column_2334 Column_2335 Column_2336 Column_2337 Column_2338 Column_2339 Column_2340 Column_2341 Column_2342 Column_2343 Column_2344 Column_2345 Column_2346 Column_2347 Column_2348 Column_2349 Column_2350 Column_2351 Column_2352 Column_2353 Column_2354 Column_2355 Column_2356 Column_2357 Column_2358 Column_2359 Column_2360 Column_2361 Column_2362 Column_2363 Column_2364 Column_2365 Column_2366 Column_2367 Column_2368 Column_2369 Column_2370 Column_2371 Column_2372 Column_2373 Column_2374 Column_2375 Column_2376 Column_2377 Column_2378 Column_2379 Column_2380 Column_2381 Column_2382 Column_2383 Column_2384 Column_2385 Column_2386 Column_2387 Column_2388 Column_2389 Column_2390 Column_2391 Column_2392 Column_2393 Column_2394 Column_2395 Column_2396 Column_2397 Column_2398 Column_2399 Column_2400 Column_2401 Column_2402 Column_2403 Column_2404 Column_2405 Column_2406 Column_2407 Column_2408 Column_2409 Column_2410 Column_2411 Column_2412 Column_2413 Column_2414 Column_2415 Column_2416 Column_2417 Column_2418 Column_2419 Column_2420 Column_2421 Column_2422 Column_2423 Column_2424 Column_2425 Column_2426 Column_2427 Column_2428 Column_2429 Column_2430 Column_2431 Column_2432 Column_2433 Column_2434 Column_2435 Column_2436 Column_2437 Column_2438 Column_2439 Column_2440 Column_2441 Column_2442 Column_2443 Column_2444 Column_2445 Column_2446 Column_2447 Column_2448 Column_2449 Column_2450 Column_2451 Column_2452 Column_2453 Column_2454 Column_2455 Column_2456 Column_2457 Column_2458 Column_2459 Column_2460 Column_2461 Column_2462 Column_2463 Column_2464 Column_2465 Column_2466 Column_2467 Column_2468 Column_2469 Column_2470 Column_2471 Column_2472 Column_2473 Column_2474 Column_2475 Column_2476 Column_2477 Column_2478 Column_2479 Column_2480 Column_2481 Column_2482 Column_2483 Column_2484 Column_2485 Column_2486 Column_2487 Column_2488 Column_2489 Column_2490 Column_2491 Column_2492 Column_2493 Column_2494 Column_2495 Column_2496 Column_2497 Column_2498 Column_2499 Column_2500 Column_2501 Column_2502 Column_2503 Column_2504 Column_2505 Column_2506 Column_2507 Column_2508 Column_2509 Column_2510 Column_2511 Column_2512 Column_2513 Column_2514 Column_2515 Column_2516 Column_2517 Column_2518 Column_2519 Column_2520 Column_2521 Column_2522 Column_2523 Column_2524 Column_2525 Column_2526 Column_2527 Column_2528 Column_2529 Column_2530 Column_2531 Column_2532 Column_2533 Column_2534 Column_2535 Column_2536 Column_2537 Column_2538 Column_2539 Column_2540 Column_2541 Column_2542 Column_2543 Column_2544 Column_2545 Column_2546 Column_2547 Column_2548 Column_2549 Column_2550 Column_2551 Column_2552 Column_2553 Column_2554 Column_2555 Column_2556 Column_2557 Column_2558 Column_2559 Column_2560 Column_2561 Column_2562 Column_2563 Column_2564 Column_2565 Column_2566 Column_2567 Column_2568 Column_2569 Column_2570 Column_2571 Column_2572 Column_2573 Column_2574 Column_2575 Column_2576 Column_2577 Column_2578 Column_2579 Column_2580 Column_2581 Column_2582 Column_2583 Column_2584 Column_2585 Column_2586 Column_2587 Column_2588 Column_2589 Column_2590 Column_2591 Column_2592 Column_2593 Column_2594 Column_2595 Column_2596 Column_2597 Column_2598 Column_2599 Column_2600 Column_2601 Column_2602 Column_2603 Column_2604 Column_2605 Column_2606 Column_2607 Column_2608 Column_2609 Column_2610 Column_2611 Column_2612 Column_2613 Column_2614 Column_2615 Column_2616 Column_2617 Column_2618 Column_2619 Column_2620 Column_2621 Column_2622 Column_2623 Column_2624 Column_2625 Column_2626 Column_2627 Column_2628 Column_2629 Column_2630 Column_2631 Column_2632 Column_2633 Column_2634 Column_2635 Column_2636 Column_2637 Column_2638 Column_2639 Column_2640 Column_2641 Column_2642 Column_2643 Column_2644 Column_2645 Column_2646 Column_2647 Column_2648 Column_2649 Column_2650 Column_2651 Column_2652 Column_2653 Column_2654 Column_2655 Column_2656 Column_2657 Column_2658 Column_2659 Column_2660 Column_2661 Column_2662 Column_2663 Column_2664 Column_2665 Column_2666 Column_2667 Column_2668 Column_2669 Column_2670 Column_2671 Column_2672 Column_2673 Column_2674 Column_2675 Column_2676 Column_2677 Column_2678 Column_2679 Column_2680 Column_2681 Column_2682 Column_2683 Column_2684 Column_2685 Column_2686 Column_2687 Column_2688 Column_2689 Column_2690 Column_2691 Column_2692 Column_2693 Column_2694 Column_2695 Column_2696 Column_2697 Column_2698 Column_2699 Column_2700 Column_2701 Column_2702 Column_2703 Column_2704 Column_2705 Column_2706 Column_2707 Column_2708 Column_2709 Column_2710 Column_2711 Column_2712 Column_2713 Column_2714 Column_2715 Column_2716 Column_2717 Column_2718 Column_2719 Column_2720 Column_2721 Column_2722 Column_2723 Column_2724 Column_2725 Column_2726 Column_2727 Column_2728 Column_2729 Column_2730 Column_2731 Column_2732 Column_2733 Column_2734 Column_2735 Column_2736 Column_2737 Column_2738 Column_2739 Column_2740 Column_2741 Column_2742 Column_2743 Column_2744 Column_2745 Column_2746 Column_2747 Column_2748 Column_2749 Column_2750 Column_2751 Column_2752 Column_2753 Column_2754 Column_2755 Column_2756 Column_2757 Column_2758 Column_2759 Column_2760 Column_2761 Column_2762 Column_2763 Column_2764 Column_2765 Column_2766 Column_2767 Column_2768 Column_2769 Column_2770 Column_2771 Column_2772 Column_2773 Column_2774 Column_2775 Column_2776 Column_2777 Column_2778 Column_2779 Column_2780 Column_2781 Column_2782 Column_2783 Column_2784 Column_2785 Column_2786 Column_2787 Column_2788 Column_2789 Column_2790 Column_2791 Column_2792 Column_2793 Column_2794 Column_2795 Column_2796 Column_2797 Column_2798 Column_2799 Column_2800 Column_2801 Column_2802 Column_2803 Column_2804 Column_2805 Column_2806 Column_2807 Column_2808 Column_2809 Column_2810 Column_2811 Column_2812 Column_2813 Column_2814 Column_2815 Column_2816 Column_2817 Column_2818 Column_2819 Column_2820 Column_2821 Column_2822 Column_2823 Column_2824 Column_2825 Column_2826 Column_2827 Column_2828 Column_2829 Column_2830 Column_2831 Column_2832 Column_2833 Column_2834 Column_2835 Column_2836 Column_2837 Column_2838 Column_2839 Column_2840 Column_2841 Column_2842 Column_2843 Column_2844 Column_2845 Column_2846 Column_2847 Column_2848 Column_2849 Column_2850 Column_2851 Column_2852 Column_2853 Column_2854 Column_2855 Column_2856 Column_2857 Column_2858 Column_2859 Column_2860 Column_2861 Column_2862 Column_2863 Column_2864 Column_2865 Column_2866 Column_2867 Column_2868 Column_2869 Column_2870 Column_2871 Column_2872 Column_2873 Column_2874 Column_2875 Column_2876 Column_2877 Column_2878 Column_2879 Column_2880 Column_2881 Column_2882 Column_2883 Column_2884 Column_2885 Column_2886 Column_2887 Column_2888 Column_2889 Column_2890 Column_2891 Column_2892 Column_2893 Column_2894 Column_2895 Column_2896 Column_2897 Column_2898 Column_2899 Column_2900 Column_2901 Column_2902 Column_2903 Column_2904 Column_2905 Column_2906 Column_2907 Column_2908 Column_2909 Column_2910 Column_2911 Column_2912 Column_2913 Column_2914 Column_2915 Column_2916 Column_2917 Column_2918 Column_2919 Column_2920 Column_2921 Column_2922 Column_2923 Column_2924 Column_2925 Column_2926 Column_2927 Column_2928 Column_2929 Column_2930 Column_2931 Column_2932 Column_2933 Column_2934 Column_2935 Column_2936 Column_2937 Column_2938 Column_2939 Column_2940 Column_2941 Column_2942 Column_2943 Column_2944 Column_2945 Column_2946 Column_2947 Column_2948 Column_2949 Column_2950 Column_2951 Column_2952 Column_2953 Column_2954 Column_2955 Column_2956 Column_2957 Column_2958 Column_2959 Column_2960 Column_2961 Column_2962 Column_2963 Column_2964 Column_2965 Column_2966 Column_2967 Column_2968 Column_2969 Column_2970 Column_2971 Column_2972 Column_2973 Column_2974 Column_2975 Column_2976 Column_2977 Column_2978 Column_2979 Column_2980 Column_2981 Column_2982 Column_2983 Column_2984 Column_2985 Column_2986 Column_2987 Column_2988 Column_2989 Column_2990 Column_2991 Column_2992 Column_2993 Column_2994 Column_2995 Column_2996 Column_2997 Column_2998 Column_2999 Column_3000 Column_3001 Column_3002 Column_3003 Column_3004 Column_3005 Column_3006 Column_3007 Column_3008 Column_3009 Column_3010 Column_3011 Column_3012 Column_3013 Column_3014 Column_3015 Column_3016 Column_3017 Column_3018 Column_3019 Column_3020 Column_3021 Column_3022 Column_3023 Column_3024 Column_3025 Column_3026 Column_3027 Column_3028 Column_3029 Column_3030 Column_3031 Column_3032 Column_3033 Column_3034 Column_3035 Column_3036 Column_3037 Column_3038 Column_3039 Column_3040 Column_3041 Column_3042 Column_3043 Column_3044 Column_3045 Column_3046 Column_3047 Column_3048 Column_3049 Column_3050 Column_3051 Column_3052 Column_3053 Column_3054 Column_3055 Column_3056 Column_3057 Column_3058 Column_3059 Column_3060 Column_3061 Column_3062 Column_3063 Column_3064 Column_3065 Column_3066 Column_3067 Column_3068 Column_3069 Column_3070 Column_3071 Column_3072 Column_3073 Column_3074 Column_3075 Column_3076 Column_3077 Column_3078 Column_3079 Column_3080
feature_infos=[-7.918799877166748:6.0195398330688477] [1.1868865489959717:7.6473774909973145] [-3.8312492370605469:6.0886192321777344] [-2.0897448062896729:1.9302549362182617] [-1.8663897514343262:1.1432921886444092] [-3.5393595695495605:1.3168714046478271] [-2.1861321926116943:1.8888323307037354] [-1.1440591812133789:2.8158729076385498] [-2.3780150413513184:1.296563982963562] [-1.6040372848510742:1.649808406829834] [-2.43593430519104:0.79957664012908936] [-1.1938990354537964:2.1643662452697754] [-1.5440201759338379:1.6837944984436035] [-3.185915470123291:1.4490897655487061] [-2.2815790176391602:2.2798593044281006] [-2.7018270492553711:2.775611400604248] [-3.1279289722442627:1.4318437576293945] [-1.6182799339294434:2.4308743476867676] [-1.52593994140625:1.4619033336639404] [-1.994783878326416:2.9100580215454102] [-1.3937772512435913:1.914795994758606] [-2.1718382835388184:1.9835693836212158] [-2.030780553817749:1.8283555507659912] [-1.7775171995162964:2.0048916339874268] [-2.1185190677642822:1.0895962715148926] [-2.7421343326568604:2.9085397720336914] [-1.7346599102020264:1.6156007051467896] [-0.96436357498168945:2.0528736114501953] [-1.9835654497146606:1.2455325126647949] [-2.4201405048370361:1.6920044422149658] [-1.1108903884887695:2.7870771884918213] [-1.6491156816482544:1.3981443643569946] [-1.5418027639389038:2.1580584049224854] [-1.4667458534240723:2.2787089347839355] [-1.4937139749526978:1.5195783376693726] [-1.4377872943878174:1.5519193410873413] [-0.77161449193954468:1.9380854368209839] [-2.1205036640167236:1.4843525886535645] [-3.207550048828125:1.7851454019546509] [-2.1365249156951904:1.8373246192932129] [-2.6004154682159424:1.129082202911377] [-2.4749810695648193:3.0397276878356934] [-2.7385017871856689:1.7231588363647461] [-2.7674465179443359:1.9050853252410889] [-2.1500985622406006:1.2608013153076172] [-1.7910974025726318:2.7637622356414795] [-1.6649788618087769:2.0972964763641357] [-0.48709920048713684:3.0230097770690918] [-1.6655911207199097:1.805866003036499] [-2.0849390029907227:1.86481773853302] [-1.5551708936691284:1.5961735248565674] [-1.1967670917510986:2.3378102779388428] [-2.4895219802856445:1.4671978950500488] [-2.0860750675201416:1.6352107524871826] [-2.5075345039367676:1.815706729888916] [-1.7988494634628296:1.7507458925247192] [-2.0275454521179199:0.58435201644897461] [-2.4488317966461182:3.273118257522583] [-1.3665932416915894:1.941481351852417] [-2.3720037937164307:1.0711599588394165] [-1.5037871599197388:1.902262806892395] [-2.3098528385162354:1.4894969463348389] [-1.9821962118148804:1.5028347969055176] [-2.0933380126953125:1.8889864683151245] [-2.566908597946167:2.3576111793518066] [-1.491559624671936:2.4430367946624756] [-2.2369165420532227:0.62328624725341797] [-0.90686929225921631:1.6037033796310425] [-0.84945797920227051:2.5951948165893555] [-2.0949993133544922:3.1091251373291016] [-2.4829692840576172:0.60778939723968506] [-1.6279064416885376:2.1904571056365967] [-1.6020393371582031:1.6736958026885986] [-0.7590477466583252:3.1094510555267334] [-2.2346255779266357:1.3491243124008179] [-1.7879245281219482:2.4415192604064941] [-1.9687010049819946:3.4096865653991699] [-2.3488566875457764:2.7322402000427246] [-2.0521421432495117:1.5121085643768311] [-2.3122334480285645:1.1891883611679077] [-1.7102603912353516:2.0983808040618896] [-0.95342689752578735:2.5092799663543701] [-1.7415560483932495:1.8168017864227295] [-1.5631921291351318:2.1772081851959229] [-2.3314762115478516:1.9584859609603882] [-2.0368363857269287:1.4856640100479126] [-2.5359072685241699:1.6445043087005615] [-1.0847132205963135:2.0324580669403076] [-2.0433087348937988:2.7498111724853516] [-1.3559876680374146:2.2108204364776611] [-1.3475606441497803:1.7311278581619263] [-1.9148097038269043:2.0187315940856934] [-2.0168113708496094:1.5013141632080078] [-0.85867214202880859:1.4962273836135864] [-2.5383021831512451:1.0752267837524414] [-1.3881951570510864:3.639420747756958] [-2.2267351150512695:1.5137948989868164] [-1.4633152484893799:2.4790489673614502] [-2.8811626434326172:1.2729549407958984] [-1.9983506202697754:2.4392127990722656] [-2.8108527660369873:1.8414260149002075] [-1.3450471162796021:2.3146560192108154] [-1.4967738389968872:1.6913110017776489] [-0.45624187588691711:1.9412027597427368] [-2.3887321949005127:1.3698133230209351] [-1.9739038944244385:2.0596680641174316] [-0.92338943481445312:2.6515941619873047] [-2.2339277267456055:1.413030743598938] [-2.191594123840332:2.5387418270111084] [-2.2669155597686768:1.5031887292861938] [-1.2762360572814941:1.7000378370285034] [-2.3012814521789551:1.7012385129928589] [-1.0841300487518311:2.7658593654632568] [-1.9878523349761963:2.040541410446167] [-1.6662806272506714:1.8488321304321289] [-0.27597442269325256:2.5765385627746582] [-2.339653491973877:2.41725754737854] [-0.96975213289260864:2.6040017604827881] [-1.991936206817627:1.7555806636810303] [-1.4589617252349854:2.6238312721252441] [-2.4312114715576172:1.8869194984436035] [-1.9699207544326782:3.2933418750762939] [-1.6285227537155151:0.5477745532989502] [-1.0982462167739868:2.9157102108001709] [-2.186906099319458:1.4227229356765747] [-1.0232658386230469:3.1761548519134521] [-1.7738242149353027:2.4588963985443115] [-1.9574638605117798:2.3823158740997314] [-1.0102245807647705:1.2181929349899292] [-1.7381222248077393:1.735417366027832] [-2.9077885150909424:0.52524012327194214] [-2.1381499767303467:2.8790886402130127] [-1.4240466356277466:3.161506175994873] [-2.6291041374206543:0.89786005020141602] [-1.410730242729187:2.1703381538391113] [-2.179267406463623:1.3755788803100586] [-2.3268916606903076:2.895794153213501] [-1.2052779197692871:2.8743994235992432] [-1.6904506683349609:1.1573953628540039] [-1.8405190706253052:1.5695306062698364] [-1.7086148262023926:2.1372065544128418] [-1.667076587677002:1.2041130065917969] [-2.1750543117523193:1.8893119096755981] [-3.576108455657959:1.7544020414352417] [-1.3156296014785767:1.8361818790435791] [-1.3143899440765381:2.2994406223297119] [-2.6739745140075684:1.1909034252166748] [-1.5642385482788086:1.9580801725387573] [-1.465113639831543:1.9095346927642822] [-2.1433641910552979:2.6165859699249268] [-3.0293622016906738:0.57418274879455566] [-2.4516220092773438:2.2022988796234131] [-1.770969033241272:1.7501416206359863] [-1.2515550851821899:1.3573895692825317] [-2.6325919628143311:2.2497134208679199] [-1.8231711387634277:2.6235232353210449] [-1.4804930686950684:3.182476282119751] [-1.7156953811645508:1.3224838972091675] [-1.6888222694396973:1.8482666015625] [-2.28348708152771:1.5713425874710083] [-2.5767168998718262:0.51305365562438965] [-1.3930349349975586:2.2368154525756836] [-1.5274627208709717:0.84831631183624268] [-2.98539137840271:0.37769749760627747] [-2.0537378787994385:2.5047979354858398] [-1.1564397811889648:1.5621962547302246] [-2.3743700981140137:1.3437644243240356] [-3.0635545253753662:2.1042752265930176] [-2.1351194381713867:2.4548337459564209] [-1.8182979822158813:2.265324592590332] [-1.3216701745986938:1.5353573560714722] [-1.5724350214004517:1.3241806030273438] [-1.0831036567687988:2.333268404006958] [-1.2382615804672241:2.7862937450408936] [-0.68626260757446289:2.9018616676330566] [-1.9714245796203613:0.84571725130081177] [-2.2056386470794678:2.1085803508758545] [-1.5921036005020142:2.4150702953338623] [-0.72729229927062988:1.08545982837677] [-1.1377968788146973:1.4663491249084473] [-1.7437542676925659:0.98670411109924316] [-1.6365838050842285:0.86283481121063232] [-1.7747011184692383:1.6205233335494995] [-0.24158327281475067:2.1460332870483398] [-1.8367195129394531:1.5061904191970825] [-3.1459488868713379:1.3833651542663574] [-1.9688364267349243:1.3378769159317017] [-2.9969289302825928:1.5754715204238892] [-2.440352201461792:1.5096099376678467] [-1.5957452058792114:2.5620148181915283] [-2.5258281230926514:0.66703373193740845] [-2.2549231052398682:2.0242295265197754] [-1.9623709917068481:1.8175798654556274] [-1.3003062009811401:3.3482213020324707] [-1.2938399314880371:1.9817521572113037] [-2.3561358451843262:1.3112771511077881] [-1.9749737977981567:1.357515811920166] [-2.0535702705383301:1.6047292947769165] [-2.091923713684082:3.9734063148498535] [-1.4702717065811157:2.2751193046569824] [-1.1033086776733398:2.2814815044403076] [-1.8079571723937988:2.1560466289520264] [-1.8125574588775635:1.5666673183441162] [-1.6728549003601074:2.1678941249847412] [-2.6584019660949707:0.86379164457321167] [-1.7001713514328003:1.6461774110794067] [-1.8625273704528809:1.0245069265365601] [-1.5146750211715698:1.9458681344985962] [-1.2938332557678223:1.6733859777450562] [-0.44391289353370667:2.4920237064361572] [-1.7770600318908691:0.7263609766960144] [-1.66523277759552:1.6303387880325317] [-1.7348371744155884:1.8904950618743896] [-1.9524614810943604:1.6749839782714844] [-1.5065908432006836:2.279414176940918] [-3.8029627799987793:2.2481236457824707] [-1.6393792629241943:1.9269623756408691] [-1.0598257780075073:2.1051523685455322] [-3.2337992191314697:3.3395955562591553] [-1.9826682806015015:2.5671594142913818] [-2.2938346862792969:0.70957791805267334] [-1.9345974922180176:2.586461067199707] [-0.96242004632949829:2.267188549041748] [-1.7668397426605225:1.1081823110580444] [-1.4356613159179688:2.4127273559570312] [-1.9142634868621826:1.9050726890563965] [-1.9804843664169312:1.7126283645629883] [-1.2488269805908203:1.9607686996459961] [-1.2564129829406738:1.513357400894165] [-2.0542051792144775:1.7896651029586792] [-2.4813182353973389:3.191565990447998] [-2.2218127250671387:1.9254921674728394] [-1.7145067453384399:2.3627188205718994] [-1.4753190279006958:1.45375657081604] [-1.6425244808197021:1.8837600946426392] [-1.7986868619918823:2.3252086639404297] [-1.3565819263458252:2.397632360458374] [-1.5026098489761353:2.6361908912658691] [-3.1924107074737549:2.0974628925323486] [-1.8928171396255493:1.3973007202148438] [-1.5860710144042969:1.7703250646591187] [-2.0124955177307129:1.5248450040817261] [-1.8327839374542236:1.543114185333252] [-1.8884520530700684:3.3504176139831543] [-1.9142910242080688:2.0060131549835205] [-2.6257846355438232:1.4936022758483887] [-1.7505426406860352:1.6737674474716187] [-2.4119677543640137:0.55090296268463135] [-1.8326253890991211:1.7052514553070068] [-1.8589295148849487:2.0406060218811035] [-1.5800281763076782:2.4028503894805908] [-1.5774883031845093:1.7013269662857056] [-3.9419798851013184:2.7353291511535645] [-0.65487796068191528:1.3717068433761597] [-2.0177047252655029:4.0383920669555664] [-1.2833259105682373:2.0789473056793213] [-0.96718722581863403:2.936551570892334] [-0.89502894878387451:1.2837620973587036] [-2.1118185520172119:1.9519001245498657] [-1.8212448358535767:2.4509961605072021] [-2.9851937294006348:1.4771857261657715] [-1.0136778354644775:2.4122447967529297] [-2.6308650970458984:0.43240272998809814] [-1.9325922727584839:1.8428751230239868] [-0.90130001306533813:2.899683952331543] [-2.0158908367156982:2.5487263202667236] [-1.3643083572387695:1.6074314117431641] [-2.0125694274902344:3.9150063991546631] [-2.2610814571380615:1.7926849126815796] [-2.3205692768096924:1.6719621419906616] [-1.7554798126220703:2.7225987911224365] [-0.93385046720504761:2.2705166339874268] [-2.4795153141021729:0.98766237497329712] [-1.1105092763900757:1.8030747175216675] [-0.86956411600112915:2.4798662662506104] [-1.4161794185638428:2.0639369487762451] [-1.6460064649581909:2.3996996879577637] [-1.6986829042434692:2.0772309303283691] [-2.2721681594848633:1.4566617012023926] [-1.6612228155136108:1.5440038442611694] [-2.2145392894744873:1.1029919385910034] [-3.1663961410522461:1.2329429388046265] [-2.1629364490509033:1.5200579166412354] [-3.0011575222015381:0.93428957462310791] [-1.6036473512649536:2.9511804580688477] [-2.4340610504150391:1.9200261831283569] [-2.0626788139343262:1.6662943363189697] [-2.307697057723999:1.7329193353652954] [-2.1725406646728516:1.6931635141372681] [-2.4621191024780273:1.5816434621810913] [-1.8583930730819702:2.2240209579467773] [-2.1264581680297852:2.2164201736450195] [-1.531220555305481:1.4600191116333008] [-1.119600772857666:2.2393198013305664] [-1.1989691257476807:2.133427619934082] [-2.0630426406860352:2.2115993499755859] [-1.4638792276382446:1.2346612215042114] [-0.55690973997116089:2.4184296131134033] [-1.9287745952606201:1.3875343799591064] [-1.8606162071228027:3.1211831569671631] [-1.5135595798492432:2.7312281131744385] [-2.6691098213195801:0.88130468130111694] [-1.8203203678131104:1.7084110975265503] [-1.5756957530975342:1.5155160427093506] [-1.2428895235061646:3.6114547252655029] [-1.6221622228622437:2.3733561038970947] [-2.2326724529266357:2.2444014549255371] [-0.73422372341156006:2.0433824062347412] [-2.2302911281585693:1.780336856842041] [-2.973768949508667:2.2385971546173096] [-0.88354921340942383:3.6284420490264893] [-0.92492741346359253:2.2925527095794678] [-2.325761079788208:1.5087504386901855] [-1.6810212135314941:1.9413163661956787] [-0.92205667495727539:1.9885525703430176] [-1.4507744312286377:2.1769189834594727] [-3.223407506942749:2.3607320785522461] [-2.5561661720275879:1.4938305616378784] [-1.5305725336074829:2.3992569446563721] [-1.7089807987213135:1.3435602188110352] [-2.8282108306884766:2.9367427825927734] [-1.8447443246841431:3.1302363872528076] [-2.1863839626312256:1.8878791332244873] [-1.9906442165374756:1.4475300312042236] [-1.7431203126907349:2.1208131313323975] [-1.7519040107727051:1.784273624420166] [-0.91908597946166992:1.5126001834869385] [-1.4028878211975098:2.1312811374664307] [-1.8653484582901001:2.7122745513916016] [-2.1738595962524414:2.2440035343170166] [-1.2770727872848511:1.7191668748855591] [-1.3095123767852783:1.1678963899612427] [-2.0764882564544678:1.8740261793136597] [-2.6257295608520508:1.7233561277389526] [-3.5669946670532227:1.0791105031967163] [-1.2833125591278076:2.2761838436126709] [-1.1320407390594482:1.8764252662658691] [-1.9182349443435669:2.0674107074737549] [-0.69440150260925293:2.5678820610046387] [-1.9500303268432617:1.162650465965271] [-2.5099966526031494:1.4923102855682373] [-1.1621514558792114:1.7995948791503906] [-2.1945497989654541:1.9254889488220215] [-2.9995923042297363:2.295170783996582] [-2.7310423851013184:2.2386271953582764] [-1.9597734212875366:1.58123779296875] [-1.5433775186538696:2.6647722721099854] [-2.3413288593292236:2.5370965003967285] [-2.3324391841888428:1.4686479568481445] [-3.0020685195922852:0.075695604085922241] [-0.77315455675125122:1.8567975759506226] [-2.1002500057220459:2.4931740760803223] [-2.4511265754699707:1.9121922254562378] [-2.0458002090454102:1.389086127281189] [-2.7194626331329346:0.97571003437042236] [-1.7950844764709473:3.1073791980743408] [-2.2891461849212646:1.6664049625396729] [-1.8680934906005859:0.99342280626296997] [-0.76008200645446777:1.9499255418777466] [-2.2894229888916016:1.8228554725646973] [-2.5387363433837891:1.2613070011138916] [-0.84809082746505737:1.6006641387939453] [-1.5318667888641357:1.658147931098938] [-1.6409131288528442:2.1083245277404785] [-4.3556251525878906:3.0262198448181152] [-3.1908903121948242:2.0308992862701416] [-2.4638588428497314:2.1138834953308105] [-1.2324931621551514:1.9960246086120605] [-2.515782356262207:1.2954580783843994] [-1.4533654451370239:2.1708469390869141] [-1.9459574222564697:1.921110987663269] [-2.2936294078826904:1.5184205770492554] [-2.4850037097930908:1.7335536479949951] [-1.0811468362808228:1.7728642225265503] [-1.1201145648956299:2.2671010494232178] [-1.2041960954666138:1.7289879322052002] [-2.3622961044311523:0.89771151542663574] [-2.008190393447876:1.9612720012664795] [-2.0123026371002197:1.9406893253326416] [-0.82328927516937256:2.7345066070556641] [-1.6515138149261475:1.7660765647888184] [-2.0707416534423828:2.6491167545318604] [-1.5727049112319946:1.9689183235168457] [-1.0263813734054565:2.7420141696929932] [-1.8253557682037354:1.7129210233688354] [-2.6304442882537842:2.0502214431762695] [-1.7488749027252197:2.1110086441040039] [-1.8249192237854004:1.0374953746795654] [-1.2741914987564087:2.420889139175415] [-1.7822084426879883:1.6617629528045654] [-2.5203897953033447:1.6119316816329956] [-1.4181338548660278:1.8328043222427368] [-1.6642723083496094:2.0208697319030762] [-1.0489901304244995:2.3612399101257324] [-1.6627359390258789:1.3255393505096436] [-1.4803309440612793:1.6025784015655518] [-2.1200125217437744:1.4200226068496704] [-1.9721604585647583:1.4246530532836914] [-1.1844464540481567:1.7838935852050781] [-1.1970067024230957:2.8332464694976807] [-1.6502074003219604:0.93689608573913574] [-2.0000550746917725:0.80040156841278076] [-2.3364064693450928:2.0775277614593506] [-1.0562957525253296:2.5042960643768311] [-2.1862432956695557:0.75615638494491577] [-0.45949319005012512:2.1618702411651611] [-2.8851451873779297:0.86547952890396118] [-2.909660816192627:1.089347243309021] [-2.7619249820709229:1.1156656742095947] [-0.82252234220504761:2.2037861347198486] [-1.853376030921936:2.0680539608001709] [-2.7338500022888184:2.0090939998626709] [-1.1229734420776367:3.1407043933868408] [-2.5823113918304443:1.4670284986495972] [-3.4498202800750732:1.8653877973556519] [-1.3269094228744507:1.79534912109375] [-2.7665259838104248:1.2831776142120361] [-2.0995163917541504:2.111553430557251] [-2.5964596271514893:1.4075280427932739] [-1.1126372814178467:2.271681547164917] [-0.94695466756820679:2.0702958106994629] [-2.8303070068359375:3.2584545612335205] [-1.4632915258407593:2.5741457939147949] [-2.062403678894043:1.1146990060806274] [-1.0719133615493774:1.9006475210189819] [-1.2839533090591431:2.3702750205993652] [-3.0081591606140137:1.1064283847808838] [-1.9005101919174194:2.2227811813354492] [-1.9409517049789429:2.8946816921234131] [-3.8474891185760498:1.8331671953201294] [-2.1425926685333252:1.5897868871688843] [-2.586738109588623:2.5596458911895752] [-1.1356829404830933:1.9304947853088379] [-1.089964747428894:2.2493245601654053] [-0.91176432371139526:2.7969539165496826] [-1.7740936279296875:2.4581642150878906] [-2.2428462505340576:1.5220074653625488] [-1.9729255437850952:1.8942713737487793] [-1.6593610048294067:1.4452371597290039] [-2.1139497756958008:2.2162487506866455] [-0.56166946887969971:2.643425464630127] [-1.5645949840545654:2.2198781967163086] [-1.8930038213729858:2.0152027606964111] [-2.576892614364624:1.271655797958374] [-1.4622485637664795:2.0430483818054199] [-1.0116434097290039:1.9664465188980103] [-1.7592483758926392:2.43692946434021] [-1.7408347129821777:1.5675810575485229] [-2.1537361145019531:2.2570164203643799] [-2.9204502105712891:3.163189172744751] [-1.4611865282058716:2.2690896987915039] [-0.84483921527862549:2.5394957065582275] [-1.4898810386657715:2.1502585411071777] [-1.0411101579666138:1.9292484521865845] [-1.8520830869674683:1.4219436645507812] [-1.7330805063247681:2.6505258083343506] [-3.280522346496582:0.37221312522888184] [-2.9190657138824463:1.3545801639556885] [-1.90765380859375:2.1965491771697998] [-2.3544936180114746:1.0982987880706787] [-1.3021447658538818:2.539031982421875] [-1.3362451791763306:1.7757022380828857] [-1.5371390581130981:2.1250801086425781] [-1.8946282863616943:1.692740797996521] [-1.7474013566970825:2.077582836151123] [-1.7653888463973999:1.6135168075561523] [-2.0975265502929688:1.7029404640197754] [-0.80642014741897583:2.4471580982208252] [-1.8113189935684204:1.9143043756484985] [-1.4577536582946777:1.7559717893600464] [-2.9688661098480225:0.56151938438415527] [-1.6673566102981567:1.2018460035324097] [-1.8122074604034424:2.3234817981719971] [-3.3377044200897217:2.4699535369873047] [-2.8277714252471924:1.2399393320083618] [-2.3313980102539062:2.940192699432373] [-1.7972903251647949:1.5172489881515503] [-2.0321516990661621:2.0553817749023438] [-2.3870253562927246:1.640013575553894] [-2.3375868797302246:1.8112189769744873] [-1.1637219190597534:1.4510186910629272] [-0.87837976217269897:2.7966253757476807] [-2.1456668376922607:2.0564424991607666] [-1.67308509349823:1.9379675388336182] [-1.7636270523071289:1.1807243824005127] [-1.1291906833648682:2.3559401035308838] [-2.1325333118438721:1.7046045064926147] [-2.8880255222320557:1.9752628803253174] [-2.2966933250427246:2.3808310031890869] [-1.7619283199310303:1.7277861833572388] [-3.2594447135925293:1.2030611038208008] [-1.7360702753067017:1.7811497449874878] [-2.2241003513336182:1.3249822854995728] [-2.1048634052276611:1.8734617233276367] [-2.7624595165252686:1.6610375642776489] [-1.9191023111343384:2.538170337677002] [-2.1541619300842285:1.8430805206298828] [-2.7582845687866211:1.0348360538482666] [-1.4985697269439697:1.6191493272781372] [-2.4405598640441895:2.043590784072876] [-2.7226059436798096:0.82520359754562378] [-1.2134696245193481:2.3813784122467041] [-2.5290179252624512:1.371029257774353] [-2.4876179695129395:1.9399226903915405] [-1.8571312427520752:2.4679880142211914] [-2.4760191440582275:1.8391677141189575] [-2.4245786666870117:1.0501587390899658] [-2.163623571395874:1.6704374551773071] [-2.6196696758270264:1.3978586196899414] [-1.5993434190750122:2.6191504001617432] [-1.7322428226470947:1.5881061553955078] [-1.6722012758255005:1.5837156772613525] [-3.0264451503753662:0.49072784185409546] [-1.7540870904922485:1.9170739650726318] [-6.0313820838928223:9.719273567199707] [-2.4946324825286865:1.5236301422119141] [-1.853643536567688:1.6237715482711792] [-1.1281052827835083:1.4707207679748535] [-1.5590419769287109:1.3599952459335327] [-2.3370683193206787:1.0223571062088013] [-3.2624568939208984:1.802781343460083] [-2.0597028732299805:1.6520456075668335] [-1.3192002773284912:1.6789050102233887] [-1.4817630052566528:2.2042884826660156] [-2.4152727127075195:0.68917083740234375] [-1.9832882881164551:0.80309748649597168] [-2.2011101245880127:0.98741918802261353] [-1.2689735889434814:2.4292452335357666] [-1.2016545534133911:1.7198456525802612] [-2.0078155994415283:0.10371780395507812] [-2.6890389919281006:1.6126381158828735] [-1.0797497034072876:3.0210287570953369] [-1.6445238590240479:1.5357053279876709] [-0.99069148302078247:2.218151330947876] [-2.7838366031646729:2.176790714263916] [-2.415280818939209:1.3153523206710815] [-2.7601058483123779:1.2683507204055786] [-1.972124457359314:3.0449254512786865] [-1.4359616041183472:2.1395056247711182] [-1.3025437593460083:0.8107304573059082] [-1.4536665678024292:1.3770660161972046] [-2.1687765121459961:1.3889305591583252] [-2.0859200954437256:1.3317463397979736] [-2.1950318813323975:1.454128623008728] [-1.7512415647506714:3.0335912704467773] [-2.10894775390625:2.2589943408966064] [-1.1240932941436768:1.6978023052215576] [-1.6934195756912231:1.296320915222168] [-1.3466595411300659:2.7354221343994141] [-1.740397572517395:3.1278162002563477] [-2.4248356819152832:2.5912666320800781] [-2.6165432929992676:0.81963068246841431] [-1.3173505067825317:1.3573212623596191] [-2.156466007232666:1.7625211477279663] [-1.5901201963424683:2.0630538463592529] [-1.9232069253921509:1.0797405242919922] [-1.6493508815765381:1.8588159084320068] [-2.1616396903991699:3.6137561798095703] [-1.0529711246490479:2.4882400035858154] [-2.6271514892578125:1.4577387571334839] [-2.1110637187957764:1.3942526578903198] [-2.0725841522216797:1.9036966562271118] [-1.9604114294052124:0.88702458143234253] [-1.5926381349563599:1.3460243940353394] [-1.7456103563308716:1.2177842855453491] [-1.8874446153640747:2.9160060882568359] [-0.57329672574996948:3.0966475009918213] [-1.2763805389404297:2.3451774120330811] [-1.5124362707138062:1.7726325988769531] [-1.5397623777389526:2.2102699279785156] [-1.5139405727386475:2.570173978805542] [-0.77129364013671875:2.9132566452026367] [-1.8310401439666748:1.9066641330718994] [-1.4057403802871704:1.3749661445617676] [-1.7557796239852905:2.0025248527526855] [-2.8494782447814941:0.69157356023788452] [-1.9236924648284912:2.7561886310577393] [-1.6395583152770996:2.7030527591705322] [-2.1560544967651367:1.543336033821106] [-1.5377547740936279:1.7596489191055298] [-3.0880680084228516:1.6879745721817017] [-1.8219355344772339:2.039252758026123] [-1.7609677314758301:2.161210298538208] [-1.9357095956802368:1.9484802484512329] [-2.3711740970611572:0.55602419376373291] [-2.4602138996124268:1.7452565431594849] [-0.53505653142929077:2.846595287322998] [-1.7619730234146118:2.3965578079223633] [-1.1538405418395996:1.3921253681182861] [-0.43088629841804504:2.3810458183288574] [-2.4548006057739258:2.4438204765319824] [-1.9927691221237183:1.2775635719299316] [-1.4595183134078979:1.9600667953491211] [-1.9945855140686035:1.9756819009780884] [-1.1961259841918945:2.9955897331237793] [-1.3999314308166504:2.6284327507019043] [-2.566591739654541:1.1322803497314453] [-1.735664963722229:2.2890872955322266] [-1.9187468290328979:1.360816478729248] [-1.913791298866272:2.4690039157867432] [-2.0769822597503662:1.7543331384658813] [-1.255962610244751:2.3259801864624023] [-3.126478910446167:0.44942283630371094] [-1.4496345520019531:1.3203308582305908] [-2.1910426616668701:2.1493408679962158] [-1.0451371669769287:2.665919303894043] [-1.5646965503692627:2.2876520156860352] [-2.1207199096679688:0.88105928897857666] [-1.5837926864624023:1.7356404066085815] [-1.7980080842971802:2.3390657901763916] [-2.6241245269775391:1.018115758895874] [-1.1861770153045654:2.3821790218353271] [-1.8354048728942871:2.6225802898406982] [-2.2386336326599121:2.0972774028778076] [-1.9715132713317871:1.9056482315063477] [-3.5283706188201904:0.91747325658798218] [-2.5611903667449951:1.3656859397888184] [-2.5893044471740723:1.6997069120407104] [-0.7106248140335083:3.8507885932922363] [-2.2605478763580322:0.68544614315032959] [-1.9558669328689575:1.932187557220459] [-1.4087090492248535:1.603715181350708] [-2.2891695499420166:2.4854230880737305] [-1.0185625553131104:2.7037537097930908] [-0.52130985260009766:3.2023136615753174] [-1.0641084909439087:2.4682717323303223] [-1.7554003000259399:1.3295748233795166] [-1.2011967897415161:2.5117702484130859] [-2.6661515235900879:0.18440482020378113] [-2.9922451972961426:1.0519804954528809] [-1.7098929882049561:2.0388343334197998] [-1.1432596445083618:2.2806179523468018] [-1.25013267993927:2.079632043838501] [-2.1877748966217041:2.2247817516326904] [-2.1145353317260742:1.5981993675231934] [-0.85555589199066162:2.2537972927093506] [-1.8694171905517578:2.2936193943023682] [-2.2922251224517822:1.8750655651092529] [-2.1703102588653564:1.2878042459487915] [-1.6061424016952515:1.6005804538726807] [-2.067838191986084:2.2037937641143799] [-2.0911464691162109:1.8040547370910645] [-2.8455309867858887:2.6945168972015381] [-2.4274642467498779:1.8477129936218262] [-1.0314009189605713:1.8375153541564941] [-1.1872372627258301:3.2572839260101318] [-2.6032423973083496:0.83240574598312378] [-0.62402647733688354:2.4448239803314209] [-0.79166007041931152:4.9115867614746094] [-2.3803434371948242:0.37289276719093323] [-2.3684756755828857:2.3889706134796143] [-2.213817834854126:1.5316570997238159] [-1.8617445230484009:1.7045707702636719] [-2.8188509941101074:1.8037241697311401] [-2.0164773464202881:1.0695253610610962] [-2.2053313255310059:1.7321275472640991] [-2.9801802635192871:1.684606671333313] [-2.0309908390045166:1.5128837823867798] [-1.4137266874313354:1.8311506509780884] [-1.1292376518249512:1.9758152961730957] [-1.3694156408309937:2.3757996559143066] [-2.4755120277404785:1.2256495952606201] [-1.0195021629333496:2.6775097846984863] [-1.9943400621414185:2.3766753673553467] [-1.8481103181838989:0.10618968307971954] [-2.1336984634399414:1.4314372539520264] [-2.4567708969116211:1.6243853569030762] [-1.7483030557632446:1.3786652088165283] [-2.7429931163787842:0.50805091857910156] [-1.2267953157424927:1.3362821340560913] [-2.5324065685272217:2.188960075378418] [-1.5955935716629028:1.5934842824935913] [-0.11701669543981552:2.681041955947876] [-1.5702877044677734:1.7110152244567871] [-1.4705296754837036:2.2728910446166992] [-2.6874613761901855:1.6560690402984619] [-1.5121364593505859:2.1468079090118408] [-1.568562388420105:1.0361989736557007] [-3.0820989608764648:1.7585028409957886] [-2.547142505645752:1.2446260452270508] [-1.5886095762252808:1.4222042560577393] [-1.217711329460144:2.9973304271697998] [-2.1291444301605225:0.71056199073791504] [-2.2027976512908936:1.4321931600570679] [-2.4810588359832764:0.73422843217849731] [-1.5790983438491821:2.2179915904998779] [-2.657433032989502:1.8279294967651367] [-2.3271408081054688:1.930510401725769] [-1.4983689785003662:2.3871762752532959] [-1.7138074636459351:2.3794150352478027] [-0.50194400548934937:3.00681471824646] [-2.9924778938293457:0.25781360268592834] [-2.329559326171875:3.881148099899292] [-2.5643389225006104:1.7099090814590454] [-2.1826362609863281:2.3845160007476807] [-2.1481423377990723:1.5220632553100586] [-1.8850555419921875:1.1351532936096191] [-1.654975414276123:2.6971325874328613] [-1.9443475008010864:1.4206279516220093] [-3.1435911655426025:0.56315875053405762] [-2.1684365272521973:2.2404634952545166] [-2.7175755500793457:1.0124247074127197] [-2.3088548183441162:0.95310646295547485] [-1.7959061861038208:1.1795541048049927] [-2.4073822498321533:1.8310631513595581] [-2.0737719535827637:1.9161796569824219] [-2.682929515838623:3.07356858253479] [-3.6058118343353271:1.7169203758239746] [-0.38838604092597961:3.5701503753662109] [-2.3451790809631348:1.1145446300506592] [-2.3441975116729736:1.8131707906723022] [-0.39464280009269714:2.5620238780975342] [-1.7877451181411743:1.3560546636581421] [-1.0083261728286743:1.9676474332809448] [-1.6345481872558594:1.0471174716949463] [-3.5365974903106689:1.4642330408096313] [-2.1843891143798828:1.9942648410797119] [-1.9278218746185303:2.6503291130065918] [-2.7578713893890381:0.52012640237808228] [-2.3406031131744385:2.3306169509887695] [-1.6681618690490723:2.0214581489562988] [-1.4435362815856934:2.985558032989502] [-2.0345678329467773:2.8299582004547119] [-3.4475448131561279:2.8695831298828125] [-1.2735774517059326:1.9301780462265015] [-0.76764190196990967:2.6023674011230469] [-1.7379951477050781:2.1808550357818604] [-1.9661900997161865:1.4955081939697266] [-1.4316912889480591:1.5379859209060669] [-1.9414380788803101:0.7451171875] [-1.0303905010223389:2.53515625] [-1.2250980138778687:1.7428368330001831] [-1.7622394561767578:1.3479442596435547] [-2.2441849708557129:1.8736655712127686] [-1.5796046257019043:1.012493371963501] [-2.4436814785003662:2.767808198928833] [-2.1672546863555908:2.1248741149902344] [-2.1355791091918945:1.4319392442703247] [-1.3955185413360596:2.159395694732666] [-1.7219268083572388:2.167433500289917] [-2.4576687812805176:1.193273663520813] [-1.1591709852218628:2.9979023933410645] [-1.9017176628112793:1.4127322435379028] [-2.2190067768096924:1.6430253982543945] [-1.1610569953918457:0.6617005467414856] [-0.79593336582183838:2.5107951164245605] [-1.0528745651245117:1.3064092397689819] [-0.83270221948623657:2.1324174404144287] [-0.78196060657501221:2.073361873626709] [-1.1709060668945312:2.9072866439819336] [-5.3495373725891113:0.29860517382621765] [-1.9405674934387207:0.66451895236968994] [-1.721741795539856:1.6193238496780396] [-1.2305034399032593:1.4144217967987061] [-2.3400330543518066:1.2058529853820801] [-0.63899046182632446:2.6916580200195312] [-1.8817064762115479:2.4096906185150146] [-1.9876406192779541:1.6782819032669067] [-2.8287172317504883:1.6101952791213989] [-1.4080034494400024:2.0727851390838623] [-0.81468397378921509:2.7425217628479004] [-2.1153652667999268:1.8828095197677612] [-1.5601812601089478:2.4155135154724121] [-1.5500482320785522:1.5871268510818481] [-2.7309904098510742:2.2736234664916992] [-2.0766422748565674:2.2894244194030762] [-0.90987765789031982:1.7829658985137939] [-1.5506064891815186:2.1603145599365234] [-2.8650610446929932:2.0305919647216797] [-2.0758922100067139:0.96401083469390869] [-0.80455875396728516:2.4709358215332031] [-1.0780670642852783:1.511487603187561] [-3.4022243022918701:2.0032312870025635] [-2.7415034770965576:1.2486463785171509] [-0.11948061734437943:2.1357495784759521] [-1.6957875490188599:2.1662042140960693] [-1.5192214250564575:1.4869800806045532] [-2.2918784618377686:2.5262255668640137] [-2.9147510528564453:2.7780904769897461] [-2.1737112998962402:1.3175654411315918] [-1.4604320526123047:1.8429743051528931] [-1.1300245523452759:2.00608229637146] [-3.1763720512390137:1.9210110902786255] [-3.0756242275238037:2.8540859222412109] [-2.7596538066864014:1.0128093957901001] [-1.9702200889587402:1.7163753509521484] [-1.2491720914840698:1.9050582647323608] [-1.5974615812301636:0.94087892770767212] [-1.766853928565979:1.7318060398101807] [-2.1395726203918457:2.3231616020202637] [-1.4709956645965576:2.4358820915222168] [-2.2489190101623535:1.9123632907867432] [-2.3010215759277344:1.4873940944671631] [-2.5465238094329834:0.98628151416778564] [-2.8342318534851074:1.3084683418273926] [-1.5305476188659668:2.2404592037200928] [-1.9121825695037842:1.9174025058746338] [-1.5519117116928101:1.982245922088623] [-1.9083098173141479:3.1449534893035889] [-1.6676920652389526:1.5505093336105347] [-2.2941765785217285:2.4325628280639648] [-1.8404983282089233:1.4580479860305786] [-1.1986691951751709:1.4397436380386353] [-2.3878617286682129:2.2372074127197266] [-1.2593429088592529:2.4994540214538574] [-0.69537985324859619:1.7272908687591553] [-1.5609471797943115:1.4034748077392578] [-1.4547653198242188:2.4009249210357666] [-1.9369791746139526:1.6953498125076294] [-1.7183964252471924:1.8294788599014282] [-2.6866748332977295:1.6322250366210938] [-1.7482874393463135:1.349414587020874] [-1.7270544767379761:2.0317530632019043] [-2.0951197147369385:1.7741645574569702] [-0.65529453754425049:2.0977115631103516] [-1.4798741340637207:1.7655295133590698] [-2.038581371307373:2.4398376941680908] [-2.7244915962219238:0.69740533828735352] [-1.9190355539321899:1.9112271070480347] [-1.2401330471038818:1.2586684226989746] [-1.0891897678375244:1.9790314435958862] [-2.1807231903076172:2.4364895820617676] [-2.032947301864624:2.0069313049316406] [-2.2026619911193848:1.6533056497573853] [-1.0993114709854126:1.8504543304443359] [-2.0808618068695068:1.7919174432754517] [-1.5546996593475342:3.3607823848724365] [-3.2855556011199951:1.5484778881072998] [-2.3309569358825684:1.9620641469955444] [-1.3228106498718262:1.7324525117874146] [-2.5162398815155029:1.052377462387085] [-1.5452746152877808:1.0986168384552002] [-1.6921488046646118:0.83824396133422852] [-1.8237718343734741:2.6735639572143555] [-2.7112560272216797:1.4458434581756592] [-1.457136869430542:1.9283472299575806] [-1.2738102674484253:2.2600622177124023] [-1.5163469314575195:0.85648941993713379] [-2.4307858943939209:1.2994358539581299] [-1.7820398807525635:1.0973168611526489] [-2.0312647819519043:1.5033352375030518] [-1.4415652751922607:2.8454618453979492] [-0.91170048713684082:2.9074201583862305] [-2.104888916015625:0.96070164442062378] [-1.6459861993789673:2.8553826808929443] [-2.1238205432891846:2.1325311660766602] [-1.6359778642654419:1.7345690727233887] [-1.8848297595977783:2.3915407657623291] [-0.034222833812236786:3.4639413356781006] [-2.4179911613464355:2.319960355758667] [-1.2629584074020386:1.8628978729248047] [-2.3860604763031006:2.4311189651489258] [-2.0149493217468262:1.8551754951477051] [-2.3039591312408447:1.4348536729812622] [-1.6873335838317871:1.3716245889663696] [-1.1846742630004883:2.1416947841644287] [-1.650016188621521:2.2275474071502686] [-2.7802207469940186:1.1878447532653809] [-1.9045521020889282:1.5794382095336914] [-1.9250235557556152:1.2731817960739136] [-1.7119632959365845:2.0504984855651855] [-1.8088293075561523:1.2409185171127319] [-1.5055347681045532:1.5153313875198364] [-1.5936460494995117:1.5612190961837769] [-3.5234947204589844:2.8103845119476318] [-2.8711872100830078:0.90694737434387207] [-2.2129712104797363:1.798039436340332] [-1.8094782829284668:1.3605687618255615] [-2.284214973449707:1.2520626783370972] [-3.5782370567321777:2.1570839881896973] [-2.6802887916564941:0.77166277170181274] [-2.067537784576416:2.0800933837890625] [-1.3294339179992676:2.3442273139953613] [-2.15450119972229:1.1549429893493652] [-2.4390251636505127:1.1304922103881836] [-2.0463838577270508:1.6548612117767334] [-2.1666011810302734:1.8442537784576416] [-2.3896157741546631:2.0900957584381104] [-1.670173168182373:1.2389334440231323] [-3.4820480346679688:0.20858703553676605] [-3.4447827339172363:1.4819707870483398] [-1.8755925893783569:2.2901120185852051] [-1.323430061340332:1.3208749294281006] [-2.4659204483032227:1.0241950750350952] [-2.430262565612793:2.8515260219573975] [-1.1327619552612305:2.2299981117248535] [-1.4672298431396484:2.290292501449585] [-1.0997159481048584:2.7593662738800049] [-1.9624724388122559:1.5284414291381836] [-3.0546369552612305:1.4875873327255249] [-1.376629114151001:1.832848072052002] [-1.361575722694397:2.0887608528137207] [-0.91843050718307495:2.5678484439849854] [-2.2679383754730225:1.7074356079101562] [-1.1497014760971069:2.5634500980377197] [-1.5444751977920532:2.478541374206543] [-1.8718100786209106:1.032644510269165] [-1.4238104820251465:1.9198157787322998] [-2.716052770614624:2.1881461143493652] [-1.7569823265075684:2.4219515323638916] [-1.7104225158691406:1.7705221176147461] [-1.424994945526123:1.4742535352706909] [-1.8895220756530762:0.88657176494598389] [-2.2950611114501953:1.7318451404571533] [-2.5302803516387939:1.6205151081085205] [-2.4744014739990234:0.91603195667266846] [-1.2900294065475464:1.2531642913818359] [-1.7723418474197388:1.9887939691543579] [-0.5096207857131958:2.3408269882202148] [-1.5355565547943115:2.5762207508087158] [-2.7700021266937256:1.1132380962371826] [-2.5751633644104004:2.1052312850952148] [-2.0362863540649414:1.0981605052947998] [-0.6588016152381897:2.7731244564056396] [-2.3618593215942383:3.0541806221008301] [-3.0860848426818848:1.3304492235183716] [-1.538581371307373:1.1806778907775879] [-1.1809155941009521:0.86568814516067505] [-1.9300527572631836:1.672598123550415] [-1.738396167755127:2.2865355014801025] [-1.5318821668624878:1.6621508598327637] [-0.99551129341125488:2.18739914894104] [-1.8380777835845947:1.1748895645141602] [-1.697074294090271:2.7124330997467041] [-1.9001550674438477:1.5533618927001953] [-2.5200622081756592:1.4126546382904053] [-2.4841134548187256:2.1529166698455811] [-2.5249679088592529:1.0245552062988281] [-2.2196669578552246:2.9583017826080322] [-1.2009773254394531:1.4356046915054321] [-1.948548436164856:1.9137667417526245] [-2.4479265213012695:1.8092552423477173] [-2.0059182643890381:1.9520905017852783] [-1.530821681022644:2.383162260055542] [-0.79584068059921265:2.8585448265075684] [-2.6293833255767822:1.3060557842254639] [-1.294318675994873:3.0919003486633301] [-1.9931172132492065:3.4305088520050049] [-1.1456896066665649:1.9205312728881836] [-2.1045181751251221:1.3796811103820801] [-1.4233061075210571:2.2624967098236084] [-1.1313762664794922:1.8103679418563843] [-2.1399731636047363:2.265730619430542] [-1.8986475467681885:0.99520844221115112] [-2.8882360458374023:1.4893308877944946] [-1.1986534595489502:2.0838406085968018] [-2.879641056060791:1.3308171033859253] [-2.4027791023254395:1.1526352167129517] [-1.3406171798706055:2.2295434474945068] [-0.71864438056945801:2.2068145275115967] [-1.6286072731018066:1.5946239233016968] [-1.8465712070465088:2.3264005184173584] [-2.864405632019043:0.85492157936096191] [-1.8029237985610962:1.2654744386672974] [-3.1388192176818848:1.823209285736084] [-2.4498167037963867:2.0214707851409912] [-3.2597038745880127:2.1675536632537842] [-1.8933403491973877:2.3828334808349609] [-1.5469261407852173:1.3657907247543335] [-2.6970531940460205:1.6433953046798706] [-1.6265802383422852:1.3757044076919556] [-2.895221471786499:1.3608980178833008] [-1.5647172927856445:1.2506982088088989] [-0.93778705596923828:1.994867205619812] [-1.4465020895004272:1.7346241474151611] [-1.7582165002822876:3.4457926750183105] [-0.85514652729034424:1.9246600866317749] [-0.93155819177627563:2.1317672729492188] [-1.2412587404251099:3.6606998443603516] [-2.2034022808074951:2.0966489315032959] [-0.97076416015625:2.3070206642150879] [-2.2963805198669434:2.9352333545684814] [-2.4814352989196777:2.17234206199646] [-1.6799013614654541:0.88381928205490112] [-1.5900399684906006:2.6815290451049805] [-3.0438897609710693:0.72628557682037354] [-2.2691795825958252:2.4309985637664795] [-2.1870639324188232:1.4005588293075562] [-0.33554348349571228:2.3908722400665283] [-2.3302676677703857:1.1827609539031982] [-1.8685886859893799:2.088794469833374] [-2.7395708560943604:1.3245065212249756] [-1.4312108755111694:1.8072546720504761] [-1.657339334487915:2.2184512615203857] [-1.9022625684738159:2.3281238079071045] [-1.6606155633926392:2.4927783012390137] [-3.3851649761199951:4.1475138664245605] [-2.8454537391662598:1.5167344808578491] [-2.6732633113861084:1.7222307920455933] [-1.7500166893005371:2.4337129592895508] [-0.97965413331985474:1.8428280353546143] [-0.91059136390686035:1.8136852979660034] [-2.1251139640808105:1.6498326063156128] [-2.0428268909454346:1.3675864934921265] [-1.9198799133300781:1.049817681312561] [-1.966313362121582:1.6248482465744019] [-0.93338596820831299:1.3129003047943115] [-1.6763565540313721:1.5811195373535156] [-1.868130087852478:2.1475293636322021] [-2.1515738964080811:1.8764498233795166] [-2.1295135021209717:2.583439826965332] [-1.7179430723190308:2.6627945899963379] [-2.3974461555480957:0.93720310926437378] [-2.4895379543304443:2.2236590385437012] [-2.3457224369049072:1.4926097393035889] [-1.0660324096679688:1.8759360313415527] [-1.1485846042633057:2.6684165000915527] [-2.0749773979187012:2.3029899597167969] [-2.5669863224029541:0.67831450700759888] [-1.640582799911499:2.2845280170440674] [-2.8320050239562988:1.7149252891540527] [-1.7252811193466187:0.91059321165084839] [-2.300701379776001:1.0772420167922974] [-1.6922141313552856:1.250829815864563] [-2.6154851913452148:0.91376596689224243] [-1.1163305044174194:2.4875643253326416] [-2.8011844158172607:1.7975749969482422] [-1.9049243927001953:1.7024829387664795] [-1.4191129207611084:3.017160177230835] [-2.1098513603210449:1.4892177581787109] [-2.7681329250335693:0.8321647047996521] [-2.5824077129364014:1.2197911739349365] [-1.2072473764419556:3.5388805866241455] [-0.75662237405776978:2.2882459163665771] [-1.48164963722229:1.5416773557662964] [-1.8560971021652222:2.6159136295318604] [-1.9905073642730713:1.1629395484924316] [-7.7149910926818848:5.0286483764648438] [0.924896240234375:6.0294914245605469] [0.11230827867984772:3.056257963180542] [-1.8705769777297974:1.6189755201339722] [-0.90435576438903809:2.1263892650604248] [-0.7512136697769165:1.2980550527572632] [-1.4468278884887695:2.3550424575805664] [-1.7733874320983887:0.7446632981300354] [-1.6058142185211182:2.1744272708892822] [-0.86009341478347778:2.1438193321228027] [-2.7531225681304932:2.371126651763916] [-3.3579814434051514:0.56257402896881104] [-2.0157184600830078:1.8720184564590454] [-1.7706679105758667:1.3887385129928589] [-2.7543599605560303:0.54543423652648926] [-2.2188377380371094:1.5490416288375854] [-1.744660496711731:0.52596300840377808] [-1.2368526458740234:2.4261400699615479] [-1.3881717920303345:1.8873939514160156] [-1.5813030004501343:2.0970263481140137] [-1.4644495248794556:2.3388104438781738] [-2.0662457942962646:0.42136406898498535] [-3.0523390769958496:2.735558032989502] [-1.8712582588195801:2.2470109462738037] [-2.1615421772003174:2.3538498878479004] [-2.6665127277374268:1.2040536403656006] [-1.6663215160369873:0.60944896936416626] [-2.7108407020568848:1.8030045032501221] [-1.1306508779525757:1.8357980251312256] [-1.4240856170654297:1.8508062362670898] [-1.0550389289855957:1.6899924278259277] [-2.4548308849334717:1.0554403066635132] [-0.73461127281188965:1.8084021806716919] [-1.2722088098526001:0.76089692115783691] [-0.57494574785232544:2.9368972778320312] [-2.9902355670928955:0.98190104961395264] [-1.3381402492523193:1.519824743270874] [-2.8682069778442383:0.055935502052307129] [-1.8993088006973267:0.46663907170295715] [-1.1540138721466064:2.498772144317627] [-2.4557359218597412:1.7515852451324463] [-3.2155036926269531:1.6957895755767822] [-1.041082501411438:1.183866024017334] [-1.8981872797012329:1.6759220361709595] [-2.5332598686218262:1.2125561237335205] [-0.6226729154586792:2.3059022426605225] [-0.90656149387359619:1.6111627817153931] [-0.70080900192260742:2.3682456016540527] [-2.9061627388000488:1.5829665660858154] [-1.6351668834686279:0.55372089147567749] [-2.9138755798339844:1.1878108978271484] [-1.8107936382293701:2.7935764789581299] [-0.22453221678733826:3.2015981674194336] [-1.6367361545562744:1.9182342290878296] [-0.59185057878494263:1.5552959442138672] [-2.161841869354248:1.181401252746582] [-0.97959315776824951:2.1566317081451416] [-2.4245593547821045:1.4778200387954712] [-1.5696934461593628:1.1393681764602661] [-2.7377629280090332:1.1997513771057129] [-1.4937940835952759:2.341209888458252] [-1.8840779066085815:3.0691771507263184] [-1.6969070434570312:1.1393647193908691] [-1.2894808053970337:1.204189658164978] [-1.3918653726577759:1.1617423295974731] [-2.3224036693572998:1.3983806371688843] [-1.4229048490524292:1.8512074947357178] [-2.6066057682037354:2.413440465927124] [-1.3287017345428467:2.0076274871826172] [-1.4128891229629517:2.3827476501464844] [-1.5187073945999146:1.0547374486923218] [-2.164931058883667:1.1805676221847534] [-2.8949663639068604:1.0879870653152466] [-1.0085731744766235:2.2931842803955078] [-1.4347380399703979:0.98300653696060181] [-1.3481061458587646:1.1860823631286621] [-2.1470921039581299:0.82030755281448364] [-1.9163618087768555:1.4242314100265503] [-3.986983060836792:1.7239230871200562] [-0.72302865982055664:3.0051372051239014] [-1.1420695781707764:1.6564571857452393] [-1.0702449083328247:2.4775485992431641] [-2.147597074508667:1.4962036609649658] [-0.5897904634475708:2.2996819019317627] [-0.78823548555374146:2.3556532859802246] [-0.90029293298721313:2.0626451969146729] [-3.1145999431610107:2.4715774059295654] [-2.4316201210021973:2.5644283294677734] [-3.2368831634521484:1.42792809009552] [-2.7487671375274658:1.8049068450927734] [-1.9335483312606812:2.7042171955108643] [-3.0602045059204102:1.3216053247451782] [-1.1841721534729004:1.446155309677124] [-1.7570756673812866:1.5907388925552368] [-0.75115764141082764:1.5210665464401245] [-2.2712080478668213:1.6610507965087891] [-1.0447187423706055:2.0383965969085693] [-0.28963339328765869:2.5451996326446533] [-1.1401363611221313:2.0718681812286377] [-2.2223060131072998:0.51551705598831177] [-0.85658466815948486:1.1861940622329712] [-1.984079122543335:0.91010075807571411] [-2.6587207317352295:0.83098345994949341] [-2.4110767841339111:0.88559526205062866] [-1.5882782936096191:0.2743370532989502] [-1.5782243013381958:2.0282018184661865] [-1.1830816268920898:1.2969586849212646] [-2.3642203807830811:0.9592699408531189] [-2.024653434753418:1.1242140531539917] [-1.6581443548202515:1.1811720132827759] [-1.1676927804946899:1.1711167097091675] [-1.065204381942749:3.2678639888763428] [-2.2177705764770508:1.8342165946960449] [-1.0974689722061157:2.6990971565246582] [-1.0064465999603271:1.5863577127456665] [-0.64240574836730957:2.2174112796783447] [-1.6916553974151611:0.99642622470855713] [-1.6144089698791504:2.9759256839752197] [-2.2815506458282471:2.1188285350799561] [-1.5455031394958496:1.5214691162109375] [-1.9962120056152344:2.1793129444122314] [-0.5594630241394043:2.7893199920654297] [-1.717009425163269:1.2866156101226807] [-1.6161243915557861:0.73543840646743774] [-2.9880712032318115:1.1034129858016968] [-1.6713782548904419:1.2324438095092773] [-2.7315607070922852:2.2921545505523682] [-1.9140632152557373:1.4785192012786865] [-3.0118365287780762:2.1234209537506104] [-2.0632553100585938:1.1630889177322388] [-1.2953628301620483:1.4248247146606445] [-1.162373423576355:2.6388242244720459] [-1.1808435916900635:1.6183012723922729] [-1.7385519742965698:0.69571954011917114] [-1.3467341661453247:2.0305671691894531] [-2.138308048248291:1.8808689117431641] [-1.9618674516677856:1.7198623418807983] [-2.1320915222167969:2.7353146076202393] [-0.91663289070129395:1.7425098419189453] [-1.8553680181503296:1.2257922887802124] [-1.119612455368042:1.6171591281890869] [-2.1058223247528076:0.4537506103515625] [-0.38072887063026428:2.3536438941955566] [-2.0239343643188477:1.123476505279541] [-1.541577935218811:1.9670062065124512] [-3.4090137481689453:3.4640662670135498] [-2.1164476871490479:1.8039892911911011] [-1.4780231714248657:0.31814345717430115] [-1.0311516523361206:0.60148388147354126] [-2.2741029262542725:1.8487660884857178] [-1.5170783996582031:2.3787505626678467] [-1.3526437282562256:1.5678061246871948] [-0.676216721534729:1.7996325492858887] [-1.7699177265167236:1.8494540452957153] [-1.7512229681015015:1.4140584468841553] [-1.3642131090164185:1.3589644432067871] [-3.7790966033935547:1.2155965566635132] [-1.881839394569397:1.5457031726837158] [-2.337235689163208:1.1317206621170044] [-0.70632064342498779:2.8080825805664062] [-1.0028996467590332:1.898166298866272] [-1.7088260650634766:1.6595836877822876] [-2.2556872367858887:1.2600464820861816] [-3.7286198139190674:2.0400991439819336] [-1.7202754020690918:2.1649188995361328] [-1.6986503601074219:0.69998925924301147] [-0.61737525463104248:1.8083585500717163] [-2.4881391525268555:2.7475285530090332] [-2.5875835418701172:1.8531439304351807] [-2.0198020935058594:1.3338650465011597] [-1.1824208498001099:2.1010756492614746] [-2.0244567394256592:0.99508798122406006] [-2.041163444519043:0.77492374181747437] [-1.0519864559173584:2.1335856914520264] [-2.43119215965271:1.791664719581604] [-1.1163995265960693:1.6915013790130615] [-1.2541385889053345:1.5223582983016968] [-2.8142569065093994:1.4549659490585327] [-0.8797106146812439:1.8860496282577515] [-2.0790534019470215:0.47914427518844604] [-0.77735406160354614:2.2434086799621582] [-1.0562368631362915:2.244718074798584] [-1.9846467971801758:1.5892314910888672] [-1.767478346824646:1.1465985774993896] [-1.0885097980499268:1.2943429946899414] [-2.2290477752685547:1.5486159324645996] [-1.3977340459823608:1.4149620532989502] [-2.1054019927978516:3.73748779296875] [-1.121842622756958:1.5277272462844849] [-0.90435653924942017:1.9799338579177856] [-2.4006390571594238:1.2352390289306641] [-1.2280324697494507:1.3838332891464233] [-2.8651599884033203:1.5867247581481934] [-1.9175413846969604:1.816547155380249] [-3.2903246879577637:0.75218331813812256] [-2.5889949798583984:1.8042598962783813] [-0.93424659967422485:1.7100391387939453] [-2.4649279117584229:0.85776883363723755] [-1.1072266101837158:1.6236565113067627] [-1.5744004249572754:2.3197047710418701] [-1.1961311101913452:2.9952461719512939] [-1.5549042224884033:1.147734522819519] [-1.1976315975189209:1.0376424789428711] [-1.2875924110412598:2.4174642562866211] [-1.7747061252593994:2.6835000514984131] [-0.073276937007904053:1.8716660737991333] [-3.2618401050567627:1.297999382019043] [-1.6316794157028198:3.1856379508972168] [-1.5005656480789185:1.7151179313659668] [-0.59887945652008057:3.1596040725708008] [-1.1410837173461914:1.3626997470855713] [-2.2522029876708984:2.44877028465271] [-2.3377609252929688:2.480628490447998] [-1.2737046480178833:1.5332423448562622] [-1.2920892238616943:2.6701879501342773] [-1.2735713720321655:2.8309707641601562] [-0.9201197624206543:1.7338526248931885] [-1.7907218933105469:1.2076221704483032] [-2.9160597324371338:-0.16855050623416901] [-1.4413518905639648:1.991795539855957] [-1.5215578079223633:1.7200338840484619] [-1.2439635992050171:1.3851171731948853] [-2.4577875137329102:0.87045520544052124] [-2.1422648429870605:1.9187616109848022] [-1.550951361656189:1.7241365909576416] [-1.9635618925094604:1.0848658084869385] [-1.564429759979248:1.0194370746612549] [-0.94528180360794067:1.2943804264068604] [-0.79529279470443726:2.9937396049499512] [-1.9593205451965332:1.5233058929443359] [-1.2854593992233276:1.5498828887939453] [-2.2061767578125:0.66654056310653687] [-2.3659286499023438:1.0631248950958252] [-1.0179212093353271:2.4794657230377197] [-1.6618498563766479:0.93069320917129517] [-1.9128057956695557:1.4020839929580688] [-1.1555116176605225:2.5614616870880127] [-1.392310619354248:2.582129955291748] [-0.66499543190002441:1.5824993848800659] [-2.1989398002624512:2.0544795989990234] [-1.6891168355941772:1.3683719635009766] [-1.9729057550430298:1.58660888671875] [-2.2665255069732666:1.8257001638412476] [-1.4483218193054199:2.9041447639465332] [-1.8761202096939087:1.3476235866546631] [-1.0101134777069092:2.3544497489929199] [-1.5187857151031494:1.2086299657821655] [-0.86099570989608765:2.3631105422973633] [-1.8669087886810303:0.73430502414703369] [-1.462310791015625:1.1190617084503174] [-2.3663363456726074:1.2749135494232178] [-2.4709374904632568:0.15215234458446503] [-1.5770344734191895:1.9974501132965088] [-1.9288680553436279:0.64031136035919189] [-3.2445888519287109:1.2609429359436035] [-1.9798212051391602:1.5804742574691772] [-2.4444856643676758:0.9880073070526123] [-2.533829927444458:0.73886990547180176] [-1.3938857316970825:0.97916662693023682] [-1.7909138202667236:0.82442617416381836] [-2.0602455139160156:0.75929540395736694] [-1.9097498655319214:1.0268523693084717] [-2.5588624477386475:1.4541276693344116] [-1.8048465251922607:1.5649583339691162] [-0.73665040731430054:2.4686977863311768] [-2.0920040607452393:0.69729125499725342] [-1.7193409204483032:1.2002624273300171] [-1.0596597194671631:2.1810340881347656] [-1.217312216758728:2.0692760944366455] [-0.13851094245910645:2.0251834392547607] [-2.2864041328430176:1.2381550073623657] [-1.547698974609375:1.1123162508010864] [-2.5089128017425537:1.1885045766830444] [-1.9485646486282349:3.0343313217163086] [-2.2636291980743408:1.7259091138839722] [-1.5998445749282837:2.6950085163116455] [-2.672123908996582:0.77019494771957397] [-1.6695165634155273:2.0124545097351074] [-1.6174831390380859:1.1329001188278198] [-0.83185738325119019:2.8984272480010986] [-1.4220786094665527:2.2513067722320557] [-1.8175957202911377:2.0118365287780762] [-3.8287322521209717:1.1776098012924194] [-1.1905133724212646:1.1456395387649536] [-0.71202778816223145:1.9296611547470093] [-1.7913446426391602:1.4268028736114502] [-2.0594913959503174:2.3912520408630371] [-1.4974758625030518:1.4456628561019897] [-0.95278942584991455:2.7596316337585449] [-2.4248354434967041:2.4571411609649658] [-1.3220593929290771:2.0719923973083496] [-2.3997302055358887:0.31627866625785828] [-1.9240448474884033:2.4191062450408936] [-1.8970636129379272:2.0291943550109863] [-1.4603679180145264:0.83699309825897217] [-0.90923649072647095:2.055391788482666] [-0.90726828575134277:1.5099225044250488] [-2.1277294158935547:1.1575717926025391] [-1.5828996896743774:2.3511168956756592] [-1.9371004104614258:1.3315058946609497] [-1.8906549215316772:1.2048193216323853] [-1.2317624092102051:1.5266096591949463] [0.005460057407617569:2.1004159450531006] [-0.91612821817398071:1.3123259544372559] [-1.0130735635757446:2.1646764278411865] [-1.6598448753356934:2.2045619487762451] [-1.4985823631286621:1.0474755764007568] [-1.5243371725082397:1.4981281757354736] [-0.58448135852813721:1.8774150609970093] [-1.4070116281509399:1.0773134231567383] [-1.9405052661895752:0.58599883317947388] [-1.5306884050369263:1.072361946105957] [-2.2672414779663086:2.6394083499908447] [-1.6768370866775513:1.4963146448135376] [-2.3129973411560059:1.7145870923995972] [-1.0618244409561157:2.1540045738220215] [-1.1014145612716675:2.5236473083496094] [-1.1075444221496582:1.6268981695175171] [-1.9072102308273315:3.0555241107940674] [-1.5030173063278198:2.1831674575805664] [-3.0003821849822998:1.0599480867385864] [-2.0347223281860352:0.72704172134399414] [-1.5384112596511841:1.9403049945831299] [-1.8163230419158936:3.0491650104522705] [-2.9939038753509521:1.0132185220718384] [-1.4387649297714233:1.5867078304290771] [-1.8566464185714722:1.3090388774871826] [-2.2361371517181396:1.7529430389404297] [-2.7596378326416016:0.47219616174697876] [-1.1310707330703735:2.1312966346740723] [-1.8854560852050781:2.1130588054656982] [-0.19834956526756287:2.1814947128295898] [-1.5341188907623291:1.7000131607055664] [-1.9708424806594849:0.43279466032981873] [-3.0300483703613281:0.15386474132537842] [0.09721827507019043:3.0692999362945557] [-0.84382778406143188:1.5363579988479614] [-2.5627360343933105:1.190090537071228] [-1.3859720230102539:1.2491474151611328] [-2.3807435035705566:0.99055057764053345] [-2.1674869060516357:1.9958586692810059] [-0.80685305595397949:1.7001652717590332] [-2.6958308219909668:1.8388679027557373] [-2.0045156478881836:1.2433227300643921] [-2.303004264831543:1.426633358001709] [-1.4915779829025269:1.8410189151763916] [-2.2462902069091797:0.27182722091674805] [-2.0681018829345703:2.1133205890655518] [-1.3936119079589844:2.1294665336608887] [-2.7348899841308594:2.2680072784423828] [-3.8236641883850098:1.9177531003952026] [-0.24235153198242188:2.167527437210083] [-1.6595695018768311:1.7028788328170776] [-1.9367060661315918:1.1344631910324097] [-2.6918129920959473:1.9906468391418457] [-1.7520381212234497:1.2426861524581909] [-2.003136157989502:1.8013076782226562] [-1.1294019222259521:2.1948964595794678] [-2.2664515972137451:1.8893147706985474] [-1.8090765476226807:1.312414288520813] [-2.5885202884674072:1.7614418268203735] [-1.0039873123168945:1.616426944732666] [-1.130268931388855:1.6603634357452393] [-2.1285121440887451:1.8487534523010254] [-1.4497027397155762:1.4642446041107178] [-3.0665717124938965:1.6716336011886597] [-1.6859172582626343:0.86382681131362915] [-1.7025923728942871:1.7352244853973389] [-2.4725382328033447:1.5513352155685425] [-1.4844800233840942:1.6339490413665771] [-1.8136495351791382:1.9842358827590942] [-1.8005863428115845:0.51317954063415527] [-1.628353476524353:2.4720921516418457] [-1.3189488649368286:1.7924281358718872] [-0.63687843084335327:2.2440056800842285] [-0.6605832576751709:3.2670345306396484] [-1.1029458045959473:3.0588746070861816] [-1.8151348829269409:1.3575483560562134] [-1.0170608758926392:2.0943775177001953] [-1.6458535194396973:1.1711126565933228] [-2.0811517238616943:2.6907060146331787] [-2.3064751625061035:1.0731699466705322] [-1.5275187492370605:1.4605246782302856] [-3.8821923732757568:0.27013391256332397] [-1.5223455429077148:1.3350430727005005] [-0.51592648029327393:1.8069068193435669] [-1.4959366321563721:1.3373463153839111] [-2.4492185115814209:3.3178150653839111] [-1.9018434286117554:1.5582728385925293] [-0.63450372219085693:1.4096910953521729] [-1.0833734273910522:1.7054840326309204] [-2.273160457611084:0.61590152978897095] [-2.8887197971343994:1.7380783557891846] [-1.5063835382461548:1.2424718141555786] [-2.200136661529541:1.7800527811050415] [-1.2747660875320435:1.400799036026001] [-1.8208670616149902:2.789928674697876] [-1.4946155548095703:2.1483893394470215] [-1.894889235496521:2.1882705688476562] [-1.5716962814331055:2.2831778526306152] [-1.2553325891494751:2.2047364711761475] [-1.914408802986145:1.805524468421936] [-0.93444019556045532:1.2883026599884033] [-2.0789010524749756:1.4271951913833618] [-2.803516149520874:1.9582298994064331] [-1.278143048286438:1.4716393947601318] [-2.8524222373962402:1.5777978897094727] [-2.1856420040130615:2.6127324104309082] [-3.4621067047119141:1.2151144742965698] [-1.5701669454574585:1.8224592208862305] [-1.7978305816650391:1.6287864446640015] [-1.7280123233795166:1.2018184661865234] [-2.1023323535919189:0.92988163232803345] [-1.3267998695373535:2.1257851123809814] [-1.6940715312957764:2.2785384654998779] [-1.2987575531005859:1.2181291580200195] [-0.70337146520614624:3.1686556339263916] [-1.3695858716964722:2.7495417594909668] [-2.3803114891052246:1.4020180702209473] [-1.7514973878860474:0.97822088003158569] [-2.0690534114837646:1.7735859155654907] [-1.547784686088562:1.4525020122528076] [-2.2153863906860352:0.57293051481246948] [-1.98801589012146:1.3071025609970093] [-2.1373982429504395:0.41422355175018311] [-1.8784030675888062:1.2655023336410522] [-1.4737149477005005:1.4099403619766235] [-1.3633856773376465:1.9510519504547119] [-2.7385663986206055:0.30038610100746155] [-1.1337852478027344:2.4185554981231689] [-1.320609450340271:2.1876866817474365] [-1.3427008390426636:1.119163990020752] [-1.4051566123962402:1.8285348415374756] [-1.562588095664978:2.9243247509002686] [-2.3310554027557373:2.4709341526031494] [-3.971515417098999:1.6101031303405762] [-1.3834261894226074:1.6874943971633911] [-1.2259424924850464:2.2447035312652588] [-1.2833918333053589:1.4452382326126099] [-2.936760425567627:0.61352896690368652] [-3.3813416957855225:2.4051594734191895] [-2.2910056114196777:1.5110044479370117] [-1.0643256902694702:1.5168967247009277] [-2.2015933990478516:1.4644681215286255] [-2.1453776359558105:1.5743908882141113] [-2.363778829574585:1.1810630559921265] [-1.9668813943862915:1.167361855506897] [-2.2465260028839111:1.7073869705200195] [-2.2405416965484619:1.6718466281890869] [-0.20954969525337219:2.1450715065002441] [0.092634521424770355:2.351527214050293] [-1.6190135478973389:1.1707236766815186] [-2.684168815612793:1.2438684701919556] [-1.8427228927612305:1.5676807165145874] [-2.4164454936981201:2.6377627849578857] [-1.2496851682662964:2.6883447170257568] [-1.7286133766174316:1.7631746530532837] [-2.92816162109375:1.1041409969329834] [-1.4331340789794922:1.6523729562759399] [-0.58828234672546387:2.4426820278167725] [-1.1214817762374878:2.1645984649658203] [-0.9345812201499939:2.1403021812438965] [-1.1395949125289917:1.5188910961151123] [-2.5584418773651123:0.66775786876678467] [-2.2370510101318359:0.79412108659744263] [-1.7050478458404541:1.1895685195922852] [-1.4265198707580566:1.8803493976593018] [-2.0393176078796387:1.165526270866394] [-2.3404080867767334:1.4458761215209961] [-1.2327227592468262:3.9298427104949951] [-1.059252142906189:2.1802599430084229] [-3.5718190670013428:1.5517591238021851] [-1.3703197240829468:1.4012339115142822] [-1.3552809953689575:1.4783346652984619] [-0.80389457941055298:1.5008654594421387] [-1.2825382947921753:0.99170100688934326] [-1.5204267501831055:1.608545184135437] [-2.0241997241973877:1.1631333827972412] [-1.0660685300827026:1.6583271026611328] [-1.3719843626022339:2.0276365280151367] [-2.9683356285095215:0.76343327760696411] [-1.6307063102722168:1.7960373163223267] [-1.1978174448013306:1.50974440574646] [-0.94160079956054688:1.6878085136413574] [-0.92885607481002808:1.5237729549407959] [-4.784125804901123:0.42443877458572388] [-1.326598048210144:2.3074429035186768] [-1.1339089870452881:2.2581603527069092] [-1.1265275478363037:1.8823350667953491] [-2.5011403560638428:1.0327912569046021] [-1.2092077732086182:1.6989998817443848] [-2.1024570465087891:1.3080614805221558] [-2.1214747428894043:2.6042828559875488] [-1.8120630979537964:1.1501715183258057] [-0.55033546686172485:1.9253029823303223] [-0.79611879587173462:1.7224258184432983] [-1.4223564863204956:0.93309742212295532] [-2.8166840076446533:1.1949527263641357] [-0.74414551258087158:2.6016008853912354] [-0.93623816967010498:2.0900702476501465] [-1.5102125406265259:1.1891058683395386] [-1.1957546472549438:1.4330651760101318] [-2.0174322128295898:0.9858364462852478] [-2.1886310577392578:0.63072091341018677] [-0.60016483068466187:2.0546615123748779] [-1.8078573942184448:0.73828709125518799] [-2.07765793800354:0.95614844560623169] [-1.5209290981292725:1.9268602132797241] [-1.3782533407211304:1.6157221794128418] [-1.8233063220977783:2.2355086803436279] [-1.6998964548110962:1.7294079065322876] [-1.7595882415771484:1.0138646364212036] [-1.8039802312850952:0.44454696774482727] [-1.362274169921875:1.3365960121154785] [-0.92719078063964844:2.8284845352172852] [-1.718073844909668:1.5883674621582031] [-0.55032169818878174:1.7557052373886108] [-2.327751636505127:0.3785228431224823] [-1.973737359046936:1.3588021993637085] [-2.2460758686065674:0.66914123296737671] [-1.3050438165664673:1.7691953182220459] [-2.7302408218383789:1.1150017976760864] [-2.4214203357696533:0.45037224888801575] [-1.2053554058074951:2.9279854297637939] [-0.60092902183532715:2.8557500839233398] [-1.4815260171890259:1.3644131422042847] [-1.1726788282394409:2.0060887336730957] [-1.1539183855056763:1.2058961391448975] [-1.3013137578964233:1.4476768970489502] [-2.1335437297821045:3.1721186637878418] [-1.0609734058380127:1.8210073709487915] [-2.8504137992858887:0.18500132858753204] [-1.5235962867736816:2.2904262542724609] [-1.6870442628860474:1.5637029409408569] [-0.56187480688095093:1.6625186204910278] 