tree
version=v4
num_class=4
num_tree_per_iteration=4
label_index=0
max_feature_idx=16
objective=multiclass num_class:4
feature_names=Column_0 Column_1 Column_2 Column_3 Column_4 Column_5 Column_6 Column_7 Column_8 Column_9 Column_10 Column_11 Column_12 Column_13 Column_14 Column_15 Column_16
feature_infos=[-5.521883487701416:8.5005216598510742] [-5.141420841217041:1.445626974105835] [-2.1283805370330811:2.8424572944641113] [-5.5506596565246582:5.5063610076904297] [-0.46846026182174683:4.7775721549987793] [-4.8483595848083496:2.5256879329681396] [-0.3118787407875061:4.3828120231628418] [-3.6983642578125:3.0699472427368164] [-4.7071123123168945:5.2684364318847656] [-3.7005383968353271:2.1053938865661621] [-2.3112940788269043:2.7560040950775146] [-4.461698055267334:4.2757449150085449] [-0.75201839208602905:0.99675619602203369] [-0.86787313222885132:0.99925798177719116] [-0.78526264429092407:0.99835461378097534] none none
tree_sizes=461 452 458 658 463 439 441 442 467 443 443 608 581 445 444 444 644 622 451 454 645 539 454 458 457 451 453 540 542 539 454 452 643 454 457 451 748 451 455 541 745 453 537 538 748 452 539 452 577 454 451 455 458 453 537 456 740 449 456 538 825 535 451 537 746 456 621 456 646 541 544 544 743 546 541 631 642 547 627 541 744 546 547 540 745 542 544 544 735 546 627 544 741 543 541 641 915 630 541 543 809 543 546 542 710 543 544 542 821 546 544 542 909 544 541 545 707 630 543 631 900 544 632 633 894 456 631 543 909 716 547 629 904 542 457 457 902 456 456 455 906 455 636 456 888 547 454 633 915 456 454 632 903 546 544 456 900 457 456 633 812 456 456 719 895 457 544 455 899 545 633 631 908 544 635 545 910 717 722 629 917 634 542 631 919 633 456 635 918 720 802 544 907 898 720 717 917 720 719 633 904 722 721 634 906 810 811 634 889 807 723 638 909 724 724 897 909 724 635 809 892 640 807 813 896 810 813 634 893 809 894 900 894 815 895 901 895 896 901 717 889 904 896 885 896 894 892 888 916 711 807 896 896 894 895 813 883 706 799 710 897 714 797 709 913 533 712 621 897 709 799 709 898 711 802 713 896 707 798 622 916 621 886 622 911 799 882 888 891 711 616 711 891 888 710 803 910 716 715 620 878 711 800 624 882 886 710 804 897 877 790 717 897 875 524 711 905 701 616 704 902 881 795 789 906 793 617 794 913 882 617 792 898 886 706 704 905 885 878 792 933 704 880 704 937 706 875 615 889 613 787 616 891 618 885 526 896 701 791 794 895 616 613 790 908 612 705 705 879 614 702 705 897 438 439 619 897 523 525 435 917 436 436 523 886 436 436 522 869 436 227 227 910 227 227 227 914 227 227 227 897 227 227 227 875 227 227 227 897 227 227 227 896 227 227 227 895 227 227 227 910 227 227 227 895 227 227 227 908 227 227 227 908 227 227 227 885 227 227 227 892 227 227 227 882 227 227 227 876 227 227 227 878 227 227 227 870 227 227 227 887 227 227 227 868 227 227 227 861 227 227 227 879 227 227 227 868 227 227 227 896 227 227 227 879 227 227 227 868 227 227 227 869 227 227 227 901 227 227 227 875 227 227 227 904 227 227 227 870 227 227 227 864 227 227 227 882 227 227 227 876 227 227 227 878 227 227 227 721 227 227 227 861 227 227 227 857 227 227 227 886 227 227 227 876 227 227 227 873 227 227 227 891 227 227 227 871 227 227 227 878 227 227 227 876 227 227 227 876 227 227 227 899 227 227 227 876 227 227 227 886 227 227 227 890 227 227 227 861 227 227 227 884 227 227 227 877 227 227 227 879 227 227 227 876 227 227 227 879 227 227 227 875 227 227 227 864 227 227 227 891 227 227 227

Tree=0
num_leaves=3
num_cat=0
split_feature=0 4
split_gain=4094.05 42.9371
threshold=-1.1757192611694334 1.5829592943191531
decision_type=2 2
left_child=1 -1
right_child=-2 -3
leaf_value=-0.98511521617879616 -0.79567229867256395 -0.90282662573427486
leaf_weight=1151.6824840307236 731.14048039913177 14.744612932205198
leaf_count=3593 2281 46
internal_value=-0.911236 -0.983674
internal_weight=1897.57 1166.43
internal_count=5920 3639
is_linear=0
shrinkage=1


Tree=1
num_leaves=3
num_cat=0
split_feature=0 6
split_gain=670.117 7.08197
threshold=-1.1757192611694334 3.5044218301773076
decision_type=2 2
left_child=1 -1
right_child=-2 -3
leaf_value=-1.6128220104183411 -1.6702046020358632 -1.5761103969246362
leaf_weight=10.63960939645767 485.378980666399 763.7111624777317
leaf_count=50 2281 3589
internal_value=-1.61282 -1.57685
internal_weight=1259.73 774.351
internal_count=5920 3639
is_linear=0
shrinkage=1


Tree=2
num_leaves=3
num_cat=0
split_feature=0 12
split_gain=670.117 6.52112
threshold=-1.1757192611694334 1.0000000180025095e-35
decision_type=2 2
left_child=1 -1
right_child=-2 -3
leaf_value=-1.6128220104183411 -1.6702046020358632 -1.5761390022155288
leaf_weight=11.065193772315977 485.378980666399 763.2855781018734
leaf_count=52 2281 3587
internal_value=-1.61282 -1.57685
internal_weight=1259.73 774.351
internal_count=5920 3639
is_linear=0
shrinkage=1


Tree=3
num_leaves=5
num_cat=0
split_feature=10 13 12 14
split_gain=652.144 9.8841 2.1037 1.30263
threshold=1.5417312383651736 0.8473356068134309 0.23110724240541461 0.090810380876064314
decision_type=2 2 2 2
left_child=2 -2 -1 -3
right_child=1 3 -4 -5
leaf_value=-1.6128220104183411 -1.6128220104183411 -1.6128220104183411 -1.6701807695909181 -1.5759043311948993
leaf_weight=14.257076591253279 10.214025020599363 10.63960939645767 473.67541033029556 750.9436312019825
leaf_count=67 48 50 2226 3529
internal_value=-1.61282 -1.57719 -1.66919 -1.57625
internal_weight=1259.73 771.797 487.932 761.583
internal_count=5920 3627 2293 3579
is_linear=0
shrinkage=1


Tree=4
num_leaves=3
num_cat=0
split_feature=0 6
split_gain=3515.75 41.2819
threshold=-1.1757192611694334 3.5044218301773076
decision_type=2 2
left_child=1 -1
right_child=-2 -3
leaf_value=0.0074766380323477016 0.10457422045707181 -0.070560349298523242
leaf_weight=15.872860848903654 750.82450154423714 1122.6694369614124
leaf_count=50 2281 3589
internal_value=0 -0.0690612
internal_weight=1889.37 1138.54
internal_count=5920 3639
is_linear=0
shrinkage=0.0622895


Tree=5
num_leaves=3
num_cat=0
split_feature=0 4
split_gain=591.31 6.10513
threshold=-1.1757192611694334 1.5829592943191531
decision_type=2 2
left_child=1 -1
right_child=-2 -3
leaf_value=0.033051499993184519 -0.0563164377687458 0
leaf_weight=789.40600717067719 458.96042886376381 9.8351184576749784
leaf_count=3593 2281 46
internal_value=0 0.0323932
internal_weight=1258.2 799.241
internal_count=5920 3639
is_linear=0
shrinkage=0.0622895


Tree=6
num_leaves=3
num_cat=0
split_feature=0 6
split_gain=591.355 6.39318
threshold=-1.1757192611694334 3.5044218301773076
decision_type=2 2
left_child=1 -1
right_child=-2 -3
leaf_value=0 -0.0563164377687458 0.033098073733167289
leaf_weight=10.846753239631651 458.96042886376381 788.36600680649281
leaf_count=50 2281 3589
internal_value=0 0.0323972
internal_weight=1258.17 799.213
internal_count=5920 3639
is_linear=0
shrinkage=0.0622895


Tree=7
num_leaves=3
num_cat=0
split_feature=0 6
split_gain=592.439 6.32146
threshold=-1.1757192611694334 3.5044218301773076
decision_type=2 2
left_child=1 -1
right_child=-2 -3
leaf_value=0 -0.056337869358264639 0.033123944399561948
leaf_weight=10.796985298395155 459.48670883476734 788.18290184438229
leaf_count=50 2281 3589
internal_value=0 0.0324295
internal_weight=1258.47 798.98
internal_count=5920 3639
is_linear=0
shrinkage=0.0622895


Tree=8
num_leaves=3
num_cat=0
split_feature=0 12
split_gain=3049.6 36.5871
threshold=-1.1757192611694334 1.0000000180025095e-35
decision_type=2 2
left_child=1 -1
right_child=-2 -3
leaf_value=0.0028937646128750672 0.09588998407139171 -0.067629325924731878
leaf_weight=16.284780204296112 759.56117579340935 1091.0470393300056
leaf_count=52 2281 3587
internal_value=0 -0.0661694
internal_weight=1866.89 1107.33
internal_count=5920 3639
is_linear=0
shrinkage=0.0622895


Tree=9
num_leaves=3
num_cat=0
split_feature=0 10
split_gain=523.949 3.9066
threshold=-1.1757192611694334 1.5417312383651736
decision_type=2 2
left_child=1 -1
right_child=-2 -3
leaf_value=0 -0.055332533827128279 0.029849386728528333
leaf_weight=10.192153215408323 432.90870547294617 811.05900073051453
leaf_count=46 2281 3593
internal_value=0 0.0293508
internal_weight=1254.16 821.251
internal_count=5920 3639
is_linear=0
shrinkage=0.0622895


Tree=10
num_leaves=3
num_cat=0
split_feature=2 4
split_gain=518.874 8.21513
threshold=1.1438375115394595 1.6379766464233401
decision_type=2 2
left_child=-1 -2
right_child=1 -3
leaf_value=-0.055329724861418912 0.029925928058702003 0
leaf_weight=430.16176527738571 813.13377825915813 10.840404644608496
leaf_count=2266 3602 52
internal_value=0 0.0290705
internal_weight=1254.14 823.974
internal_count=5920 3654
is_linear=0
shrinkage=0.0622895


Tree=11
num_leaves=5
num_cat=0
split_feature=6 1 8 6
split_gain=520.854 3.9997 2.31715 0.144294
threshold=3.5044218301773076 -0.30899776518344874 -2.0303224325180049 3.6625742912292485
decision_type=2 2 2 2
left_child=1 -1 3 -2
right_child=2 -3 -4 -5
leaf_value=-0.055365587563416252 0 0 0 0.03032601939572591
leaf_weight=431.03478525578976 14.332570046186445 9.6840493530035001 11.36105304956436 788.0060979872942
leaf_count=2266 64 47 53 3490
internal_value=0 -0.0544314 0.0296461 0.0300423
internal_weight=1254.42 440.719 813.7 802.339
internal_count=5920 2313 3607 3554
is_linear=0
shrinkage=0.0622895


Tree=12
num_leaves=4
num_cat=0
split_feature=0 6 6
split_gain=2668.78 37.4882 0.598972
threshold=-1.1757192611694334 3.5044218301773076 3.8046846389770512
decision_type=2 2 2
left_child=1 -1 -3
right_child=-2 2 -4
leaf_value=0.0091584804510624115 0.088922480385239325 -0.039066084568000613 -0.067074524009370681
leaf_weight=15.720136314630507 758.88993066549301 87.797495722770691 970.59938970208168
leaf_count=50 2281 297 3292
internal_value=-0.000238881 -0.0636694 -0.0651935
internal_weight=1833.01 1074.12 1058.4
internal_count=5920 3639 3589
is_linear=0
shrinkage=0.0622895


Tree=13
num_leaves=3
num_cat=0
split_feature=0 6
split_gain=465.499 5.14075
threshold=-1.1757192611694334 3.6625742912292485
decision_type=2 2
left_child=1 -1
right_child=-2 -3
leaf_value=0 -0.054417185530176208 0.027576961554797882
leaf_weight=25.405158460140228 407.22599478065968 815.51041625440121
leaf_count=112 2281 3527
internal_value=0 0.0267169
internal_weight=1248.14 840.916
internal_count=5920 3639
is_linear=0
shrinkage=0.0622895


Tree=14
num_leaves=3
num_cat=0
split_feature=0 4
split_gain=465.673 4.90792
threshold=-1.1757192611694334 1.5829592943191531
decision_type=2 2
left_child=1 -1
right_child=-2 -3
leaf_value=0.027298085011134256 -0.054423407775499588 0
leaf_weight=830.89526490867138 407.39796029031277 10.033810466527937
leaf_count=3593 2281 46
internal_value=0 0.0267142
internal_weight=1248.33 840.929
internal_count=5920 3639
is_linear=0
shrinkage=0.0622895


Tree=15
num_leaves=3
num_cat=0
split_feature=0 4
split_gain=467.285 4.68391
threshold=-1.1757192611694334 1.5829592943191531
decision_type=2 2
left_child=1 -1
right_child=-2 -3
leaf_value=0.027363777809119832 -0.054445459027269154 0
leaf_weight=830.39945821464062 408.00355750322342 9.8431911021471006
leaf_count=3593 2281 46
internal_value=0 0.0268025
internal_weight=1248.25 840.243
internal_count=5920 3639
is_linear=0
shrinkage=0.0622895


Tree=16
num_leaves=5
num_cat=0
split_feature=6 10 1 6
split_gain=2351.68 14.6981 12.4682 1.49485
threshold=3.5044218301773076 1.5741828083992007 -0.30899776518344874 3.6625742912292485
decision_type=2 2 2 2
left_child=2 -2 -1 -3
right_child=1 3 -4 -5
leaf_value=0.083478622375100509 0 -0.0039016340607870184 0 -0.063789982668375655
leaf_weight=745.1881155371666 17.947751343250275 18.381060391664505 14.915317326784132 993.57608217000961
leaf_count=2266 60 63 47 3484
internal_value=-0.000573072 -0.0621683 0.0822696 -0.0631648
internal_weight=1790.01 1029.9 760.103 1011.96
internal_count=5920 3607 2313 3547
is_linear=0
shrinkage=0.0622895


Tree=17
num_leaves=5
num_cat=0
split_feature=6 10 8 6
split_gain=412.237 3.37662 1.81104 0.0806204
threshold=3.5044218301773076 1.7822934389114382 -2.0303224325180049 3.6625742912292485
decision_type=2 2 2 2
left_child=1 -1 3 -2
right_child=2 -3 -4 -5
leaf_value=-0.053467918937528593 0 0 0 0.02529964644668287
leaf_weight=382.1201523244381 14.660434722900389 8.0688435137271863 11.501665428280829 824.13089324533939
leaf_count=2272 64 41 53 3490
internal_value=3.30257e-05 -0.0525939 0.0247335 0.0250701
internal_weight=1240.48 390.189 850.293 838.791
internal_count=5920 2313 3607 3554
is_linear=0
shrinkage=0.0622895


Tree=18
num_leaves=3
num_cat=0
split_feature=0 4
split_gain=414.939 4.3751
threshold=-1.1757192611694334 1.5829592943191531
decision_type=2 2
left_child=1 -1
right_child=-2 -3
leaf_value=0.024979572483828615 -0.05357513830387179 0
leaf_weight=848.33744949102402 382.39555104076862 10.06004339456558
leaf_count=3593 2281 46
internal_value=1.34854e-05 0.0244313
internal_weight=1240.79 858.397
internal_count=5920 3639
is_linear=0
shrinkage=0.0622895


Tree=19
num_leaves=3
num_cat=0
split_feature=0 4
split_gain=416.349 4.17263
threshold=-1.1757192611694334 1.5829592943191531
decision_type=2 2
left_child=1 -1
right_child=-2 -3
leaf_value=0.025038608377459207 -0.053595109285438543 0
leaf_weight=847.87839396297932 382.96949821710587 9.8696339279413206
leaf_count=3593 2281 46
internal_value=2.55828e-05 0.0245121
internal_weight=1240.72 857.748
internal_count=5920 3639
is_linear=0
shrinkage=0.0622895


Tree=20
num_leaves=5
num_cat=0
split_feature=6 8 1 6
split_gain=2086.52 15.1084 10.7357 2.38918
threshold=3.5044218301773076 -2.0303224325180049 -0.30899776518344874 3.6625742912292485
decision_type=2 2 2 2
left_child=2 3 -1 -2
right_child=1 -3 -4 -5
leaf_value=0.078716813964451959 -0.0015479281392192402 0 0 -0.061892840119234377
leaf_weight=730.45369029045105 18.580010563135147 15.689091473817824 14.852488726377485 960.82816025614738
leaf_count=2266 64 53 47 3490
internal_value=-0.000964321 -0.0602546 0.0775691 -0.0612261
internal_weight=1740.4 995.097 745.306 979.408
internal_count=5920 3607 2313 3554
is_linear=0
shrinkage=0.0622895


Tree=21
num_leaves=4
num_cat=0
split_feature=6 1 12
split_gain=368.011 5.28441 0.109213
threshold=3.2219944000244145 -1.4637812972068784 0.027057031169533733
decision_type=2 2 2
left_child=-1 -2 -3
right_child=1 2 -4
leaf_value=-0.052673162370428669 0 0 0.023159738420914948
leaf_weight=357.14987523853779 7.73478178679943 13.042079105973242 853.82097202539444
leaf_count=2265 46 55 3554
internal_value=0.000219537 0.0223541 0.0229742
internal_weight=1231.75 874.598 866.863
internal_count=5920 3655 3609
is_linear=0
shrinkage=0.0622895


Tree=22
num_leaves=3
num_cat=0
split_feature=0 6
split_gain=370.743 4.15839
threshold=-1.1757192611694334 3.6625742912292485
decision_type=2 2
left_child=1 -1
right_child=-2 -3
leaf_value=0 -0.052790399773637468 0.023192002283500851
leaf_weight=25.81703969836235 358.28250002861023 848.12933050096035
leaf_count=112 2281 3527
internal_value=0.000185528 0.0224392
internal_weight=1232.23 873.946
internal_count=5920 3639
is_linear=0
shrinkage=0.0622895


Tree=23
num_leaves=3
num_cat=0
split_feature=0 12
split_gain=371.986 3.69173
threshold=-1.1757192611694334 1.0000000180025095e-35
decision_type=2 2
left_child=1 -1
right_child=-2 -3
leaf_value=0 -0.052809704923786505 0.023025881132114089
leaf_weight=11.492834657430647 358.8317988216877 861.84002038836479
leaf_count=52 2281 3587
internal_value=0.000197153 0.0225125
internal_weight=1232.16 873.333
internal_count=5920 3639
is_linear=0
shrinkage=0.0622895


Tree=24
num_leaves=3
num_cat=0
split_feature=0 12
split_gain=1861.58 27.1643
threshold=-1.7844370603561399 0.027057031169533733
decision_type=2 2
left_child=1 -1
right_child=-2 -3
leaf_value=0 0.074058265674296062 -0.059849734452190391
leaf_weight=21.52600160241127 720.76968249678612 943.16878920793533
leaf_count=74 2300 3546
internal_value=-0.00139085 -0.0582478
internal_weight=1685.46 964.695
internal_count=5920 3620
is_linear=0
shrinkage=0.0622895


Tree=25
num_leaves=3
num_cat=0
split_feature=2 4
split_gain=330.294 4.6889
threshold=1.1438375115394595 1.6379766464233401
decision_type=2 2
left_child=-1 -2
right_child=1 -3
leaf_value=-0.052073975385076236 0.021216425595823634 0
leaf_weight=333.45541213452816 879.04785041511059 10.061810180544851
leaf_count=2266 3602 52
internal_value=0.000399074 0.0206054
internal_weight=1222.57 889.11
internal_count=5920 3654
is_linear=0
shrinkage=0.0622895


Tree=26
num_leaves=3
num_cat=0
split_feature=0 4
split_gain=331.875 3.49329
threshold=-1.1757192611694334 1.5829592943191531
decision_type=2 2
left_child=1 -1
right_child=-2 -3
leaf_value=0.021171857803710108 -0.052058503271656564 0
leaf_weight=877.80063183605671 335.01610323786736 10.041136950254439
leaf_count=3593 2281 46
internal_value=0.000373966 0.020686
internal_weight=1222.86 887.842
internal_count=5920 3639
is_linear=0
shrinkage=0.0622895


Tree=27
num_leaves=4
num_cat=0
split_feature=2 6 12
split_gain=330.098 4.83313 0.0936819
threshold=1.1438375115394595 3.2219944000244145 0.027057031169533733
decision_type=2 2 2
left_child=-1 -2 -3
right_child=1 2 -4
leaf_value=-0.052076699740897507 0 0 0.021341328442368135
leaf_weight=333.50630453228951 7.6526572108268729 13.152018710970877 868.59078508615494
leaf_count=2266 42 55 3557
internal_value=0.000378342 0.0205744 0.0211718
internal_weight=1222.9 889.395 881.743
internal_count=5920 3654 3612
is_linear=0
shrinkage=0.0622895


Tree=28
num_leaves=4
num_cat=0
split_feature=0 14 8
split_gain=1664.19 26.7611 3.66271
threshold=-1.1757192611694334 0.090810380876064314 -2.0303224325180049
decision_type=2 2 2
left_child=1 -1 -3
right_child=-2 2 -4
leaf_value=0 0.071151006771339176 -0.058387215686910854 0
leaf_weight=18.63981619477272 691.30621254444122 903.71803325414658 12.886871337890623
leaf_count=64 2281 3529 46
internal_value=-0.00183478 -0.0562844 -0.0578415
internal_weight=1626.55 935.245 916.605
internal_count=5920 3639 3575
is_linear=0
shrinkage=0.0622895


Tree=29
num_leaves=4
num_cat=0
split_feature=6 1 12
split_gain=295.345 4.007 0.0243288
threshold=3.2219944000244145 -1.4637812972068784 0.027057031169533733
decision_type=2 2 2
left_child=-1 -2 -3
right_child=1 2 -4
leaf_value=-0.051242562888089913 0 0 0.019720765530959812
leaf_weight=312.11306911706924 7.2361078113317481 13.199170485138891 880.4920712262392
leaf_count=2265 46 55 3554
internal_value=0.000574449 0.0190454 0.0195719
internal_weight=1213.04 900.927 893.691
internal_count=5920 3655 3609
is_linear=0
shrinkage=0.0622895


Tree=30
num_leaves=3
num_cat=0
split_feature=0 6
split_gain=297.16 3.23642
threshold=-1.1757192611694334 3.6625742912292485
decision_type=2 2
left_child=1 -1
right_child=-2 -3
leaf_value=0 -0.051369722571479662 0.019744989761333535
leaf_weight=25.946236133575439 312.59985813498497 874.67259410023689
leaf_count=112 2281 3527
internal_value=0.000554428 0.0190969
internal_weight=1213.22 900.619
internal_count=5920 3639
is_linear=0
shrinkage=0.0622895


Tree=31
num_leaves=3
num_cat=0
split_feature=6 1
split_gain=296.119 3.83172
threshold=3.2219944000244145 -1.4637812972068784
decision_type=2 2
left_child=-1 -2
right_child=1 -3
leaf_value=-0.051269791562298876 0 0.019573807335770275
leaf_weight=312.63335770368576 6.984847664833068 893.67475958168507
leaf_count=2265 46 3609
internal_value=0.000559253 0.0190698
internal_weight=1213.29 900.66
internal_count=5920 3655
is_linear=0
shrinkage=0.0622895


Tree=32
num_leaves=5
num_cat=0
split_feature=6 4 4 6
split_gain=1499.17 12.8915 7.82347 4.70123
threshold=3.5044218301773076 1.5104582309722903 0.66980087757110607 3.8046846389770512
decision_type=2 2 2 2
left_child=2 3 -1 -2
right_child=1 -3 -4 -5
leaf_value=0 -0.026014684255482218 0 0.068480515950954349 -0.058661896960721799
leaf_weight=13.400421798229216 72.496073216199875 11.771705210208891 660.74365788698196 806.70762360095978
leaf_count=46 285 40 2267 3282
internal_value=-0.00230823 -0.0556256 0.0674636 -0.0565024
internal_weight=1565.12 890.975 674.144 879.204
internal_count=5920 3607 2313 3567
is_linear=0
shrinkage=0.0622895


Tree=33
num_leaves=3
num_cat=0
split_feature=6 1
split_gain=264.889 3.53135
threshold=3.2219944000244145 -1.4637812972068784
decision_type=2 2
left_child=-1 -2
right_child=1 -3
leaf_value=-0.050587540273019836 0 0.018131213733755185
leaf_weight=290.94437742233276 7.0326890200376502 905.26026238501072
leaf_count=2265 46 3609
internal_value=0.000753783 0.0176405
internal_weight=1203.24 912.293
internal_count=5920 3655
is_linear=0
shrinkage=0.0622895


Tree=34
num_leaves=3
num_cat=0
split_feature=0 12
split_gain=266.199 2.98215
threshold=-1.1757192611694334 0.027057031169533733
decision_type=2 2
left_child=1 -1
right_child=-2 -3
leaf_value=0 -0.050718753131551345 0.018204628425707775
leaf_weight=18.030127987265587 291.06196041405201 894.20281168818474
leaf_count=77 2281 3562
internal_value=0.000737366 0.0176685
internal_weight=1203.29 912.233
internal_count=5920 3639
is_linear=0
shrinkage=0.0622895


Tree=35
num_leaves=3
num_cat=0
split_feature=2 4
split_gain=265.281 3.73952
threshold=1.1438375115394595 1.6379766464233401
decision_type=2 2
left_child=-1 -2
right_child=1 -3
leaf_value=-0.050745324625337263 0.01814021133378943 0
leaf_weight=290.12984921038151 903.5607325732708 9.8733237832784635
leaf_count=2266 3602 52
internal_value=0.000732866 0.0175962
internal_weight=1203.56 913.434
internal_count=5920 3654
is_linear=0
shrinkage=0.0622895


Tree=36
num_leaves=6
num_cat=0
split_feature=6 6 4 1 12
split_gain=1350.39 12.6234 15.9495 7.86925 1.94447
threshold=3.5044218301773076 3.8046846389770512 0.49939495325088507 -0.30899776518344874 0.16575111448764804
decision_type=2 2 2 2 2
left_child=3 2 4 -1 -2
right_child=1 -3 -4 -5 -6
leaf_value=0.066020866293090327 0 -0.057214128538269779 0.011054638550908385 0 -0.046387555130907837
leaf_weight=631.15818107128143 11.743863567709921 778.51265290379524 21.563176542520523 14.019725531339644 45.612422570586205
leaf_count=2266 48 3295 80 47 184
internal_value=-0.00280817 -0.0543287 -0.0199328 0.0649362 -0.0397452
internal_weight=1502.61 857.432 78.9195 645.178 57.3563
internal_count=5920 3607 312 2313 232
is_linear=0
shrinkage=0.0622895


Tree=37
num_leaves=3
num_cat=0
split_feature=0 6
split_gain=240.798 1.95536
threshold=-1.1757192611694334 3.5044218301773076
decision_type=2 2
left_child=1 -1
right_child=-2 -3
leaf_value=0 -0.050155412881397021 0.016849481435011221
leaf_weight=10.032732903957365 271.95991559326649 911.4701916873455
leaf_count=50 2281 3589
internal_value=0.000926378 0.01651
internal_weight=1193.46 921.503
internal_count=5920 3639
is_linear=0
shrinkage=0.0622895


Tree=38
num_leaves=3
num_cat=0
split_feature=0 6
split_gain=238.987 2.66422
threshold=-1.1757192611694334 3.6625742912292485
decision_type=2 2
left_child=1 -1
right_child=-2 -3
leaf_value=0 -0.050111741802885981 0.016984564448019004
leaf_weight=26.166459187865257 270.79610676318407 896.40439686179161
leaf_count=112 2281 3527
internal_value=0.000918025 0.0164039
internal_weight=1193.37 922.571
internal_count=5920 3639
is_linear=0
shrinkage=0.0622895


Tree=39
num_leaves=4
num_cat=0
split_feature=2 14 1
split_gain=238.114 2.61295 0.486821
threshold=1.1438375115394595 0.076160583645105376 -0.95767539739608754
decision_type=2 2 2
left_child=-1 -2 -3
right_child=1 2 -4
leaf_value=-0.050136266205339522 0 0 0.016923112729304551
leaf_weight=269.94741909205914 10.185791343450544 11.586667984724043 902.03180830180645
leaf_count=2266 50 52 3552
internal_value=0.00090646 0.0163286 0.0167539
internal_weight=1193.75 923.804 913.618
internal_count=5920 3654 3604
is_linear=0
shrinkage=0.0622895


Tree=40
num_leaves=6
num_cat=0
split_feature=6 6 10 4 4
split_gain=1219.48 12.4663 14.8961 7.44232 3.79556
threshold=3.5044218301773076 3.8046846389770512 2.1004935503005986 0.66980087757110607 0.55545607209205639
decision_type=2 2 2 2 2
left_child=3 2 4 -1 -2
right_child=1 -3 -4 -5 -6
leaf_value=0 0 -0.056072021556890062 -0.042426029824902164 0.063781639672841131 0.033660899078559854
leaf_weight=12.877910465002058 17.103294685482982 747.34421636164188 46.995076179504395 601.76731753349304 13.187796384096144
leaf_count=46 71 3295 193 2267 48
internal_value=-0.00332745 -0.0531366 -0.0186939 0.0627366 0.00266922
internal_weight=1439.28 824.63 77.2862 614.645 30.2911
internal_count=5920 3607 312 2313 119
is_linear=0
shrinkage=0.0622895


Tree=41
num_leaves=3
num_cat=0
split_feature=6 10
split_gain=213.414 2.80449
threshold=3.2219944000244145 1.5417312383651736
decision_type=2 2
left_child=-1 -2
right_child=1 -3
leaf_value=-0.049372070198051808 0 0.015710359893424928
leaf_weight=251.67815376073122 12.943789444863794 919.09901213645935
leaf_count=2265 71 3584
internal_value=0.00109284 0.0152221
internal_weight=1183.72 932.043
internal_count=5920 3655
is_linear=0
shrinkage=0.0622895


Tree=42
num_leaves=4
num_cat=0
split_feature=0 4 7
split_gain=214.654 2.27557 0.0727895
threshold=-1.1757192611694334 1.5104582309722903 -2.5693037509918208
decision_type=2 2 2
left_child=1 2 -1
right_child=-2 -3 -4
leaf_value=0 -0.049536342063905739 0 0.015786175412025722
leaf_weight=14.224800854921339 251.57927805930376 10.766683489084242 907.01174873113632
leaf_count=56 2281 49 3534
internal_value=0.00108832 0.015256 0.015654
internal_weight=1183.58 932.003 921.237
internal_count=5920 3639 3590
is_linear=0
shrinkage=0.0622895


Tree=43
num_leaves=4
num_cat=0
split_feature=6 1 12
split_gain=214.505 2.54944 0.117219
threshold=3.2219944000244145 -1.4637812972068784 0.027057031169533733
decision_type=2 2 2
left_child=-1 -2 -3
right_child=1 2 -4
leaf_value=-0.049421373577293815 0 0 0.01578980391541197
leaf_weight=252.47708486020565 6.2178346216678611 13.577534571290014 911.76276867836714
leaf_count=2265 46 55 3554
internal_value=0.00107347 0.0152615 0.0156578
internal_weight=1184.04 931.558 925.34
internal_count=5920 3655 3609
is_linear=0
shrinkage=0.0622895


Tree=44
num_leaves=6
num_cat=0
split_feature=6 6 1 10 7
split_gain=1103.44 12.466 7.72779 7.26519 2.36841
threshold=3.5044218301773076 3.7770829200744633 -0.30899776518344874 2.1004935503005986 -2.5879722833633418
decision_type=2 2 2 2 2
left_child=2 3 -1 -2 -3
right_child=1 4 -4 -5 -6
leaf_value=0.061931829319044798 0.0014057268985512154 0 0 -0.032525972053295299 -0.054959848848900872
leaf_weight=569.85482662916183 21.149667277932167 12.270195081830023 13.702889561653135 31.678388983011246 727.78452444076538
leaf_count=2266 82 51 47 133 3341
internal_value=-0.00386114 -0.0520265 0.0607792 -0.0100791 -0.0543883
internal_weight=1376.44 792.883 583.558 52.8281 740.055
internal_count=5920 3607 2313 215 3392
is_linear=0
shrinkage=0.0622895


Tree=45
num_leaves=3
num_cat=0
split_feature=0 14
split_gain=194.63 1.77958
threshold=-1.1757192611694334 0.076160583645105376
decision_type=2 2
left_child=1 -1
right_child=-2 -3
leaf_value=0 -0.049041743566262119 0.014636641598317015
leaf_weight=9.230682820081709 234.74832264333963 930.31375867128372
leaf_count=45 2281 3594
internal_value=0.00124695 0.01431
internal_weight=1174.29 939.544
internal_count=5920 3639
is_linear=0
shrinkage=0.0622895


Tree=46
num_leaves=4
num_cat=0
split_feature=6 13 12
split_gain=193.343 1.93991 0.250122
threshold=3.2219944000244145 0.8473356068134309 0.027057031169533733
decision_type=2 2 2
left_child=-1 -2 -3
right_child=1 2 -4
leaf_value=-0.048901440801203844 0 0 0.014758569706597094
leaf_weight=234.5149809718132 9.7645243480801565 12.981029301881788 916.77715044468641
leaf_count=2265 62 52 3541
internal_value=0.00124889 0.0142653 0.0146195
internal_weight=1174.04 939.523 929.758
internal_count=5920 3655 3593
is_linear=0
shrinkage=0.0622895


Tree=47
num_leaves=3
num_cat=0
split_feature=0 6
split_gain=194.337 1.90211
threshold=-1.1757192611694334 3.6625742912292485
decision_type=2 2
left_child=1 -1
right_child=-2 -3
leaf_value=0 -0.049033958381426435 0.014755214167617391
leaf_weight=25.721891775727272 234.64235288649797 914.17827916145325
leaf_count=112 2281 3527
internal_value=0.00123261 0.0142796
internal_weight=1174.54 939.9
internal_count=5920 3639
is_linear=0
shrinkage=0.0622895


Tree=48
num_leaves=4
num_cat=0
split_feature=0 4 6
split_gain=1001.78 21.1759 3.12456
threshold=-1.7844370603561399 1.7704445123672488 3.8046846389770512
decision_type=2 2 2
left_child=1 2 -1
right_child=-2 -3 -4
leaf_value=-0.024274982237635391 0.059624913235909502 0.010908372057506503 -0.054306881026610174
leaf_weight=74.378747060894966 546.82351890206337 8.8127404153346998 684.18055312335491
leaf_count=313 2300 28 3279
internal_value=-0.00440774 -0.050647 -0.0519794
internal_weight=1314.2 767.372 758.559
internal_count=5920 3620 3592
is_linear=0
shrinkage=0.0622895


Tree=49
num_leaves=3
num_cat=0
split_feature=0 12
split_gain=174.899 1.69696
threshold=-1.1757192611694334 0.027057031169533733
decision_type=2 2
left_child=1 -1
right_child=-2 -3
leaf_value=0 -0.048514817992496226 0.013728390867870558
leaf_weight=17.382876828312874 217.5878154411912 930.16610364615917
leaf_count=77 2281 3562
internal_value=0.00139013 0.013344
internal_weight=1165.14 947.549
internal_count=5920 3639
is_linear=0
shrinkage=0.0622895


Tree=50
num_leaves=3
num_cat=0
split_feature=6 10
split_gain=173.656 2.07906
threshold=3.2219944000244145 1.5417312383651736
decision_type=2 2
left_child=-1 -2
right_child=1 -3
leaf_value=-0.048348759537256411 0 0.01371073151420813
leaf_weight=217.44208219647408 12.133143931627272 935.32129588723183
leaf_count=2265 71 3584
internal_value=0.00139588 0.0133065
internal_weight=1164.9 947.454
internal_count=5920 3655
is_linear=0
shrinkage=0.0622895


Tree=51
num_leaves=3
num_cat=0
split_feature=0 12
split_gain=174.683 1.74884
threshold=-1.1757192611694334 0.027057031169533733
decision_type=2 2
left_child=1 -1
right_child=-2 -3
leaf_value=0 -0.048507092704361023 0.013717167818003121
leaf_weight=17.525493711233139 217.48768860846758 930.28556726872921
leaf_count=77 2281 3562
internal_value=0.00138207 0.0133238
internal_weight=1165.3 947.811
internal_count=5920 3639
is_linear=0
shrinkage=0.0622895


Tree=52
num_leaves=3
num_cat=0
split_feature=0 12
split_gain=908.939 22.1042
threshold=-1.7844370603561399 0.027057031169533733
decision_type=2 2
left_child=1 -1
right_child=-2 -3
leaf_value=0 0.058084690589666435 -0.051485269936962591
leaf_weight=19.342873692512512 515.50661699473858 718.28616999089718
leaf_count=74 2300 3546
internal_value=-0.00495621 -0.0496483
internal_weight=1253.14 737.629
internal_count=5920 3620
is_linear=0
shrinkage=0.0622895


Tree=53
num_leaves=3
num_cat=0
split_feature=0 12
split_gain=157.1 1.57873
threshold=-1.1757192611694334 0.027057031169533733
decision_type=2 2
left_child=1 -1
right_child=-2 -3
leaf_value=0 -0.047999507041381818 0.012830525717401536
leaf_weight=17.447728767991066 201.40222109854221 937.4794117808342
leaf_count=77 2281 3562
internal_value=0.00152295 0.0124579
internal_weight=1156.33 954.927
internal_count=5920 3639
is_linear=0
shrinkage=0.0622895


Tree=54
num_leaves=4
num_cat=0
split_feature=0 12 8
split_gain=156.2 1.79243 0.013205
threshold=-1.1757192611694334 0.027057031169533733 -2.1306105852127071
decision_type=2 2 2
left_child=1 -1 -3
right_child=-2 2 -4
leaf_value=0 -0.04796480036160581 0.012905781849610873 0
leaf_weight=17.904504403471947 200.66837765276432 925.09519328176975 12.540033191442488
leaf_count=77 2281 3513 49
internal_value=0.00152367 0.0124065 0.0128171
internal_weight=1156.21 955.54 937.635
internal_count=5920 3639 3562
is_linear=0
shrinkage=0.0622895


Tree=55
num_leaves=3
num_cat=0
split_feature=0 12
split_gain=156.908 1.62646
threshold=-1.1757192611694334 0.027057031169533733
decision_type=2 2
left_child=1 -1
right_child=-2 -3
leaf_value=0 -0.047992312443176373 0.012820036284895324
leaf_weight=17.590452790260315 201.30895031243563 937.59324122965336
leaf_count=77 2281 3562
internal_value=0.00151469 0.0124386
internal_weight=1156.49 955.184
internal_count=5920 3639
is_linear=0
shrinkage=0.0622895


Tree=56
num_leaves=6
num_cat=0
split_feature=6 6 10 2 2
split_gain=828.598 13.1387 12.0777 9.85716 2.47003
threshold=3.5044218301773076 3.8046846389770512 2.1004935503005986 1.451655447483063 1.5957981348037722
decision_type=2 2 2 2 2
left_child=3 2 4 -1 -2
right_child=1 -3 -4 -5 -6
leaf_value=0.05751790806008257 0.024872983405817339 -0.0523783528732246 -0.037277110681522986 0 0
leaf_weight=480.36251057684422 17.056288674473766 633.79113721847534 41.843021929264069 9.4364185035228711 11.143171221017836
leaf_count=2280 70 3295 193 33 49
internal_value=-0.00549712 -0.0491472 -0.0132256 0.0562716 0.00586026
internal_weight=1193.63 703.834 70.0425 489.799 28.1995
internal_count=5920 3607 312 2313 119
is_linear=0
shrinkage=0.0622895


Tree=57
num_leaves=3
num_cat=0
split_feature=0 6
split_gain=141.107 1.25161
threshold=-1.1757192611694334 3.378327608108521
decision_type=2 2
left_child=1 -1
right_child=-2 -3
leaf_value=0 -0.0474997475917718 0.011898289693849156
leaf_weight=7.2455812096595755 186.27920034527779 954.52951061725616
leaf_count=39 2281 3600
internal_value=0.0016351 0.0116385
internal_weight=1148.05 961.775
internal_count=5920 3639
is_linear=0
shrinkage=0.0622895


Tree=58
num_leaves=3
num_cat=0
split_feature=0 12
split_gain=140.321 1.62471
threshold=-1.1757192611694334 0.027057031169533733
decision_type=2 2
left_child=1 -1
right_child=-2 -3
leaf_value=0 -0.047466304253108542 0.011985662751458426
leaf_weight=17.890075519680977 185.59468813985586 944.43677632510662
leaf_count=77 2281 3562
internal_value=0.00163785 0.0115946
internal_weight=1147.92 962.327
internal_count=5920 3639
is_linear=0
shrinkage=0.0622895


Tree=59
num_leaves=4
num_cat=0
split_feature=6 10 6
split_gain=140.511 1.58866 0.0333223
threshold=3.2219944000244145 1.4786106348037722 3.6625742912292485
decision_type=2 2 2
left_child=-1 -2 -3
right_child=1 2 -4
leaf_value=-0.047310294919945942 0 0 0.012095652962259599
leaf_weight=186.87258942425251 9.0175405368208867 21.099180482327938 931.22774809598923
leaf_count=2265 59 88 3508
internal_value=0.00162676 0.0116265 0.0119552
internal_weight=1148.22 961.344 952.327
internal_count=5920 3655 3596
is_linear=0
shrinkage=0.0622895


Tree=60
num_leaves=7
num_cat=0
split_feature=6 6 2 12 2 1
split_gain=754.143 12.9822 9.5141 8.1712 4.32724 3.74155
threshold=3.5044218301773076 3.8046846389770512 1.451655447483063 0.16197873651981357 1.4711651802062991 -0.19788402318954465
decision_type=2 2 2 2 2 2
left_child=2 3 -1 5 -5 -2
right_child=1 -3 -4 4 -6 -7
leaf_value=0.056324433544900569 0 -0.051576578595695907 0 0 -0.040648771173822186 0.036228695162445847
leaf_weight=450.29857785999775 11.149941131472589 607.54029804468155 9.405943036079405 10.876661524176596 35.500988960266113 11.267180815339087
leaf_count=2280 48 3295 33 47 168 49
internal_value=-0.00606415 -0.0482754 0.0550203 -0.0123169 -0.0300465 0.00347827
internal_weight=1136.04 676.335 459.705 68.7948 46.3777 22.4171
internal_count=5920 3607 2313 312 215 97
is_linear=0
shrinkage=0.0622895


Tree=61
num_leaves=4
num_cat=0
split_feature=0 6 7
split_gain=126.742 1.14175 0.0887975
threshold=-1.1757192611694334 3.6625742912292485 -2.6119797229766841
decision_type=2 2 2
left_child=1 -1 -3
right_child=-2 2 -4
leaf_value=0 -0.047010712045021316 0 0.011342554439665883
leaf_weight=25.493591398000717 172.11333315819502 12.77382270991802 929.72621314227581
leaf_count=112 2281 49 3478
internal_value=0.0017402 0.010892 0.0112492
internal_weight=1140.11 967.994 942.5
internal_count=5920 3639 3527
is_linear=0
shrinkage=0.0622895


Tree=62
num_leaves=3
num_cat=0
split_feature=6 10
split_gain=126.47 1.46379
threshold=3.2219944000244145 1.5417312383651736
decision_type=2 2
left_child=-1 -2
right_child=1 -3
leaf_value=-0.046836588209250685 0 0.011241034755318693
leaf_weight=172.8147836253047 11.601624637842177 955.57022282481194
leaf_count=2265 71 3584
internal_value=0.00174315 0.0109075
internal_weight=1139.99 967.172
internal_count=5920 3655
is_linear=0
shrinkage=0.0622895


Tree=63
num_leaves=4
num_cat=0
split_feature=2 14 8
split_gain=125.742 1.35797 0.419723
threshold=1.1438375115394595 0.04145618528127671 -2.0303224325180049
decision_type=2 2 2
left_child=-1 -2 -3
right_child=1 2 -4
leaf_value=-0.046997236674598375 0 0.011262222947385641 0
leaf_weight=171.0516914203763 7.6818945184350005 949.3207598850131 12.172240778803824
leaf_count=2266 41 3558 55
internal_value=0.00173788 0.0108223 0.0111148
internal_weight=1140.23 969.175 961.493
internal_count=5920 3654 3613
is_linear=0
shrinkage=0.0622895


Tree=64
num_leaves=6
num_cat=0
split_feature=6 6 4 1 12
split_gain=687.025 12.8696 10.722 7.11563 2.48219
threshold=3.5044218301773076 3.8046846389770512 0.49939495325088507 -0.30899776518344874 0.16575111448764804
decision_type=2 2 2 2 2
left_child=3 2 4 -1 -2
right_child=1 -3 -4 -5 -6
leaf_value=0.055272034667327267 0 -0.050818674043487326 0.013126307815584685 0 -0.038771920560035499
leaf_weight=418.29838000237942 10.257644996047018 582.33608463406563 19.743579193949699 12.352545797824858 37.729313179850578
leaf_count=2266 48 3295 80 47 184
internal_value=-0.00662993 -0.0474375 -0.0114547 0.0538819 -0.0313246
internal_weight=1080.72 650.067 67.7305 430.651 47.987
internal_count=5920 3607 312 2313 232
is_linear=0
shrinkage=0.0622895


Tree=65
num_leaves=3
num_cat=0
split_feature=0 12
split_gain=113.897 1.26897
threshold=-1.1757192611694334 0.027057031169533733
decision_type=2 2
left_child=1 -1
right_child=-2 -3
leaf_value=0 -0.046530130191443142 0.010556790276075907
leaf_weight=17.547903344035149 158.94481229037046 956.05686210095882
leaf_count=77 2281 3562
internal_value=0.00183929 0.0102167
internal_weight=1132.55 973.605
internal_count=5920 3639
is_linear=0
shrinkage=0.0622895


Tree=66
num_leaves=5
num_cat=0
split_feature=6 10 0 12
split_gain=113.498 1.3517 0.590431 0.045105
threshold=3.2219944000244145 1.5417312383651736 -2.7149859666824336 0.027057031169533733
decision_type=2 2 2 2
left_child=2 -2 -1 -3
right_child=1 3 -4 -5
leaf_value=0 0 0 -0.046631784470403927 0.01062024833351022
leaf_weight=1.0608002841472615 11.581943869590758 12.840070858597754 158.61131536960602 948.49618092179298
leaf_count=5 71 50 2260 3534
internal_value=0.00183282 0.010217 -0.046322 0.0105405
internal_weight=1132.59 972.918 159.672 961.336
internal_count=5920 3655 2265 3584
is_linear=0
shrinkage=0.0622895


Tree=67
num_leaves=3
num_cat=0
split_feature=0 12
split_gain=114.032 1.23861
threshold=-1.1757192611694334 0.027057031169533733
decision_type=2 2
left_child=1 -1
right_child=-2 -3
leaf_value=0 -0.046537583988351804 0.010547235121481077
leaf_weight=17.514538034796715 159.14366015046835 956.15178710222244
leaf_count=77 2281 3562
internal_value=0.00182714 0.0102131
internal_weight=1132.81 973.666
internal_count=5920 3639
is_linear=0
shrinkage=0.0622895


Tree=68
num_leaves=5
num_cat=0
split_feature=0 14 10 10
split_gain=625.903 18.2799 4.0522 0.0843705
threshold=-1.7844370603561399 0.04145618528127671 1.5417312383651736 1.5741828083992007
decision_type=2 2 2 2
left_child=1 -1 -3 -2
right_child=3 2 -4 -5
leaf_value=0.004842815610268455 0.054100424233401168 0 -0.048288768339306003 0
leaf_weight=10.037954568862913 388.75072850286961 6.7056194245815268 613.40384817123413 8.5673246979713422
leaf_count=35 2257 31 3554 43
internal_value=-0.00717675 -0.0461813 -0.0477623 0.0535063
internal_weight=1027.47 630.147 620.109 397.318
internal_count=5920 3620 3585 2300
is_linear=0
shrinkage=0.0622895


Tree=69
num_leaves=4
num_cat=0
split_feature=2 4 12
split_gain=101.619 1.1511 0.0847055
threshold=1.1438375115394595 1.4565081000328066 0.027057031169533733
decision_type=2 2 2
left_child=-1 2 -2
right_child=1 -3 -4
leaf_value=-0.046045764800674224 0 0 0.0099090872909563307
leaf_weight=145.91825828701258 11.147296294569967 13.20071020722389 955.38113098591566
leaf_count=2266 43 71 3540
internal_value=0.00191135 0.00953183 0.00983451
internal_weight=1125.65 979.729 966.528
internal_count=5920 3654 3583
is_linear=0
shrinkage=0.0622895


Tree=70
num_leaves=4
num_cat=0
split_feature=0 12 13
split_gain=102.045 1.18605 0.0216364
threshold=-1.1757192611694334 0.027057031169533733 0.87511932849884044
decision_type=2 2 2
left_child=1 -1 -3
right_child=-2 2 -4
leaf_value=0 -0.046039148260785125 0 0.0099894122901095506
leaf_weight=17.632968693971634 146.5146968215704 17.968949064612389 943.57270641624928
leaf_count=77 2281 68 3494
internal_value=0.0019067 0.00955901 0.00989122
internal_weight=1125.69 979.175 961.542
internal_count=5920 3639 3562
is_linear=0
shrinkage=0.0622895


Tree=71
num_leaves=4
num_cat=0
split_feature=0 14 10
split_gain=102.44 1.06226 0.0773676
threshold=-1.1757192611694334 0.076160583645105376 1.5741828083992007
decision_type=2 2 2
left_child=1 -1 -3
right_child=-2 2 -4
leaf_value=0 -0.046061521197962176 0 0.0099230149361816244
leaf_weight=9.1622790247201902 146.93148005753756 12.966186463832853 956.82874038815498
leaf_count=45 2281 51 3543
internal_value=0.00190041 0.00957725 0.00984074
internal_weight=1125.89 978.957 969.795
internal_count=5920 3639 3594
is_linear=0
shrinkage=0.0622895


Tree=72
num_leaves=6
num_cat=0
split_feature=6 6 0 10 4
split_gain=572.846 13.6118 12.0343 9.81092 2.7172
threshold=3.5044218301773076 3.8046846389770512 -2.933971524238586 2.1004935503005986 0.55545607209205639
decision_type=2 2 2 2 2
left_child=2 3 -1 4 -2
right_child=1 -3 -4 -5 -6
leaf_value=0 0 -0.049459549402789377 0.053645579712991116 -0.033053125092295008 0.032136349270476511
leaf_weight=6.6025535762310019 14.672687694430353 536.00688503682613 369.6480121165514 37.639335185289383 11.939360558986662
leaf_count=24 71 3295 2289 193 48
internal_value=-0.00768673 -0.0458747 0.0519928 -0.00868166 0.00819592
internal_weight=976.509 600.258 376.251 64.2514 26.612
internal_count=5920 3607 2313 312 119
is_linear=0
shrinkage=0.0622895


Tree=73
num_leaves=4
num_cat=0
split_feature=0 12 13
split_gain=91.8721 1.09016 0.0595871
threshold=-1.1757192611694334 0.027057031169533733 0.87511932849884044
decision_type=2 2 2
left_child=1 -1 -3
right_child=-2 2 -4
leaf_value=0 -0.045576430521988176 0 0.0094019452200000443
leaf_weight=17.561565950512886 135.47018944844604 18.074146285653114 948.27709150314331
leaf_count=77 2281 68 3494
internal_value=0.00196022 0.00898115 0.00930075
internal_weight=1119.38 983.913 966.351
internal_count=5920 3639 3562
is_linear=0
shrinkage=0.0622895


Tree=74
num_leaves=4
num_cat=0
split_feature=0 12 8
split_gain=91.5834 1.10512 0.0547628
threshold=-1.1757192611694334 0.027057031169533733 -2.1306105852127071
decision_type=2 2 2
left_child=1 -1 -3
right_child=-2 2 -4
leaf_value=0 -0.04555810192914659 0.0093593784529003386 0
leaf_weight=17.66241542994976 135.19165953248739 953.6957833468914 12.82670985162258
leaf_count=77 2281 3513 49
internal_value=0.00195885 0.00896167 0.00928524
internal_weight=1119.38 984.185 966.522
internal_count=5920 3639 3562
is_linear=0
shrinkage=0.0622895


Tree=75
num_leaves=5
num_cat=0
split_feature=8 14 1 13
split_gain=87.3565 1.47577 1.41915 0.0735915
threshold=-1.9681161642074583 0.076160583645105376 -0.46404589712619776 0.87511932849884044
decision_type=2 2 2 2
left_child=1 -1 -2 -3
right_child=2 3 -4 -5
leaf_value=0 -0.045465235094174723 0 0 0.0093856777278231458
leaf_weight=11.151782073080538 131.04573968425393 17.358723945915699 8.3746658563613874 951.66074170172215
leaf_count=79 2213 72 51 3505
internal_value=0.00194971 0.00891042 -0.0436283 0.00928538
internal_weight=1119.59 980.171 139.42 969.019
internal_count=5920 3656 2264 3577
is_linear=0
shrinkage=0.0622895


Tree=76
num_leaves=5
num_cat=0
split_feature=6 0 7 6
split_gain=523.366 23.1844 5.95206 1.08615
threshold=3.6625742912292485 -2.7633094787597652 -2.5879722833633418 3.7770829200744633
decision_type=2 2 2 2
left_child=1 -1 -2 -4
right_child=2 -3 3 -5
leaf_value=0 0 0.05288802412846378 -0.0039955371560550998 -0.048719738998638476
leaf_weight=20.536275342106819 12.677808150649069 346.72236397862434 25.315824538469315 522.6681702286005
leaf_count=87 62 2299 131 3341
internal_value=-0.00823526 0.0489469 -0.0465272 -0.0475079
internal_weight=927.92 367.259 560.662 547.984
internal_count=5920 2386 3534 3472
is_linear=0
shrinkage=0.0622895


Tree=77
num_leaves=4
num_cat=0
split_feature=0 12 13
split_gain=82.4098 0.995641 0.0517308
threshold=-1.1757192611694334 0.027057031169533733 0.87511932849884044
decision_type=2 2 2
left_child=1 -1 -3
right_child=-2 2 -4
leaf_value=0 -0.045088466408712516 0 0.0088406643770174605
leaf_weight=17.510774433612823 124.87453451007605 18.106008619070053 952.77694237232208
leaf_count=77 2281 68 3494
internal_value=0.00201499 0.00843975 0.00874603
internal_weight=1113.27 988.394 970.883
internal_count=5920 3639 3562
is_linear=0
shrinkage=0.0622895


Tree=78
num_leaves=5
num_cat=0
split_feature=6 10 0 12
split_gain=82.3279 0.974156 0.318054 0.0510185
threshold=3.2219944000244145 1.5417312383651736 -2.6625957489013667 0.052564734593033798
decision_type=2 2 2 2
left_child=2 -2 -1 -3
right_child=1 3 -4 -5
leaf_value=0 0 0 -0.0451916162328884 0.0088313822218196742
leaf_weight=1.3756840229034413 11.139628835022448 18.358019590377808 124.59021394699812 957.81602776795626
leaf_count=7 71 70 2258 3514
internal_value=0.00201249 0.00846371 -0.044835 0.00873635
internal_weight=1113.28 987.314 125.966 976.174
internal_count=5920 3655 2265 3584
is_linear=0
shrinkage=0.0622895


Tree=79
num_leaves=4
num_cat=0
split_feature=0 6 7
split_gain=82.6317 0.920044 0.0307907
threshold=-1.1757192611694334 3.6625742912292485 -2.5879722833633418
decision_type=2 2 2
left_child=1 -1 -3
right_child=-2 2 -4
leaf_value=0 -0.045105980439685882 0 0.0088355689053252213
leaf_weight=25.841210044920444 125.19947450235486 14.650402739644049 947.98004826903343
leaf_count=112 2281 56 3471
internal_value=0.00199486 0.00843428 0.008761
internal_weight=1113.67 988.472 962.63
internal_count=5920 3639 3527
is_linear=0
shrinkage=0.0622895


Tree=80
num_leaves=6
num_cat=0
split_feature=10 6 14 6 5
split_gain=478.587 17.8559 5.43307 5.07318 1.05073
threshold=1.5417312383651736 3.7770829200744633 0.23837303370237353 3.7817391157150273 -2.9975150823593135
decision_type=2 2 2 2 2
left_child=3 2 4 -1 -2
right_child=1 -3 -4 -5 -6
leaf_value=0.052101423436558818 0.024247433015094379 -0.047862991145441514 -0.023439947314838734 0 0
leaf_weight=315.9888601899147 12.221069037914278 504.81178994476795 32.756457760930061 6.252485215663909 9.8892046511173231
leaf_count=2262 55 3361 167 31 44
internal_value=-0.00880532 -0.0440743 -0.000682941 0.0509981 0.0118569
internal_weight=881.92 559.679 54.8667 322.241 22.1103
internal_count=5920 3627 266 2293 99
is_linear=0
shrinkage=0.0622895


Tree=81
num_leaves=4
num_cat=0
split_feature=0 12 8
split_gain=73.8831 0.913821 0.0558248
threshold=-1.1757192611694334 0.027057031169533733 -2.1306105852127071
decision_type=2 2 2
left_child=1 -1 -3
right_child=-2 2 -4
leaf_value=0 -0.044590334158036496 0.0083050091604610406 0
leaf_weight=17.471551716327667 115.05987331643701 962.15554076433182 12.891609683632849
leaf_count=77 2281 3513 49
internal_value=0.00206186 0.00794182 0.00823645
internal_weight=1107.58 992.519 975.047
internal_count=5920 3639 3562
is_linear=0
shrinkage=0.0622895


Tree=82
num_leaves=4
num_cat=0
split_feature=0 12 13
split_gain=73.7638 0.895286 0.0561618
threshold=-1.1757192611694334 0.027057031169533733 0.87511932849884044
decision_type=2 2 2
left_child=1 -1 -3
right_child=-2 2 -4
leaf_value=0 -0.044582084419221325 0 0.0083117164325287891
leaf_weight=17.463537104427814 114.94830088689923 18.165479689836502 957.04611723124981
leaf_count=77 2281 68 3494
internal_value=0.00205772 0.00793008 0.00822036
internal_weight=1107.62 992.675 975.212
internal_count=5920 3639 3562
is_linear=0
shrinkage=0.0622895


Tree=83
num_leaves=4
num_cat=0
split_feature=6 10 12
split_gain=74.2619 0.991755 0.134192
threshold=2.9700492620468144 1.5417312383651736 0.027057031169533733
decision_type=2 2 2
left_child=-1 -2 -3
right_child=1 2 -4
leaf_value=-0.044746721444132651 0 0 0.0083132578002944862
leaf_weight=114.98772970214486 11.671242218464611 13.189946904778479 968.06708059087396
leaf_count=2242 88 50 3540
internal_value=0.00204562 0.007936 0.008225
internal_weight=1107.92 992.928 981.257
internal_count=5920 3678 3590
is_linear=0
shrinkage=0.0622895


Tree=84
num_leaves=6
num_cat=0
split_feature=6 6 7 12 0
split_gain=437.356 18.3331 6.45205 5.00599 0.137726
threshold=3.2219944000244145 3.8046846389770512 -2.3169614076614375 0.16197873651981357 -2.5686842203140254
decision_type=2 2 2 2 2
left_child=4 2 -2 -4 -1
right_child=1 -3 3 -5 -6
leaf_value=0 0.012317405111089185 -0.047584672099249374 0 -0.033673468700908385 0.051287545167084087
leaf_weight=2.5138449966907492 20.930735900998116 472.87798480689526 11.57751180231571 38.003222435712814 292.2806105017662
leaf_count=8 96 3295 56 208 2257
internal_value=-0.00931728 -0.0429291 -0.00506723 -0.021849 0.0510507
internal_weight=838.184 543.389 70.5115 49.5807 294.794
internal_count=5920 3655 360 264 2265
is_linear=0
shrinkage=0.0622895


Tree=85
num_leaves=4
num_cat=0
split_feature=6 10 7
split_gain=66.3543 0.92934 0.0955661
threshold=2.9700492620468144 1.5417312383651736 -2.5380120277404781
decision_type=2 2 2
left_child=-1 -2 -3
right_child=1 2 -4
leaf_value=-0.044214485219731661 0 0 0.0078693867661792545
leaf_weight=105.73031006008387 11.612127803266047 23.934550806879997 961.22904190421104
leaf_count=2242 88 93 3497
internal_value=0.00208448 0.00746521 0.00774896
internal_weight=1102.51 996.776 985.164
internal_count=5920 3678 3590
is_linear=0
shrinkage=0.0622895


Tree=86
num_leaves=4
num_cat=0
split_feature=2 14 8
split_gain=65.7492 0.807811 0.223998
threshold=1.1438375115394595 0.076160583645105376 -2.1306105852127071
decision_type=2 2 2
left_child=-1 -2 -3
right_child=1 2 -4
leaf_value=-0.044070236444653126 0 0.0077917627528094613 0
leaf_weight=105.44810296222568 9.1724331863224489 973.29886106029153 14.614730592817066
leaf_count=2266 50 3541 63
internal_value=0.00208242 0.00743291 0.00767683
internal_weight=1102.53 997.086 987.914
internal_count=5920 3654 3604
is_linear=0
shrinkage=0.0622895


Tree=87
num_leaves=4
num_cat=0
split_feature=6 1 12
split_gain=66.5873 0.854182 0.189838
threshold=2.9700492620468144 -1.5729234814643858 0.027057031169533733
decision_type=2 2 2
left_child=-1 -2 -3
right_child=1 2 -4
leaf_value=-0.044237667953544377 0 0 0.0078029446292256751
leaf_weight=106.05744510143995 4.0646604672074309 14.407833352684973 978.34141155704856
leaf_count=2242 61 55 3562
internal_value=0.00206656 0.00746283 0.00769807
internal_weight=1102.87 996.814 992.749
internal_count=5920 3678 3617
is_linear=0
shrinkage=0.0622895


Tree=88
num_leaves=6
num_cat=0
split_feature=10 6 6 14 5
split_gain=401.311 16.7105 4.63022 4.37919 0.980063
threshold=1.5417312383651736 3.7770829200744633 3.7889666557312016 0.23837303370237353 -2.9975150823593135
decision_type=2 2 2 2 2
left_child=2 3 -1 4 -2
right_child=1 -3 -4 -5 -6
leaf_value=0.050829996819954447 0.022343051268113881 -0.046634371562148259 0 -0.021688825717522637 0
leaf_weight=273.20496720075607 12.121005713939669 464.60192476212978 5.8481035232543936 31.34081794321537 9.6337468102574331
leaf_count=2263 55 3361 30 167 44
internal_value=-0.00979193 -0.0427373 0.0496504 0 0.010166
internal_weight=796.751 517.697 279.053 53.0956 21.7548
internal_count=5920 3627 2293 266 99
is_linear=0
shrinkage=0.0622895


Tree=89
num_leaves=4
num_cat=0
split_feature=0 12 10
split_gain=59.4572 0.779411 0.00162885
threshold=-1.1757192611694334 0.027057031169533733 1.5741828083992007
decision_type=2 2 2
left_child=1 -1 -3
right_child=-2 2 -4
leaf_value=0 -0.043580681516896383 0 0.007354768967603521
leaf_weight=17.386545084416866 97.943170771002769 11.852477014064787 970.74387086927891
leaf_count=77 2281 45 3517
internal_value=0.00209259 0.00703424 0.00730984
internal_weight=1097.93 999.983 982.596
internal_count=5920 3639 3562
is_linear=0
shrinkage=0.0622895


Tree=90
num_leaves=5
num_cat=0
split_feature=10 3 13 7
split_gain=57.6446 1.11471 0.543291 0.0224755
threshold=1.4786106348037722 0.82822686433792125 0.8473356068134309 -2.5380120277404781
decision_type=2 2 2 2
left_child=1 -1 -2 -4
right_child=2 -3 3 -5
leaf_value=-0.043305094661810692 0 0 0 0.0073441192313257056
leaf_weight=97.535416439175606 7.2791898511350146 5.2251201197504988 22.825671046972275 965.11608080565929
leaf_count=2216 66 52 86 3500
internal_value=0.00208762 -0.041688 0.00707805 0.0072527
internal_weight=1097.98 102.761 995.221 987.942
internal_count=5920 2268 3652 3586
is_linear=0
shrinkage=0.0622895


Tree=91
num_leaves=4
num_cat=0
split_feature=0 12 13
split_gain=59.7556 0.786203 0.0506271
threshold=-1.1757192611694334 0.027057031169533733 0.87511932849884044
decision_type=2 2 2
left_child=1 -1 -3
right_child=-2 2 -4
leaf_value=0 -0.04361384374936076 0 0.0073938922402581996
leaf_weight=17.381241127848625 98.357313446700573 18.210842922329903 964.35685993731022
leaf_count=77 2281 68 3494
internal_value=0.002072 0.00703397 0.00731139
internal_weight=1098.31 999.949 982.568
internal_count=5920 3639 3562
is_linear=0
shrinkage=0.0622895


Tree=92
num_leaves=6
num_cat=0
split_feature=10 6 4 6 12
split_gain=366.924 16.3787 6.06317 5.90813 0.0406832
threshold=1.5417312383651736 3.7770829200744633 0.49939495325088507 3.8213272094726567 0.059980794787406928
decision_type=2 2 2 2 2
left_child=3 2 -2 -1 -3
right_child=1 4 -4 -5 -6
leaf_value=0.050390874994043794 -0.023192416061002506 0 0.017201818416047818 0 -0.046668202230983155
leaf_weight=254.10421545803547 33.043964743614197 11.888818606734274 19.435649551451206 5.2984310686588278 433.88471351563931
leaf_count=2265 176 78 90 28 3283
internal_value=-0.0102696 -0.0420559 0 0.0489796 -0.0460378
internal_weight=757.656 498.253 52.4796 259.403 445.774
internal_count=5920 3627 266 2293 3361
is_linear=0
shrinkage=0.0622895


Tree=93
num_leaves=4
num_cat=0
split_feature=6 10 12
split_gain=53.333 0.760128 0.101386
threshold=2.9700492620468144 1.5417312383651736 0.027057031169533733
decision_type=2 2 2
left_child=-1 -2 -3
right_child=1 2 -4
leaf_value=-0.043170223640051762 0 0 0.0069512175092520112
leaf_weight=90.013590481132269 11.349662553519009 13.248194873332976 979.06718515977263
leaf_count=2242 88 50 3540
internal_value=0.00209265 0.00661852 0.00687589
internal_weight=1093.68 1003.67 992.315
internal_count=5920 3678 3590
is_linear=0
shrinkage=0.0622895


Tree=94
num_leaves=4
num_cat=0
split_feature=6 8 7
split_gain=53.5935 0.650073 0.0729207
threshold=2.9700492620468144 -2.0303224325180049 -2.5380120277404781
decision_type=2 2 2
left_child=-1 2 -2
right_child=1 -3 -4
leaf_value=-0.043212371307542616 0 0 0.0069720676787654885
leaf_weight=90.277160480618477 23.12856037914753 14.467592880129812 965.90387148782611
leaf_count=2242 91 98 3489
internal_value=0.00209063 0.00663273 0.00686927
internal_weight=1093.78 1003.5 989.032
internal_count=5920 3678 3580
is_linear=0
shrinkage=0.0622895


Tree=95
num_leaves=5
num_cat=0
split_feature=0 12 8 2
split_gain=53.4763 0.745227 0.00832891 0.0054001
threshold=-1.1757192611694334 0.1220192387700081 -2.2249690294265743 1.6044961214065554
decision_type=2 2 2 2
left_child=1 3 -3 -1
right_child=-2 2 -4 -5
leaf_value=0 -0.043075167011482264 0.0072710648266437888 0 0.00057556103500004858
leaf_weight=40.36914474517107 90.66078183054924 887.09337043762207 12.65449897944927 63.248356893658638
leaf_count=161 2281 3200 47 231
internal_value=0.00207412 0.00662026 0.00721726 0
internal_weight=1094.03 1003.37 899.748 103.618
internal_count=5920 3639 3247 392
is_linear=0
shrinkage=0.0622895


Tree=96
num_leaves=8
num_cat=0
split_feature=10 12 1 3 3 10 7
split_gain=335.828 12.1257 8.2708 3.94009 3.52813 1.07191 0.133105
threshold=1.5417312383651736 0.1220192387700081 -1.5729234814643858 0.82822686433792125 1.041856110095978 2.1189781427383427 -2.5380120277404781
decision_type=2 2 2 2 2 2 2
left_child=3 4 -3 -1 5 -2 -4
right_child=1 2 6 -5 -6 -7 -8
leaf_value=0.049905691257780958 0.016424507315265981 0 0 0 -0.021431373431277587 0 -0.046681687923585326
leaf_weight=232.27989937365055 15.419566556811334 4.3870061561465254 5.7696905285120001 8.7807125523686391 31.370854251086712 8.8024066984653455 413.9466128796339
leaf_count=2229 83 30 38 64 230 52 3194
internal_value=-0.0107535 -0.0414239 -0.0452781 0.0483367 -0.00359963 0.000166294 -0.0463464
internal_weight=720.757 479.696 424.103 241.061 55.5928 24.222 419.716
internal_count=5920 3627 3262 2293 365 135 3232
is_linear=0
shrinkage=0.0622895


Tree=97
num_leaves=5
num_cat=0
split_feature=6 10 12 13
split_gain=47.6926 0.681957 0.0822677 0.07106
threshold=2.9700492620468144 1.4786106348037722 0.1220192387700081 0.87511932849884044
decision_type=2 2 2 2
left_child=-1 -2 -3 -4
right_child=1 2 3 -5
leaf_value=-0.042605755607614731 0 0 0 0.0069157180075464708
leaf_weight=83.004641383886337 8.4042663834989053 97.551403239369392 15.598823506385086 885.25706592947245
leaf_count=2242 74 356 65 3183
internal_value=0.00208244 0.00623169 0.00646614 0.00683322
internal_weight=1089.82 1006.81 998.407 900.856
internal_count=5920 3678 3604 3248
is_linear=0
shrinkage=0.0622895


Tree=98
num_leaves=4
num_cat=0
split_feature=6 10 7
split_gain=47.9416 0.669365 0.0169018
threshold=2.9700492620468144 1.5417312383651736 -2.5380120277404781
decision_type=2 2 2
left_child=-1 -2 -3
right_child=1 2 -4
leaf_value=-0.042648668027865107 0 0 0.0065739095545608401
leaf_weight=83.251334566622972 11.114225320518015 23.8711147159338 971.62179911881685
leaf_count=2242 88 93 3497
internal_value=0.00208567 0.00625052 0.00648954
internal_weight=1089.86 1006.61 995.493
internal_count=5920 3678 3590
is_linear=0
shrinkage=0.0622895


Tree=99
num_leaves=4
num_cat=0
split_feature=6 10 12
split_gain=48.054 0.648397 0.0937009
threshold=2.9700492620468144 1.5417312383651736 0.027057031169533733
decision_type=2 2 2
left_child=-1 -2 -3
right_child=1 2 -4
leaf_value=-0.042660040356170971 0 0 0.006561164610352924
leaf_weight=83.400772973895073 11.060935627669094 13.257065236568449 982.21980659291148
leaf_count=2242 88 50 3540
internal_value=0.00208424 0.00625685 0.00648925
internal_weight=1089.94 1006.54 995.477
internal_count=5920 3678 3590
is_linear=0
shrinkage=0.0622895


Tree=100
num_leaves=7
num_cat=0
split_feature=6 10 6 4 2 14
split_gain=307.916 16.4575 6.07184 2.68393 2.1201 0.584203
threshold=3.6625742912292485 2.0924757719039921 3.8046846389770512 0.49939495325088507 1.5990027785301211 0.26578509807586675
decision_type=2 2 2 2 2 2
left_child=1 4 3 5 -1 -2
right_child=2 -3 -4 -5 -6 -7
leaf_value=0.048963076005995268 0 0 -0.04538527507301008 0 0 -0.025500334384884717
leaf_weight=228.19671972095966 8.8610306084156054 10.110294356942175 402.21525358408689 11.479363262653349 4.8567401841282836 20.624454289674759
leaf_count=2314 55 53 3295 53 19 131
internal_value=-0.0111905 0.0441972 -0.042637 -0.00422458 0.0480846 -0.0194415
internal_weight=686.344 243.164 443.18 40.9648 233.053 29.4855
internal_count=5920 2386 3534 239 2333 186
is_linear=0
shrinkage=0.0622895


Tree=101
num_leaves=4
num_cat=0
split_feature=6 10 7
split_gain=42.7166 0.615788 0.0675262
threshold=2.9700492620468144 1.4786106348037722 -2.5380120277404781
decision_type=2 2 2
left_child=-1 -2 -3
right_child=1 2 -4
leaf_value=-0.042028323635538607 0 0 0.0062137470290590637
leaf_weight=76.649187617003918 8.2715549692511541 25.004203371703625 976.29432680085301
leaf_count=2242 74 99 3505
internal_value=0.00207918 0.00589168 0.00611431
internal_weight=1086.22 1009.57 1001.3
internal_count=5920 3678 3604
is_linear=0
shrinkage=0.0622895


Tree=102
num_leaves=4
num_cat=0
split_feature=0 14 8
split_gain=42.6541 0.534182 0.0854641
threshold=-1.1757192611694334 0.076160583645105376 -2.1306105852127071
decision_type=2 2 2
left_child=1 -1 -3
right_child=-2 2 -4
leaf_value=0 -0.041915031795156925 0.0061524899737775314 0
leaf_weight=8.7042031362652761 76.954016331583261 986.51722653210163 14.234521478414534
leaf_count=45 2281 3539 55
internal_value=0.00206649 0.00588313 0.0060814
internal_weight=1086.41 1009.46 1000.75
internal_count=5920 3639 3594
is_linear=0
shrinkage=0.0622895


Tree=103
num_leaves=4
num_cat=0
split_feature=6 10 2
split_gain=43.0062 0.581912 0.0413431
threshold=2.9700492620468144 1.4786106348037722 1.3008615970611574
decision_type=2 2 2
left_child=-1 -2 -3
right_child=1 2 -4
leaf_value=-0.042084432587027369 0 0 0.0061501608125470036
leaf_weight=77.020885724574327 8.1226913444697839 10.191370427608488 991.17766840755939
leaf_count=2242 74 46 3558
internal_value=0.00206228 0.0058943 0.00610568
internal_weight=1086.51 1009.49 1001.37
internal_count=5920 3678 3604
is_linear=0
shrinkage=0.0622895


Tree=104
num_leaves=6
num_cat=0
split_feature=10 14 2 7 13
split_gain=282.431 10.9103 4.25762 2.86701 0.483274
threshold=1.5417312383651736 0.076160583645105376 1.5329812765121462 -1.5585754513740537 0.87511932849884044
decision_type=2 2 2 2 2
left_child=2 -2 -1 4 -3
right_child=1 3 -4 -5 -6
leaf_value=0.048789020240586109 0 0 0 0 -0.042885664295281782
leaf_weight=201.93596035242081 10.206907011568545 7.747649334371089 6.3482962623238555 5.6574622318148604 421.68340122699738
leaf_count=2261 52 61 32 37 3477
internal_value=-0.0116401 -0.0402169 0.047207 -0.0418645 -0.0424456
internal_weight=653.58 445.295 208.284 435.089 429.431
internal_count=5920 3627 2293 3575 3538
is_linear=0
shrinkage=0.0622895


Tree=105
num_leaves=4
num_cat=0
split_feature=0 14 8
split_gain=38.2162 0.47093 0.105028
threshold=-1.1757192611694334 0.076160583645105376 -2.1306105852127071
decision_type=2 2 2
left_child=1 -1 -3
right_child=-2 2 -4
leaf_value=0 -0.041327136302809424 0.0058357856437578019 0
leaf_weight=8.4881991371512395 71.103385472670197 989.03264079988003 14.306497365236281
leaf_count=45 2281 3539 55
internal_value=0.00206316 0.005575 0.00575887
internal_weight=1082.93 1011.83 1003.34
internal_count=5920 3639 3594
is_linear=0
shrinkage=0.0622895


Tree=106
num_leaves=4
num_cat=0
split_feature=6 8 7
split_gain=38.4278 0.466544 0.042102
threshold=2.9700492620468144 -2.2249690294265743 -2.5380120277404781
decision_type=2 2 2
left_child=-1 2 -2
right_child=1 -3 -4
leaf_value=-0.041484659567747099 0 0 0.0058692738405232304
leaf_weight=71.043777909129858 22.266709428280592 21.340026654303074 968.45791940763593
leaf_count=2242 87 127 3464
internal_value=0.00205041 0.00556903 0.00578872
internal_weight=1083.11 1012.06 990.725
internal_count=5920 3678 3551
is_linear=0
shrinkage=0.0622895


Tree=107
num_leaves=4
num_cat=0
split_feature=6 1 8
split_gain=38.3788 0.504717 0.020794
threshold=2.9700492620468144 -1.5729234814643858 -2.1306105852127071
decision_type=2 2 2
left_child=-1 -2 -3
right_child=1 2 -4
leaf_value=-0.041463404495998564 0 0.0057898712648702996 0
leaf_weight=71.03761401027441 3.3053749427199355 994.96994268149137 13.906269665807484
leaf_count=2242 61 3563 54
internal_value=0.00204605 0.00556221 0.00574287
internal_weight=1083.22 1012.18 1008.88
internal_count=5920 3678 3617
is_linear=0
shrinkage=0.0622895


Tree=108
num_leaves=7
num_cat=0
split_feature=0 12 2 5 0 13
split_gain=258.03 20.2745 8.98812 3.40317 0.704214 0.111478
threshold=-1.7844370603561399 0.1220192387700081 1.6044961214065554 -3.4067308902740474 -1.1757192611694334 0.85230320692062389
decision_type=2 2 2 2 2 2
left_child=1 2 3 -1 -2 -3
right_child=4 5 -4 -5 -6 -7
leaf_value=0 0 0 -0.027455520575232983 0.036956514923012475 0.047689086350882579 -0.044809812881553453
leaf_weight=8.9702367410063761 3.6140757203102103 1.9392005056142796 30.63662601262331 18.292767807841301 187.72506328672171 371.5175766646862
leaf_count=66 19 16 231 92 2281 3215
internal_value=-0.0120175 -0.0393193 0 0.0207865 0.0470852 -0.0446804
internal_weight=622.696 431.356 57.8996 27.263 191.339 373.457
internal_count=5920 3620 389 158 2300 3231
is_linear=0
shrinkage=0.0622895


Tree=109
num_leaves=4
num_cat=0
split_feature=0 12 13
split_gain=34.0323 0.542026 0.0397442
threshold=-1.1757192611694334 0.1220192387700081 0.87511932849884044
decision_type=2 2 2
left_child=1 -1 -3
right_child=-2 2 -4
leaf_value=0 -0.040678422623657701 0 0.0058101511254587141
leaf_weight=103.8902995288372 65.584469130262733 15.514413490891455 895.12275972962379
leaf_count=392 2281 57 3190
internal_value=0.00202753 0.00524974 0.00574573
internal_weight=1080.11 1014.53 910.637
internal_count=5920 3639 3247
is_linear=0
shrinkage=0.0622895


Tree=110
num_leaves=4
num_cat=0
split_feature=0 14 8
split_gain=33.9833 0.44019 0.0713196
threshold=-1.1757192611694334 0.076160583645105376 -2.1306105852127071
decision_type=2 2 2
left_child=1 -1 -3
right_child=-2 2 -4
leaf_value=0 -0.040667449002900306 0.0054853121090147469 0
leaf_weight=8.535923205316065 65.548154268413782 991.9060316234827 14.247991703450678
leaf_count=45 2281 3539 55
internal_value=0.00202092 0.00523995 0.00542103
internal_weight=1080.24 1014.69 1006.15
internal_count=5920 3639 3594
is_linear=0
shrinkage=0.0622895


Tree=111
num_leaves=4
num_cat=0
split_feature=6 10 2
split_gain=34.2401 0.489212 0.0330889
threshold=2.9700492620468144 1.4786106348037722 1.3008615970611574
decision_type=2 2 2
left_child=-1 -2 -3
right_child=1 2 -4
leaf_value=-0.040825046156722999 0 0 0.0054789069144983438
leaf_weight=65.599599350243807 7.9607882462441912 10.192279890179632 996.63898372650146
leaf_count=2242 74 46 3558
internal_value=0.00201207 0.00524256 0.0054394
internal_weight=1080.39 1014.79 1006.83
internal_count=5920 3678 3604
is_linear=0
shrinkage=0.0622895


Tree=112
num_leaves=8
num_cat=0
split_feature=0 12 0 13 0 4 7
split_gain=236.18 19.6253 3.4238 1.84312 0.66983 0.600199 0.0682523
threshold=-1.7844370603561399 0.1220192387700081 -3.3383094072341915 0.94716256856918346 -1.1757192611694334 0.56228762865066539 -1.6372748017311094
decision_type=2 2 2 2 2 2 2
left_child=1 2 5 -4 -2 -1 -3
right_child=4 6 3 -5 -6 -7 -8
leaf_value=0 0 -0.044466543104151879 0.026679774293419257 0 0.047209634522266765 -0.024045739833767118 0
leaf_weight=6.1581836938858059 3.5984023213386527 353.46532017737627 13.93786731362343 15.046647965908049 173.93662951886654 22.212512850761414 5.2216191589832297
leaf_count=50 19 3195 68 91 2281 180 36
internal_value=-0.0123936 -0.0386809 0 0.00977564 0.0465718 -0.0192512 -0.0441333
internal_weight=593.577 416.042 57.3552 28.9845 177.535 28.3707 358.687
internal_count=5920 3620 389 159 2300 230 3231
is_linear=0
shrinkage=0.0622895


Tree=113
num_leaves=4
num_cat=0
split_feature=6 10 7
split_gain=30.5007 0.449167 0.0520636
threshold=2.9700492620468144 1.4786106348037722 -2.5380120277404781
decision_type=2 2 2
left_child=-1 -2 -3
right_child=1 2 -4
leaf_value=-0.040149297678480807 0 0 0.0052458132403148264
leaf_weight=60.504650393500924 7.8163939602673045 25.057966493070126 984.00336149334908
leaf_count=2242 74 99 3505
internal_value=0.00200307 0.00497156 0.00516091
internal_weight=1077.38 1016.88 1009.06
internal_count=5920 3678 3604
is_linear=0
shrinkage=0.0622895


Tree=114
num_leaves=4
num_cat=0
split_feature=0 12 10
split_gain=30.2036 0.610781 0.0176241
threshold=-1.1757192611694334 0.1220192387700081 1.6681249141693117
decision_type=2 2 2
left_child=1 -1 -3
right_child=-2 2 -4
leaf_value=0 -0.039979148786183714 0 0.0055104588331241471
leaf_weight=104.3721971809864 60.461986886337399 16.357237674295902 896.46083845198154
leaf_count=392 2281 60 3187
internal_value=0.00198158 0.004936 0.005454
internal_weight=1077.65 1017.19 912.818
internal_count=5920 3639 3247
is_linear=0
shrinkage=0.0622895


Tree=115
num_leaves=4
num_cat=0
split_feature=0 12 13
split_gain=30.5163 0.522857 0.0427713
threshold=-1.1757192611694334 0.1220192387700081 0.87511932849884044
decision_type=2 2 2
left_child=1 -1 -3
right_child=-2 2 -4
leaf_value=0 -0.040056634720637037 0 0.0054962376118943349
leaf_weight=103.98242880403996 60.88036010786891 15.539456114172934 897.40213058888912
leaf_count=392 2281 57 3190
internal_value=0.00197316 0.00494975 0.00543256
internal_weight=1077.8 1016.92 912.942
internal_count=5920 3639 3247
is_linear=0
shrinkage=0.0622895


Tree=116
num_leaves=6
num_cat=0
split_feature=10 4 3 7 7
split_gain=217.712 8.22259 3.97554 3.0241 1.25786
threshold=1.5417312383651736 1.6379766464233401 0.82822686433792125 -2.5380120277404781 -1.5714032649993894
decision_type=2 2 2 2 2
left_child=2 3 -1 -2 -5
right_child=1 -3 -4 4 -6
leaf_value=0.047684933834194601 0 0 0 -0.041267298170060841 0
leaf_weight=160.02067659050226 12.084707878530024 7.9863010495901099 7.2296522036194792 373.96878457069397 5.0230488926172248
leaf_count=2229 81 46 64 3464 36
internal_value=-0.0127504 -0.0383969 0.0456436 -0.0398247 -0.0408355
internal_weight=566.313 399.063 167.25 391.077 378.992
internal_count=5920 3627 2293 3581 3500
is_linear=0
shrinkage=0.0622895


Tree=117
num_leaves=5
num_cat=0
split_feature=6 10 2 12
split_gain=27.119 0.409633 0.0329208 0.0301174
threshold=2.9700492620468144 1.4786106348037722 1.3008615970611574 0.027057031169533733
decision_type=2 2 2 2
left_child=-1 -2 -3 -4
right_child=1 2 3 -5
leaf_value=-0.039434556799607903 0 0 0 0.0049528291236996076
leaf_weight=55.914925210177898 7.7302521653473368 10.169229783117769 14.086252212524412 987.19459296762943
leaf_count=2242 74 46 53 3505
internal_value=0.00195611 0.00468628 0.00486831 0.00490599
internal_weight=1075.1 1019.18 1011.45 1001.28
internal_count=5920 3678 3604 3558
is_linear=0
shrinkage=0.0622895


Tree=118
num_leaves=4
num_cat=0
split_feature=6 1 12
split_gain=27.3909 0.332917 0.165594
threshold=2.9700492620468144 -1.4637812972068784 0.1220192387700081
decision_type=2 2 2
left_child=-1 -2 -3
right_child=1 2 -4
leaf_value=-0.039532946466064353 0 0 0.0051677569121703045
leaf_weight=56.23250088095665 3.5470940694212905 101.59145870804787 913.86893182434142
leaf_count=2242 65 369 3244
internal_value=0.00194749 0.00469597 0.00483748
internal_weight=1075.24 1019.01 1015.46
internal_count=5920 3678 3613
is_linear=0
shrinkage=0.0622895


Tree=119
num_leaves=5
num_cat=0
split_feature=2 12 10 13
split_gain=26.8164 0.39564 0.142998 0.00488451
threshold=1.1438375115394595 0.1220192387700081 1.6254813075065615 0.87511932849884044
decision_type=2 2 2 2
left_child=-1 -2 -3 -4
right_child=1 2 3 -5
leaf_value=-0.039272753906327403 0 0 0 0.005217778980219339
leaf_weight=55.766227997839451 103.62788162194192 11.853181157261131 15.342322085052727 888.76641921699047
leaf_count=2266 389 57 57 3151
internal_value=0.00194106 0.00465442 0.00507843 0.00517129
internal_weight=1075.36 1019.59 915.962 904.109
internal_count=5920 3654 3265 3208
is_linear=0
shrinkage=0.0622895


Tree=120
num_leaves=8
num_cat=0
split_feature=10 12 0 3 0 1 4
split_gain=199.24 12.76 5.86838 3.95985 2.13482 3.45706 0.770504
threshold=1.5417312383651736 0.1220192387700081 -1.7844370603561399 0.82822686433792125 -3.3383094072341915 -0.20815026015043256 0.55545607209205639
decision_type=2 2 2 2 2 2 2
left_child=3 4 -3 -1 6 -6 -2
right_child=1 2 -4 -5 5 -7 -8
leaf_value=0.04723620970934015 0 -0.04340155623840955 0 0 0 0.038799921616213373 -0.02311036979378241
leaf_weight=148.5623719766736 5.6100553870201137 329.84304025769234 5.6192521750926963 7.1206168606877318 14.420640259981157 9.1144287511706334 20.529833182692528
leaf_count=2229 47 3217 45 64 90 49 179
internal_value=-0.0130508 -0.0377569 -0.0422406 0.0450613 0 0.00361663 -0.017467
internal_weight=540.82 385.137 335.462 155.683 49.675 23.5351 26.1399
internal_count=5920 3627 3262 2293 365 139 226
is_linear=0
shrinkage=0.0622895


Tree=121
num_leaves=4
num_cat=0
split_feature=6 8 12
split_gain=24.0958 0.356225 0.120074
threshold=2.9700492620468144 -2.2249690294265743 0.1220192387700081
decision_type=2 2 2
left_child=-1 2 -2
right_child=1 -3 -4
leaf_value=-0.038689926577189615 0 0 0.0049053827225075666
leaf_weight=51.743262726813555 95.826314017176628 21.177254868671298 904.37378437444568
leaf_count=2242 346 127 3205
internal_value=0.00190081 0.00441553 0.00461428
internal_weight=1073.12 1021.38 1000.2
internal_count=5920 3678 3551
is_linear=0
shrinkage=0.0622895


Tree=122
num_leaves=5
num_cat=0
split_feature=6 10 12 13
split_gain=24.3621 0.347536 0.130285 0.0433426
threshold=2.9700492620468144 1.5417312383651736 0.1220192387700081 0.87511932849884044
decision_type=2 2 2 2
left_child=-1 -2 -3 -4
right_child=1 2 3 -5
leaf_value=-0.038792850259064766 0 0 0 0.0049634122192282097
leaf_weight=52.044127512723207 10.247611753642557 97.723591029644012 15.555415693670509 897.58532158285379
leaf_count=2242 88 353 61 3176
internal_value=0.00190296 0.00443564 0.00460525 0.00490221
internal_weight=1073.16 1021.11 1010.86 913.141
internal_count=5920 3678 3590 3237
is_linear=0
shrinkage=0.0622895


Tree=123
num_leaves=5
num_cat=0
split_feature=6 7 2 12
split_gain=24.3107 0.316801 0.0642206 0.00473787
threshold=2.9700492620468144 -2.5380120277404781 1.3008615970611574 0.11514136940240861
decision_type=2 2 2 2
left_child=-1 -2 -3 -4
right_child=1 2 3 -5
leaf_value=-0.03876137980137203 0 0 0 0.0048651578264860759
leaf_weight=52.020119560882449 28.253644917160273 9.5797288194298726 73.308146983385086 910.07576593756676
leaf_count=2242 145 49 264 3220
internal_value=0.00190061 0.00443036 0.00462866 0.00467831
internal_weight=1073.24 1021.22 992.964 983.384
internal_count=5920 3678 3533 3484
is_linear=0
shrinkage=0.0622895


Tree=124
num_leaves=8
num_cat=0
split_feature=6 4 6 2 7 4 2
split_gain=184.801 11.4944 8.78227 1.62185 1.20835 0.771842 0.378814
threshold=3.6625742912292485 0.46538940072059637 3.8046846389770512 1.6068279147148135 -2.6119797229766841 0.25031902641057974 1.5768893957138064
decision_type=2 2 2 2 2 2 2
left_child=1 -1 5 -3 -4 -2 -7
right_child=2 3 4 -5 -6 6 -8
leaf_value=0 -0.013358245577421398 0.046369340289432265 0 0 -0.043037651279038719 0.012683691671210204 0
leaf_weight=10.585110411047934 16.782611809670925 146.93492809310555 5.6583260595798484 3.8852344825863829 314.66274105012417 9.1361749917268771 9.281842961907385
leaf_count=70 132 2301 38 15 3257 50 57
internal_value=-0.0133465 0.0405223 -0.0391195 0.0453101 -0.0424839 0 0
internal_weight=516.927 161.405 355.522 150.82 320.321 35.2006 18.418
internal_count=5920 2386 3534 2316 3295 239 107
is_linear=0
shrinkage=0.0622895


Tree=125
num_leaves=3
num_cat=0
split_feature=6 6
split_gain=21.3962 0.306243
threshold=2.9700492620468144 3.8046846389770512
decision_type=2 2
left_child=-1 -2
right_child=1 -3
leaf_value=-0.037907838466872269 0 0.0045123798094771957
leaf_weight=47.926464647054672 89.251361114904284 934.05073048174381
leaf_count=2242 383 3295
internal_value=0.00185448 0.00417427
internal_weight=1071.23 1023.3
internal_count=5920 3678
is_linear=0
shrinkage=0.0622895


Tree=126
num_leaves=5
num_cat=0
split_feature=6 10 12 13
split_gain=21.6421 0.31294 0.0698285 0.0520721
threshold=2.9700492620468144 1.4786106348037722 0.1220192387700081 0.87511932849884044
decision_type=2 2 2 2
left_child=-1 -2 -3 -4
right_child=1 2 3 -5
leaf_value=-0.038016319790502399 0 0 0 0.0046710681452896757
leaf_weight=48.212199656292796 7.340929126366972 98.509274616837502 15.681745504960416 901.52147758752108
leaf_count=2242 74 356 65 3183
internal_value=0.00185595 0.00419259 0.00434744 0.00460712
internal_weight=1071.27 1023.05 1015.71 917.203
internal_count=5920 3678 3604 3248
is_linear=0
shrinkage=0.0622895


Tree=127
num_leaves=4
num_cat=0
split_feature=0 14 8
split_gain=21.4021 0.275823 0.0554485
threshold=-1.1757192611694334 0.076160583645105376 -2.1306105852127071
decision_type=2 2 2
left_child=1 -1 -3
right_child=-2 2 -4
leaf_value=0 -0.037813289945979413 0.0043758173763774827 0
leaf_weight=8.077145364135502 48.15242225676775 1000.8280904442072 14.268019594252108
leaf_count=45 2281 3539 55
internal_value=0.00185565 0.00418012 0.0043205
internal_weight=1071.33 1023.17 1015.1
internal_count=5920 3639 3594
is_linear=0
shrinkage=0.0622895


Tree=128
num_leaves=8
num_cat=0
split_feature=10 12 13 0 0 1 7
split_gain=167.88 12.3509 5.27479 2.43334 1.58018 3.04047 0.541962
threshold=1.5417312383651736 0.1220192387700081 0.8473356068134309 -3.1594587564468379 -3.3383094072341915 -0.20815026015043256 -1.6193128824234007
decision_type=2 2 2 2 2 2 2
left_child=3 4 -3 -1 -2 -6 -4
right_child=1 2 6 -5 5 -7 -8
leaf_value=0 -0.015473966644574347 0 -0.042786268640519626 0.045230601763360474 0 0.035866958129882436 0
leaf_weight=2.620284527540206 24.892059698700905 4.4405559226870528 301.82148238271475 132.42822444066405 14.085081122815611 9.3030624687671644 4.7219916731119147
leaf_count=14 226 43 3185 2279 90 49 34
internal_value=-0.0136537 -0.0366299 -0.0412814 0.0440023 0 0.00270271 -0.0423746
internal_weight=494.313 359.264 310.984 135.049 48.2802 23.3881 306.543
internal_count=5920 3627 3262 2293 365 139 3219
is_linear=0
shrinkage=0.0622895


Tree=129
num_leaves=6
num_cat=0
split_feature=10 4 14 13 12
split_gain=17.7717 0.295947 0.234716 0.10738 0.0354048
threshold=1.3901752829551699 0.79518842697143566 0.090810380876064314 0.8473356068134309 0.1220192387700081
decision_type=2 2 2 2 2
left_child=1 -1 -2 -4 -5
right_child=2 -3 3 4 -6
leaf_value=0 0 -0.036038056161009739 0 0 0.0043706990822341288
leaf_weight=2.5313523113727561 13.324301928281782 44.413935182616115 5.5283020399510852 92.638903722167015 910.9661214761436
leaf_count=37 85 2207 47 333 3211
internal_value=0.0018136 -0.0347023 0.00394809 0.00408604 0.00414763
internal_weight=1069.4 46.9453 1022.46 1009.13 1003.61
internal_count=5920 2244 3676 3591 3544
is_linear=0
shrinkage=0.0622895


Tree=130
num_leaves=4
num_cat=0
split_feature=0 12 13
split_gain=18.7762 0.348444 0.0465769
threshold=-1.1757192611694334 0.1220192387700081 0.87511932849884044
decision_type=2 2 2
left_child=1 -1 -3
right_child=-2 2 -4
leaf_value=0 -0.036906857403677537 0 0.0043981429326635747
leaf_weight=104.06860523670912 44.342576012015343 15.654551796615122 905.36273771524429
leaf_count=392 2281 57 3190
internal_value=0.00181653 0.00394833 0.00433805
internal_weight=1069.43 1025.09 921.017
internal_count=5920 3639 3247
is_linear=0
shrinkage=0.0622895


Tree=131
num_leaves=5
num_cat=0
split_feature=6 10 12 7
split_gain=19.1643 0.284794 0.0736053 0.0131206
threshold=2.9700492620468144 1.4786106348037722 0.1220192387700081 -2.5380120277404781
decision_type=2 2 2 2
left_child=-1 -2 -3 -4
right_child=1 2 3 -5
leaf_value=-0.037175449077629569 0 0 0 0.0043912152811521991
leaf_weight=44.68700254894793 7.2845172155648461 98.627770438790321 10.102544551715253 908.88750247843564
leaf_count=2242 74 356 43 3205
internal_value=0.00180511 0.00396151 0.00410996 0.00436066
internal_weight=1069.59 1024.9 1017.62 918.99
internal_count=5920 3678 3604 3248
is_linear=0
shrinkage=0.0622895


Tree=132
num_leaves=8
num_cat=0
split_feature=10 12 2 13 2 1 7
split_gain=153.683 11.8482 5.59232 5.10393 3.88557 1.67534 0.696944
threshold=1.5417312383651736 0.1220192387700081 1.6044961214065554 0.8473356068134309 1.5329812765121462 -0.17733653634786603 -2.4823614358901973
decision_type=2 2 2 2 2 2 2
left_child=4 2 5 -3 -1 -2 -5
right_child=1 3 -4 6 -6 -7 -8
leaf_value=0.045839340463237128 0 0 -0.025381831693299616 0 0 0.03659780451595205 -0.042520751138141286
leaf_weight=119.9766270853579 13.665391571819784 4.3909946456551543 25.863128036260605 7.6681713238358489 6.0744718164205542 8.6131143942475301 287.10883452743292
leaf_count=2261 94 43 223 68 32 48 3151
internal_value=-0.0138921 -0.0360202 0 -0.0407419 0.0433634 0.015035 -0.0418546
internal_weight=473.361 347.31 48.1416 299.168 126.051 22.2785 294.777
internal_count=5920 3627 365 3262 2293 142 3219
is_linear=0
shrinkage=0.0622895


Tree=133
num_leaves=4
num_cat=0
split_feature=6 10 2
split_gain=16.8222 0.271068 0.036362
threshold=2.9700492620468144 1.4786106348037722 1.4033603668212893
decision_type=2 2 2
left_child=-1 -2 -3
right_child=1 2 -4
leaf_value=-0.036228758489545765 0 0 0.0040249340039047133
leaf_weight=41.282576587051153 7.2923866324126712 56.949824158102274 962.41154590249062
leaf_count=2242 74 211 3393
internal_value=0.0017613 0.00374493 0.00389315
internal_weight=1067.94 1026.65 1019.36
internal_count=5920 3678 3604
is_linear=0
shrinkage=0.0622895


Tree=134
num_leaves=3
num_cat=0
split_feature=6 6
split_gain=17.0012 0.271052
threshold=2.9700492620468144 3.8046846389770512
decision_type=2 2
left_child=-1 -2
right_child=1 -3
leaf_value=-0.036337678676840457 0 0.0040757850707530147
leaf_weight=41.481046268716455 89.176619013771415 937.25663258880377
leaf_count=2242 383 3295
internal_value=0.00176492 0.00376087
internal_weight=1067.91 1026.43
internal_count=5920 3678
is_linear=0
shrinkage=0.0622895


Tree=135
num_leaves=3
num_cat=0
split_feature=6 6
split_gain=16.9437 0.263156
threshold=2.9700492620468144 3.8046846389770512
decision_type=2 2
left_child=-1 -2
right_child=1 -3
leaf_value=-0.036300144943541245 0 0.0040576815002916133
leaf_weight=41.447938557714224 89.209275102242827 937.40111032873392
leaf_count=2242 383 3295
internal_value=0.00175448 0.00374693
internal_weight=1068.06 1026.61
internal_count=5920 3678
is_linear=0
shrinkage=0.0622895


Tree=136
num_leaves=8
num_cat=0
split_feature=10 12 13 10 7 5 10
split_gain=140.798 11.5753 4.94874 1.02164 0.914217 0.905119 1.54916
threshold=1.5417312383651736 0.1220192387700081 0.87511932849884044 1.4786106348037722 -1.6193128824234007 -3.4067308902740474 2.2008531093597417
decision_type=2 2 2 2 2 2 2
left_child=3 5 -3 -1 -4 -2 -7
right_child=1 2 4 -5 -6 6 -8
leaf_value=0.043713291182822689 -0.011749155040073596 0 -0.042114193220732281 0 0 0.020251191011445777 0
leaf_weight=114.76345119997859 25.440325997769833 8.3872979134321195 275.50173661857843 2.8331220373511306 4.1545246168971053 14.656375326216223 7.5657235831022254
leaf_count=2268 231 84 3147 25 31 87 47
internal_value=-0.0140913 -0.0354117 -0.040217 0.0427914 -0.0416482 0 0
internal_weight=453.303 335.706 288.044 117.597 279.656 47.6624 22.2221
internal_count=5920 3627 3262 2293 3178 365 134
is_linear=0
shrinkage=0.0622895


Tree=137
num_leaves=3
num_cat=0
split_feature=6 6
split_gain=14.826 0.255447
threshold=2.9700492620468144 3.8046846389770512
decision_type=2 2
left_child=-1 -2
right_child=1 -3
leaf_value=-0.035304694872246661 0 0.0038405718031595667
leaf_weight=38.314378662034869 89.308729685842991 939.01537438482046
leaf_count=2242 383 3295
internal_value=0.00170214 0.00353626
internal_weight=1066.64 1028.32
internal_count=5920 3678
is_linear=0
shrinkage=0.0622895


Tree=138
num_leaves=3
num_cat=0
split_feature=6 6
split_gain=14.9951 0.260549
threshold=2.9700492620468144 3.8046846389770512
decision_type=2 2
left_child=-1 -2
right_child=1 -3
leaf_value=-0.035419514422104739 0 0.0038619282539558634
leaf_weight=38.503294015303254 89.234610082581639 938.83288817107677
leaf_count=2242 383 3295
internal_value=0.00170887 0.0035548
internal_weight=1066.57 1028.07
internal_count=5920 3678
is_linear=0
shrinkage=0.0622895


Tree=139
num_leaves=3
num_cat=0
split_feature=6 6
split_gain=14.9424 0.25277
threshold=2.9700492620468144 3.8046846389770512
decision_type=2 2
left_child=-1 -2
right_child=1 -3
leaf_value=-0.035380173367385505 0 0.0038451813613025075
leaf_weight=38.470392391085625 89.264511397108436 938.96739926189184
leaf_count=2242 383 3295
internal_value=0.00169968 0.00354232
internal_weight=1066.7 1028.23
internal_count=5920 3678
is_linear=0
shrinkage=0.0622895


Tree=140
num_leaves=8
num_cat=0
split_feature=6 10 6 3 10 12 12
split_gain=131.919 10.704 9.37949 2.25564 1.42765 1.33771 0.444454
threshold=3.6625742912292485 2.0924757719039921 3.8046846389770512 0.7239828109741212 1.4786106348037722 1.0000000180025095e-35 0.12596303969621661
decision_type=2 2 2 2 2 2 2
left_child=1 3 6 -1 -4 -6 -2
right_child=2 -3 4 -5 5 -7 -8
leaf_value=0.046242189336246103 0.0041740626812834776 0 0 0 0 -0.041669527757362358 -0.008054272112296772
leaf_weight=107.45786980912089 8.2945623546838743 8.114208944141863 3.785860762000083 9.6490421891212446 3.66353715956211 269.59940534085035 24.355286426842213
leaf_count=2255 40 53 20 78 24 3251 199
internal_value=-0.014277 0.0378609 -0.0368697 0.0434444 -0.0406317 -0.0411592 0
internal_weight=434.92 125.221 309.699 117.107 277.049 273.263 32.6498
internal_count=5920 2386 3534 2333 3295 3275 239
is_linear=0
shrinkage=0.0622895


Tree=141
num_leaves=3
num_cat=0
split_feature=6 6
split_gain=13.0639 0.253479
threshold=2.9700492620468144 3.8046846389770512
decision_type=2 2
left_child=-1 -2
right_child=1 -3
leaf_value=-0.034343074167415229 0 0.0036504621103055509
leaf_weight=35.63958624843508 89.393539864569902 940.41078580915928
leaf_count=2242 383 3295
internal_value=0.00164851 0.00334874
internal_weight=1065.44 1029.8
internal_count=5920 3678
is_linear=0
shrinkage=0.0622895


Tree=142
num_leaves=5
num_cat=0
split_feature=0 12 2 13
split_gain=12.8802 0.245657 0.0421384 0.00405431
threshold=-1.1757192611694334 0.027057031169533733 1.4033603668212893 0.87511932849884044
decision_type=2 2 2 2
left_child=1 -1 -3 -4
right_child=-2 2 3 -5
leaf_value=0 -0.034140353318335717 0 0 0.0036706483842878549
leaf_weight=16.534019406884909 35.503688424825668 56.900179594755173 18.203936249017715 938.23992966115475
leaf_count=77 2281 201 66 3295
internal_value=0.00165437 0.00334294 0.00350688 0.00363329
internal_weight=1065.38 1029.88 1013.34 956.444
internal_count=5920 3639 3562 3361
is_linear=0
shrinkage=0.0622895


Tree=143
num_leaves=3
num_cat=0
split_feature=6 6
split_gain=13.1705 0.251055
threshold=2.9700492620468144 3.8046846389770512
decision_type=2 2
left_child=-1 -2
right_child=1 -3
leaf_value=-0.034422187259684232 0 0.0036547027468380637
leaf_weight=35.786245140247047 89.350961523130536 940.36536607146263
leaf_count=2242 383 3295
internal_value=0.00164621 0.00335438
internal_weight=1065.5 1029.72
internal_count=5920 3678
is_linear=0
shrinkage=0.0622895


Tree=144
num_leaves=8
num_cat=0
split_feature=6 0 6 7 2 0 4
split_gain=120.526 9.92513 9.17837 1.05886 0.256023 0.304083 0.101061
threshold=3.6625742912292485 -2.7633094787597652 3.8046846389770512 -2.6119797229766841 1.5768893957138064 -3.315836906433105 1.2271370291709902
decision_type=2 2 2 2 2 2 2
left_child=1 -1 4 -4 -2 -6 -5
right_child=2 -3 3 6 5 -7 -8
leaf_value=0 0 0.044442451458731443 0 -0.041111906391725177 -0.013339088673680676 0 0
leaf_weight=16.823113799095154 13.892912983894346 101.06466582790017 5.3943065926432601 256.57981519401073 12.213725835084913 6.3897748365998295 4.6821981817483893
leaf_count=87 91 2299 38 3218 108 40 39
internal_value=-0.0144453 0.0369677 -0.0362708 -0.0401179 0 -0.0073073 -0.0407234
internal_weight=417.041 117.888 299.153 266.656 32.4964 18.6035 261.262
internal_count=5920 2386 3534 3295 239 148 3257
is_linear=0
shrinkage=0.0622895


Tree=145
num_leaves=4
num_cat=0
split_feature=0 14 8
split_gain=11.4363 0.182891 0.0431223
threshold=-1.1757192611694334 0.076160583645105376 -2.2249690294265743
decision_type=2 2 2
left_child=1 -1 -3
right_child=-2 2 -4
leaf_value=0 -0.033230156578038218 0.0033442721273056497 0
leaf_weight=7.7215163968503466 33.248153563588858 1004.5554805919528 18.804967284202576
leaf_count=45 2281 3523 71
internal_value=0.00159258 0.00316953 0.00328864
internal_weight=1064.33 1031.08 1023.36
internal_count=5920 3639 3594
is_linear=0
shrinkage=0.0622895


Tree=146
num_leaves=3
num_cat=0
split_feature=6 6
split_gain=11.6213 0.242571
threshold=2.9700492620468144 3.8046846389770512
decision_type=2 2
left_child=-1 -2
right_child=1 -3
leaf_value=-0.033465416709365432 0 0.0034798396308745368
leaf_weight=33.345053440891206 89.30771647952497 941.64158543944359
leaf_count=2242 383 3295
internal_value=0.0015973 0.0031855
internal_weight=1064.29 1030.95
internal_count=5920 3678
is_linear=0
shrinkage=0.0622895


Tree=147
num_leaves=5
num_cat=0
split_feature=0 14 2 8
split_gain=11.4322 0.163624 0.0325278 0.0169396
threshold=-1.1757192611694334 0.076160583645105376 1.4033603668212893 -2.1306105852127071
decision_type=2 2 2 2
left_child=1 -1 -3 -4
right_child=-2 2 3 -5
leaf_value=0 -0.033227863808411716 0 0.0034243739767218749 0
leaf_weight=7.6539196893572798 33.24552336614579 56.872142620384693 952.54491597414017 14.066296622157095
leaf_count=45 2281 201 3340 53
internal_value=0.00159049 0.00316713 0.00327506 0.00338935
internal_weight=1064.38 1031.14 1023.48 966.611
internal_count=5920 3639 3594 3393
is_linear=0
shrinkage=0.0622895


Tree=148
num_leaves=8
num_cat=0
split_feature=6 10 6 10 12 10 4
split_gain=110.305 10.2017 8.99301 1.39941 1.30127 0.381337 0.000301037
threshold=3.6625742912292485 2.0924757719039921 3.8046846389770512 1.4786106348037722 1.0000000180025095e-35 2.1004935503005986 0.46538940072059637
decision_type=2 2 2 2 2 2 2
left_child=1 6 5 -4 -5 -2 -1
right_child=2 -3 3 4 -6 -7 -8
leaf_value=0 0.00167977554622038 0 0 0 -0.040707068103891096 -0.0087166355446347786 0.043016181052145872
leaf_weight=3.2392776273190966 13.330409891903399 8.0637026876211149 3.7019886672496787 3.6253878995776168 249.54520311206579 18.978330880403519 99.74267316237092
leaf_count=27 86 53 20 24 3251 153 2306
internal_value=-0.0145851 0.0361329 -0.0356798 -0.0396107 -0.0401671 0 0.0423341
internal_weight=400.227 111.046 289.181 256.873 253.171 32.3087 102.982
internal_count=5920 2386 3534 3295 3275 239 2333
is_linear=0
shrinkage=0.0622895


Tree=149
num_leaves=3
num_cat=0
split_feature=6 6
split_gain=9.97609 0.191449
threshold=2.9700492620468144 3.8046846389770512
decision_type=2 2
left_child=-1 -2
right_child=1 -3
leaf_value=-0.032206635163839197 0 0.0032531945452471136
leaf_weight=30.811796454712749 89.235279940068722 943.34311036765575
leaf_count=2242 383 3295
internal_value=0.0015314 0.00299154
internal_weight=1063.39 1032.58
internal_count=5920 3678
is_linear=0
shrinkage=0.0622895


Tree=150
num_leaves=3
num_cat=0
split_feature=6 6
split_gain=10.1172 0.197766
threshold=2.9700492620468144 3.8046846389770512
decision_type=2 2
left_child=-1 -2
right_child=1 -3
leaf_value=-0.032344919555596201 0 0.0032781451766203686
leaf_weight=30.983309265226126 89.178922265768051 943.1334468126297
leaf_count=2242 383 3295
internal_value=0.00154182 0.0030124
internal_weight=1063.3 1032.31
internal_count=5920 3678
is_linear=0
shrinkage=0.0622895


Tree=151
num_leaves=5
num_cat=0
split_feature=0 12 8 7
split_gain=9.95258 0.227726 0.0247255 0.00126283
threshold=-1.1757192611694334 0.1220192387700081 -2.2249690294265743 -2.4823614358901973
decision_type=2 2 2 2
left_child=1 -1 3 -3
right_child=-2 2 -4 -5
leaf_value=0 -0.03211439030933258 0 0 0.0033797001005890729
leaf_weight=104.00069592148066 30.888924759812653 18.075746238231659 12.924588136374949 897.49671168625355
leaf_count=392 2281 64 47 3136
internal_value=0.00153576 0.00299591 0.00330642 0.00334537
internal_weight=1063.39 1032.5 928.497 915.572
internal_count=5920 3639 3247 3200
is_linear=0
shrinkage=0.0622895


Tree=152
num_leaves=8
num_cat=0
split_feature=0 12 6 2 6 10 13
split_gain=101.017 15.34 6.26538 7.84037 1.86302 1.57383 0.707573
threshold=-1.7844370603561399 0.1220192387700081 3.9437114000320439 1.5930643677711489 3.8213272094726567 1.6254813075065615 0.87511932849884044
decision_type=2 2 2 2 2 2 2
left_child=1 2 3 -1 -2 -3 -7
right_child=4 5 -4 -5 -6 6 -8
leaf_value=0.051429760440036346 0.043430102921454654 0 -0.025129207552966808 0 0 0 -0.040440525550490929
leaf_weight=15.221344947814943 85.257066547870636 4.4617797061800948 22.913527980446815 11.542997159063814 1.863977938890456 4.9710474908351889 238.34618835151196
leaf_count=74 2286 40 239 76 14 54 3137
internal_value=-0.0146967 -0.0328723 0 0.0191745 0.0419863 -0.0392103 -0.0398841
internal_weight=384.578 297.457 49.6779 26.7643 87.121 247.779 243.317
internal_count=5920 3620 389 150 2300 3231 3191
is_linear=0
shrinkage=0.0622895


Tree=153
num_leaves=4
num_cat=0
split_feature=6 2 12
split_gain=8.67059 0.172092 0.0602824
threshold=2.9700492620468144 1.4033603668212893 0.027057031169533733
decision_type=2 2 2
left_child=-1 -2 -3
right_child=1 2 -4
leaf_value=-0.031048553142410257 0 0 0.0030917760386892277
leaf_weight=28.704504870809615 58.866539906710386 14.602969244122503 960.36399560421705
leaf_count=2242 263 55 3360
internal_value=0.00147393 0.00282978 0.00302919
internal_weight=1062.54 1033.83 974.967
internal_count=5920 3678 3415
is_linear=0
shrinkage=0.0622895


Tree=154
num_leaves=4
num_cat=0
split_feature=6 2 8
split_gain=8.79669 0.165097 0.0216871
threshold=2.9700492620468144 1.4033603668212893 -2.1306105852127071
decision_type=2 2 2
left_child=-1 -2 -3
right_child=1 2 -4
leaf_value=-0.031190312802338905 0 0.0030800754196213228 0
leaf_weight=28.864174571819603 58.720881935209036 960.70446342229843 14.159744266420601
leaf_count=2242 263 3361 54
internal_value=0.00148357 0.00284899 0.00304348
internal_weight=1062.45 1033.59 974.864
internal_count=5920 3678 3415
is_linear=0
shrinkage=0.0622895


Tree=155
num_leaves=3
num_cat=0
split_feature=6 6
split_gain=8.80629 0.172831
threshold=2.9700492620468144 3.8046846389770512
decision_type=2 2
left_child=-1 -2
right_child=1 -3
leaf_value=-0.031195448868837634 0 0.0030954160580203157
leaf_weight=28.894673095084727 89.136204492300749 944.48223115503788
leaf_count=2242 383 3295
internal_value=0.00148079 0.0028472
internal_weight=1062.51 1033.62
internal_count=5920 3678
is_linear=0
shrinkage=0.0622895


Tree=156
num_leaves=8
num_cat=0
split_feature=0 12 6 2 6 7 8
split_gain=92.8696 14.5204 5.57898 7.10374 2.00207 0.874846 1.47289
threshold=-1.7844370603561399 0.1220192387700081 3.9437114000320439 1.5930643677711489 3.9469604492187504 -1.5585754513740537 -2.1306105852127071
decision_type=2 2 2 2 2 2 2
left_child=1 2 3 -1 -2 6 -3
right_child=4 5 -4 -5 -6 -7 -8
leaf_value=0.048397287811738084 0.043014134495488805 -0.039754977215090366 -0.024400000846188433 0 0 0 0
leaf_weight=15.319701120257379 79.88968339189887 231.9732156842947 22.38221101462841 11.521940201520918 1.6464414298534382 3.5520901083946219 3.393765226006507
leaf_count=74 2287 3171 239 76 13 27 33
internal_value=-0.0147921 -0.03233 0 0.0176068 0.0414437 -0.0386831 -0.0391585
internal_weight=369.679 288.143 49.2239 26.8416 81.5361 238.919 235.367
internal_count=5920 3620 389 150 2300 3231 3204
is_linear=0
shrinkage=0.0622895


Tree=157
num_leaves=3
num_cat=0
split_feature=6 6
split_gain=7.48792 0.157992
threshold=2.9700492620468144 3.8046846389770512
decision_type=2 2
left_child=-1 -2
right_child=1 -3
leaf_value=-0.029814859331049454 0 0.0029120807440342978
leaf_weight=26.744523772969842 89.177714867517352 945.85209669172764
leaf_count=2242 383 3295
internal_value=0.00141599 0.00267531
internal_weight=1061.77 1035.03
internal_count=5920 3678
is_linear=0
shrinkage=0.0622895


Tree=158
num_leaves=3
num_cat=0
split_feature=6 6
split_gain=7.60216 0.164349
threshold=2.9700492620468144 3.8046846389770512
decision_type=2 2
left_child=-1 -2
right_child=1 -3
leaf_value=-0.029961627930958825 0 0.0029361211519708247
leaf_weight=26.893629673868418 89.131858034059405 945.65002908557653
leaf_count=2242 383 3295
internal_value=0.0014266 0.00269481
internal_weight=1061.68 1034.78
internal_count=5920 3678
is_linear=0
shrinkage=0.0622895


Tree=159
num_leaves=5
num_cat=0
split_feature=0 12 13 7
split_gain=7.50126 0.171064 0.0315982 0.00121097
threshold=-1.1757192611694334 0.1220192387700081 0.87511932849884044 -2.425288081169128
decision_type=2 2 2 2
left_child=1 -1 -3 -4
right_child=-2 2 3 -5
leaf_value=0 -0.029768005598682049 0 0 0.003059758757019789
leaf_weight=103.8354565910995 26.845629163086414 15.701155953109263 32.433903515338898 882.88975642621517
leaf_count=392 2281 57 114 3076
internal_value=0.00142593 0.00268755 0.00295658 0.00300421
internal_weight=1061.71 1034.86 931.025 915.324
internal_count=5920 3639 3247 3190
is_linear=0
shrinkage=0.0622895


Tree=160
num_leaves=7
num_cat=0
split_feature=6 10 2 12 6 2
split_gain=85.9245 22.9711 6.82905 1.1313 1.02055 0.442093
threshold=3.8046846389770512 2.1004935503005986 1.6590377092361452 0.052564734593033798 3.852473378181458 1.4711651802062991
decision_type=2 2 2 2 2 2
left_child=1 2 -1 -2 -5 -3
right_child=3 5 -4 4 -6 -7
leaf_value=0.044802224175141805 0 0 0 0 -0.040188168454616556 -0.020833268406912846
leaf_weight=91.719203254207969 7.4572623148560515 5.2099359706044224 7.5033622682094565 10.198478840291498 213.46734190732241 20.079153098165989
leaf_count=2373 59 41 49 139 3097 162
internal_value=-0.0148581 0.0246209 0.0398548 -0.0381521 -0.0390351 -0.0166367
internal_weight=355.635 124.512 99.2226 231.123 223.666 25.2891
internal_count=5920 2625 2422 3295 3236 203
is_linear=0
shrinkage=0.0622895


Tree=161
num_leaves=3
num_cat=0
split_feature=6 6
split_gain=6.43546 0.144432
threshold=2.9700492620468144 3.8046846389770512
decision_type=2 2
left_child=-1 -2
right_child=1 -3
leaf_value=-0.028521121424179539 0 0.0027555679566988902
leaf_weight=24.951326144859195 89.147894725203514 946.99867132306099
leaf_count=2242 383 3295
internal_value=0.00135826 0.00252963
internal_weight=1061.1 1036.15
internal_count=5920 3678
is_linear=0
shrinkage=0.0622895


Tree=162
num_leaves=3
num_cat=0
split_feature=6 6
split_gain=6.5373 0.150676
threshold=2.9700492620468144 3.8046846389770512
decision_type=2 2
left_child=-1 -2
right_child=1 -3
leaf_value=-0.028673000723933632 0 0.0027778797702947477
leaf_weight=25.090390591882169 89.106922373175621 946.80954251438379
leaf_count=2242 383 3295
internal_value=0.00136771 0.00254725
internal_weight=1061.01 1035.92
internal_count=5920 3678
is_linear=0
shrinkage=0.0622895


Tree=163
num_leaves=6
num_cat=0
split_feature=0 12 2 9 2
split_gain=6.44509 0.148854 0.0558967 0.00818568 0.000528356
threshold=-1.1757192611694334 0.027057031169533733 1.4033603668212893 -0.26489987969398493 1.9358132481575014
decision_type=2 2 2 2 2
left_child=1 -1 -3 4 -4
right_child=-2 2 3 -5 -6
leaf_value=0 -0.028473064654381264 0 0.002860128546905271 0 0
leaf_weight=16.08036994561553 25.032758570276201 57.195950329303741 921.33618237823248 27.004745334386826 14.347927719354628
leaf_count=77 2281 201 3216 95 50
internal_value=0.00137165 0.00254474 0.00267284 0.00279174 0.00283773
internal_weight=1061 1035.97 1019.88 962.689 935.684
internal_count=5920 3639 3562 3361 3266
is_linear=0
shrinkage=0.0622895


Tree=164
num_leaves=8
num_cat=0
split_feature=6 4 2 2 7 1 2
split_gain=78.6709 18.241 4.12031 1.23643 1.05338 0.419049 0.356938
threshold=3.8046846389770512 0.49939495325088507 1.6870445609092715 1.5486810207366946 -2.6119797229766841 0.022464569658041004 1.9358132481575014
decision_type=2 2 2 2 2 2 2
left_child=1 3 5 -1 -2 -3 -6
right_child=4 2 -4 -5 6 -7 -8
leaf_value=0 0 0.043513810041858891 0 -0.017239505868567793 -0.038707123958645492 0 0
leaf_weight=9.9218258447945136 5.0353409498929969 80.76876019872725 4.2556199841201297 20.509165339171886 214.56112958490849 4.0760218687355509 3.5094981491565695
leaf_count=85 38 2317 20 178 3207 25 50
internal_value=-0.0149512 0.0234699 0.0389708 -0.00653097 -0.0376342 0.0422294 -0.0383116
internal_weight=342.637 119.531 89.1004 30.431 223.106 84.8448 218.071
internal_count=5920 2625 2362 263 3295 2342 3257
is_linear=0
shrinkage=0.0622895


Tree=165
num_leaves=3
num_cat=0
split_feature=0 6
split_gain=5.58037 0.121184
threshold=-1.1757192611694334 3.8046846389770512
decision_type=2 2
left_child=1 -1
right_child=-2 -3
leaf_value=0 -0.027251266821700742 0.002615274439216313
leaf_weight=89.035727072507143 23.505894344300032 947.87001070380211
leaf_count=347 2281 3292
internal_value=0.00130913 0.00240809
internal_weight=1060.41 1036.91
internal_count=5920 3639
is_linear=0
shrinkage=0.0622895


Tree=166
num_leaves=4
num_cat=0
split_feature=6 2 0
split_gain=5.57465 0.140737 0.00393465
threshold=2.9700492620468144 1.4033603668212893 -2.4284338951110835
decision_type=2 2 2
left_child=-1 -2 -3
right_child=1 2 -4
leaf_value=-0.027288507371096449 0 0.0026208291259552821 0
leaf_weight=23.399171318858862 58.711419351398945 961.94797611236572 16.26862208917737
leaf_count=2242 263 3357 58
internal_value=0.00131766 0.00241469 0.00259594
internal_weight=1060.33 1036.93 978.217
internal_count=5920 3678 3415
is_linear=0
shrinkage=0.0622895


Tree=167
num_leaves=3
num_cat=0
split_feature=6 6
split_gain=5.65447 0.142638
threshold=2.9700492620468144 3.8046846389770512
decision_type=2 2
left_child=-1 -2
right_child=1 -3
leaf_value=-0.027419459035974938 0 0.002649278766634506
leaf_weight=23.532286107540131 89.058288067579269 947.74089565873146
leaf_count=2242 383 3295
internal_value=0.00132139 0.00242528
internal_weight=1060.33 1036.8
